tree
version=v4
num_class=1
num_tree_per_iteration=1
label_index=0
max_feature_idx=10
objective=binary sigmoid:1
feature_names=Column_0 Column_1 Column_2 Column_3 Column_4 Column_5 Column_6 Column_7 Column_8 Column_9 Column_10
feature_infos=[-2.0150605207040932:5.6840589708788842] [-3.1387779154561741:3.746085246413188] [-1.0024443704159223:5.4213921299827632] [-2.6860166608607177:7.7813827139174458] [-3.7206772271073016:5.9971091490728048] [-3.6205912366413928:9.4621592754902277] [-3.8533522120207633:9.1914647419372919] [-4.404096622362049:13.28838871160622] [-2.705434099340148:4.6912282861192294] [0:1] [0:1]
tree_sizes=974 993 992 995 997 995 996 998 999 992 998 993 991 992 995 992 997 996 995 992 991 996 994 992 987 988 992 997 993 995 996 993 998 996 998 998 994 998 994 998 994 1002 1000 988 995 992 1000 1001 991 994 996 994 1001 993 996 996 995 1003 994 995 993 1002 996 990 998 1001 996 1000 1003 996 1000 1000 996 991 988 994 885 996 992 992 992 1000 997 896 1008 994 990 993 988 987 992 994 990 995 991 989 986 987 997 868 995 875 993 999 996 877 985 990 1001 894 1005 994 992 996 874 993 992 989 994 875 986 883 884 991 1006 992 892 880 995 1002 993 986 996 896 882 882 989 993 999 993 894 981 875 990 996 886 891 882 1002 889 888 889 997 882 985 882 997 1003 881 891 896 998 988 985 996 995 992 1001 884 999 1003 878 895 891 990 991 994 992 1001 998 988 995 880 993 988 894 992 883 885 999 991 884 1002 879 994 885 1003 987 992 983 993 996 991 991 888 1004 874 885 991 1000 999 882 986 995 894 1000 877 994 996 999 885 1000 987 992 893 987 871 1006 1002 892 1004 893 994 900 984 1008 996 887 1000 996 885 997 1004 992 994 995 987 998 884 886 869 988 894 996 1008 1005 898 994 1000 987 892 1001 893 777 1006 888 991 1002 994 988 1012 993 983 1000 984 885 1007 988 991 990 877 884 986 893 990 890 995 997 1008 993 984 998 886 986 888 895 879 893 889 999 995 896 1004 894 993 996 1004 1017 984 993 1008 898 994 885 990 876 990 889 680 997 988 994 881 988 996 998 1000 996 989 993 1003 1003 1004 995 991 871 988 1003 1000 890 784 894 897 992 975 990 883 1000 889 896 978 999 1003 999 1011 788 997 994 981 986 997 892 999 1000 891 994 989 997 988 999 999 995 883 1001 1005 990 893 883 992 1001 997 901 987 997 987 996 784 982 886 888 990 999 887 993 992 1000 980 985 1002 992 993 992 1014 1004 1002 997 888 997 997 986 1000 889 1000 993 998 1000 879 1001 997 1002 999 892 996 1000 988 998 1012 1012 990 996 996 1001 894 1013 991 569 980 991 894 883 996 998 996 881 1007 1003 891 1002 892 995 879 993 1001 997 1001 995 999 993 1002 997 893 997 994 991 989 988 997 875 1003 998 569 994 895 1001 1006 999 790 989 1004 996 1003 1005 892 1005 983 1002 992 1000 986 982 895 996 1005 995 887 983 777 1001 894 1007 896 1001 985 999 987 996 996 987 990 993 889 1010 898 892 996 881 893 905 784 997 994 792 993 987 775 996 988 988 990 999 1000 989 878 879 982 1002 998 984 991 884 998 1001 1001 890 1000 999 994 990 983 1001 884 999 987 1000 990 569 883 997 983 883 774 998 986 986 895 894 983 997 1008 997 1000 894 1006 904 991 989 999 1004 1005 996 875 896 999 996 997 1001 999 1001 1000 1003 995 891 991 999 991 1000 1001 889 986 895 900 886 995 891 778 1006 896 883 1000 986 994 774 896 873 990 884 997 982 997 1004 999 1004 985 993 893 1003 877 999 995 888 1003 997 994 990 1001 890 997 1005 891 993 896 992 999 569 1000 993 993 986 999 904 1004 998 997 998 1003 993 1003 1004 988 893 993 883 893 883 986 997 999 991

Tree=0
num_leaves=8
num_cat=0
split_feature=9 1 1 1 4 4 4
split_gain=7152.83 823.66 140.525 130.528 101.233 79.6222 58.9083
threshold=1.0000000180025095e-35 0.68068188624754378 -0.15533721197945086 1.3254547855337229 0.79457713353559345 0.95041334598256089 -0.024561931890772572
decision_type=2 2 2 2 2 2 2
left_child=1 4 6 -3 -1 -4 -2
right_child=2 3 5 -5 -6 -7 -8
leaf_value=0.84940935771564396 0.93485049770809037 0.79379675878990041 0.90725496930524008 0.7625823491365693 0.81667548038597204 0.83867451226035372 0.91605771185457185
leaf_weight=861.16526566445827 1825.2121858000755 952.17596000432968 555.64423912763596 638.53269758820534 392.36647170782089 52.898664444684982 643.73925904929638
leaf_count=4135 8764 4572 2668 3066 1884 254 3091
internal_value=0.867848 0.806783 0.924284 0.781267 0.839163 0.901293 0.929951
internal_weight=0 2844.24 3077.49 1590.71 1253.53 608.543 2468.95
internal_count=28434 13657 14777 7638 6019 2922 11855
is_linear=0
shrinkage=1


Tree=1
num_leaves=8
num_cat=0
split_feature=0 0 0 0 0 0 0
split_gain=7027.3 872.209 338.781 136.737 86.0327 57.2633 45.2789
threshold=0.090508088544483403 0.78284250093932062 -0.43118581178343945 1.2699572666633756 0.39269965616959152 -0.0981737111418403 -0.77397027655221873
decision_type=2 2 2 2 2 2 2
left_child=2 4 6 -3 -2 -4 -1
right_child=1 3 5 -5 -6 -7 -8
leaf_value=0.067378571996187991 -0.013437831026471003 -0.07609774589633507 0.032665085727079143 -0.10881482837835303 -0.042564461132721124 0.0025447734882899551 0.051793771104917001
leaf_weight=1676.1314720362425 488.49482922255993 740.55894266068935 535.79504215717316 717.65346243977547 709.6691522449255 271.25324331223965 779.10202650725842
leaf_count=8263 2318 3461 2599 3333 3340 1300 3820
internal_value=0 -0.0644552 0.0525644 -0.0921993 -0.0306895 0.0225415 0.0624332
internal_weight=0 2656.38 3262.28 1458.21 1198.16 807.048 2455.23
internal_count=28434 12452 15982 6794 5658 3899 12083
is_linear=0
shrinkage=0.0534144


Tree=2
num_leaves=8
num_cat=0
split_feature=0 0 0 0 0 2 0
split_gain=6285.5 819.975 242.664 111.356 93.5725 50.9798 24.5354
threshold=0.018342938066845647 0.78284250093932062 -0.55747482511930546 1.2699572666633756 0.37691352950260826 1.0000000180025095e-35 -0.84651128718859414
decision_type=2 2 2 2 2 2 2
left_child=2 4 6 -3 -2 -4 -1
right_child=1 3 5 -5 -6 -7 -8
leaf_value=0.066716208090164167 -0.010400313626291601 -0.070015509136062123 0.038270068702664306 -0.099059590873934997 -0.039126585425458708 0.011042609636330112 0.054653216950386357
leaf_weight=1431.5519116818905 570.25396023690701 761.29028256237507 643.09928275644779 745.3916530162096 747.74424380064011 282.338573127985 724.53377026319504
leaf_count=7276 2699 3461 3199 3333 3465 1354 3647
internal_value=0 -0.0574677 0.0528424 -0.0843843 -0.0266977 0.0299633 0.0626625
internal_weight=0 2824.68 3081.52 1506.68 1318 925.438 2156.09
internal_count=28434 12958 15476 6794 6164 4553 10923
is_linear=0
shrinkage=0.0534144


Tree=3
num_leaves=8
num_cat=0
split_feature=0 0 0 0 0 2 0
split_gain=5645.18 696.699 233.761 97.7874 81.7192 47.4241 24.1823
threshold=0.018342938066845647 0.78284250093932062 -0.55747482511930546 1.6097348501622533 0.39269965616959152 1.0000000180025095e-35 -0.84651128718859414
decision_type=2 2 2 2 2 2 2
left_child=2 4 6 -3 -2 -4 -1
right_child=1 3 5 -5 -6 -7 -8
leaf_value=0.06524077077511066 -0.010398044269598755 -0.069500927077833577 0.036872901527646038 -0.099650335713606555 -0.036999867468505122 0.010501459198060647 0.053099265935562773
leaf_weight=1386.945555254817 599.54096375405788 1125.0796247273684 632.1184193789959 422.07871121168137 731.41093610227108 281.06539611518383 706.40084017813206
leaf_count=7276 2824 4964 3199 1830 3340 1354 3647
internal_value=0 -0.0533512 0.0513065 -0.077726 -0.0250168 0.0287561 0.0611436
internal_weight=0 2878.11 3006.53 1547.16 1330.95 913.184 2093.35
internal_count=28434 12958 15476 6794 6164 4553 10923
is_linear=0
shrinkage=0.0534144


Tree=4
num_leaves=8
num_cat=0
split_feature=0 0 0 0 5 0 0
split_gain=5082.37 598.478 225.634 84.2643 77.3367 44.2981 23.9341
threshold=0.018342938066845647 0.78284250093932062 -0.55747482511930546 1.2699572666633756 0.41011194598249118 -0.18913186955636285 -0.84651128718859414
decision_type=2 2 2 2 2 2 2
left_child=2 4 6 -3 -2 -4 -1
right_child=1 3 5 -5 -6 -7 -8
leaf_value=0.063859747311222251 -0.010777830966611448 -0.059708332750723028 0.035795714860507928 -0.084373102421135993 -0.036417476167786102 0.010495758302716547 0.051610085031006767
leaf_weight=1342.4649392962456 678.27092811465263 795.50162921845913 609.04758940637112 785.32541951537132 664.44501835107803 292.17472842335701 688.45473846793175
leaf_count=7276 3132 3461 3109 3333 3032 1444 3647
internal_value=0 -0.0496884 0.0498368 -0.0719613 -0.0234656 0.0275935 0.0597073
internal_weight=0 2923.54 2932.14 1580.83 1342.72 901.222 2030.92
internal_count=28434 12958 15476 6794 6164 4553 10923
is_linear=0
shrinkage=0.0534144


Tree=5
num_leaves=8
num_cat=0
split_feature=9 1 3 3 3 3 1
split_gain=4279.67 415.599 169.778 122.288 113.012 71.8224 56.4863
threshold=1.0000000180025095e-35 0.68068188624754378 0.10641536589461904 0.58588978886832865 0.17394697476415558 2.0783383448850858 0.13426417498807056
decision_type=2 2 2 2 2 2 2
left_child=1 4 6 -3 -1 -4 -2
right_child=2 3 5 -5 -6 -7 -8
leaf_value=-0.0046047867221948374 0.058855207355696326 -0.04355194847556302 0.028798874038332842 -0.071821487851813817 -0.035925454517022483 -0.042823357559687227 0.029905761840926397
leaf_weight=667.03612215816975 1924.5934599339962 767.44632388651371 544.42003752291203 1012.6515846252441 647.98126967251301 43.109863832592964 213.64689712226391
leaf_count=3167 10660 3383 2781 4255 2852 193 1143
internal_value=0 -0.0428108 0.0489749 -0.0596338 -0.0200382 0.0235436 0.0559627
internal_weight=0 3095.12 2725.77 1780.1 1315.02 587.53 2138.24
internal_count=28434 13657 14777 7638 6019 2974 11803
is_linear=0
shrinkage=0.0534144


Tree=6
num_leaves=8
num_cat=0
split_feature=0 0 0 0 4 0 1
split_gain=4180.77 559.974 135.545 96.5862 73.963 21.937 20.2048
threshold=-0.088401347014660167 0.65993622903209392 -0.57626783305619023 1.2699572666633756 1.0000000180025095e-35 -0.84651128718859414 -0.41215353627140255
decision_type=2 2 2 2 2 2 2
left_child=2 4 5 -3 -2 -1 -4
right_child=1 3 6 -5 -6 -7 -8
leaf_value=0.06143286358618813 -0.032528082986133092 -0.049462104019325638 0.04171915678659379 -0.073932101992830401 -0.0049694017150410837 0.049143592515511515 0.023929493495404828
leaf_weight=1258.1696805804968 413.22724777460098 1066.4542436003685 295.87781931459904 809.58915726840496 848.13605970144272 617.97089153528214 473.90597331523895
leaf_count=7276 1889 4554 1570 3333 3898 3452 2462
internal_value=0 -0.0415183 0.049641 -0.0600219 -0.0139977 0.057385 0.0307672
internal_weight=0 3137.41 2645.92 1876.04 1261.36 1876.14 769.784
internal_count=28434 13674 14760 7887 5787 10728 4032
is_linear=0
shrinkage=0.0534144


Tree=7
num_leaves=8
num_cat=0
split_feature=9 1 3 3 3 3 1
split_gain=3527.09 325.913 155.152 91.8524 85.8429 59.1624 55.0644
threshold=1.0000000180025095e-35 0.68068188624754378 0.10641536589461904 0.58588978886832865 0.14693433121634106 2.0783383448850858 0.13426417498807056
decision_type=2 2 2 2 2 2 2
left_child=1 4 6 -3 -1 -4 -2
right_child=2 3 5 -5 -6 -7 -8
leaf_value=-0.0037542259518028938 0.056359561312215263 -0.038625477039600849 0.026867538011852137 -0.062853528778021042 -0.030909116043492831 -0.037495524934866728 0.027215782736102784
leaf_weight=649.24383254349232 1807.8237939625978 783.43282704055309 531.58626934885979 1037.9123594760895 680.04140405356884 44.128875523805618 206.04976627230644
leaf_count=3079 10660 3383 2781 4255 2940 193 1143
internal_value=0 -0.0377556 0.0463872 -0.0524321 -0.0176462 0.0219341 0.0533777
internal_weight=0 3150.63 2589.59 1821.35 1329.29 575.715 2013.87
internal_count=28434 13657 14777 7638 6019 2974 11803
is_linear=0
shrinkage=0.0534144


Tree=8
num_leaves=8
num_cat=0
split_feature=0 0 0 0 4 0 1
split_gain=3467.11 446.853 128.005 76.7993 66.181 22.2524 18.5864
threshold=-0.088401347014660167 0.68511885966751951 -0.57626783305619023 1.6097348501622533 1.0000000180025095e-35 -0.84651128718859414 -0.41215353627140255
decision_type=2 2 2 2 2 2 2
left_child=2 4 5 -3 -2 -1 -4
right_child=1 3 6 -5 -6 -7 -8
leaf_value=0.059251982000165772 -0.030297307211434386 -0.047522031083999862 0.039378946567752697 -0.072806898924511199 -0.0048393436411202674 0.046509485248832048 0.022044752850742907
leaf_weight=1176.6094983965158 431.69583976268768 1404.342459410429 285.11455544829369 453.3768884241581 896.09913820028305 585.61549632251263 463.20449960231781
leaf_count=7276 1939 5821 1570 1830 4084 3452 2462
internal_value=0 -0.0367796 0.0471578 -0.0536928 -0.0131163 0.0550174 0.0286492
internal_weight=0 3185.51 2510.54 1857.72 1327.79 1762.22 748.319
internal_count=28434 13674 14760 7651 6023 10728 4032
is_linear=0
shrinkage=0.0534144


Tree=9
num_leaves=8
num_cat=0
split_feature=0 0 0 0 4 0 1
split_gain=3149.48 398.239 125.1 81.7415 59.0266 23.194 17.0353
threshold=-0.088401347014660167 0.63174671712676667 -0.56649546892901015 1.0688720817387078 -0.15242754210366879 -0.84651128718859414 -0.3575117651454553
decision_type=2 2 2 2 2 2 2
left_child=2 4 5 -3 -2 -1 -4
right_child=1 3 6 -5 -6 -7 -8
leaf_value=0.058186999184533704 -0.028978612700569707 -0.03681679989110314 0.036508178516145059 -0.058725649966366783 -0.0030737214842078021 0.045113450580162265 0.019951954044566775
leaf_weight=1135.2716675698757 353.28785635530949 848.82830093801022 315.95222894847393 1136.2744904905558 866.4191692918539 587.55048796534538 404.09407345950603
leaf_count=7276 1576 3546 1767 4597 3955 3554 2163
internal_value=0 -0.0345982 0.045914 -0.0493574 -0.0105771 0.0537284 0.0272167
internal_weight=0 3204.81 2442.87 1985.1 1219.71 1722.82 720.046
internal_count=28434 13674 14760 8143 5531 10830 3930
is_linear=0
shrinkage=0.0534144


Tree=10
num_leaves=8
num_cat=0
split_feature=0 0 0 0 4 0 1
split_gain=2863.47 356.531 122.293 87.354 52.2512 22.2929 16.6888
threshold=-0.088401347014660167 0.55958156664912884 -0.57626783305619023 1.0688720817387078 -0.15242754210366879 -0.84651128718859414 -0.41215353627140255
decision_type=2 2 2 2 2 2 2
left_child=2 4 5 -3 -2 -1 -4
right_child=1 3 6 -5 -6 -7 -8
leaf_value=0.057166061933986614 -0.025399552288026817 -0.033675316373257415 0.036861305617924195 -0.055318364543706797 0.00013687026627268487 0.04402669196968511 0.02015693302834182
leaf_weight=1094.9220816344023 328.07118329405785 996.44438745081425 273.74207633733749 1141.6685367822647 754.05306999385357 555.23236320912838 453.05907931923866
leaf_count=7276 1455 4162 1570 4597 3460 3452 2462
internal_value=0 -0.0325878 0.0447043 -0.0452319 -0.00760509 0.052745 0.0264485
internal_weight=0 3220.24 2376.96 2138.11 1082.12 1650.15 726.801
internal_count=28434 13674 14760 8759 4915 10728 4032
is_linear=0
shrinkage=0.0534144


Tree=11
num_leaves=8
num_cat=0
split_feature=0 0 0 0 0 0 1
split_gain=2605.33 317.811 119.516 61.6404 52.7574 22.4656 15.7823
threshold=-0.088401347014660167 0.78284250093932062 -0.57626783305619023 0.34233439489874018 1.681900000639891 -0.96941755909582095 -0.3575117651454553
decision_type=2 2 2 2 2 2 2
left_child=2 3 5 -2 -3 -1 -4
right_child=1 4 6 -5 -6 -7 -8
leaf_value=0.058087712018647854 -0.0013044608746378417 -0.041437512887288461 0.034392337899160623 -0.02276146321309401 -0.063496344472491362 0.045413130058052142 0.018412987076051605
leaf_weight=786.80904096364975 685.64992567896843 1275.854634553194 313.47046513855457 862.48013019561768 408.34485465288162 809.49403332173824 403.13767483830452
leaf_count=5431 3164 5160 1826 3716 1634 5297 2206
internal_value=0 -0.0307278 0.043525 -0.0132584 -0.0467858 0.0516604 0.0254029
internal_weight=0 3232.33 2312.91 1548.13 1684.2 1596.3 716.608
internal_count=28434 13674 14760 6880 6794 10728 4032
is_linear=0
shrinkage=0.0534144


Tree=12
num_leaves=8
num_cat=0
split_feature=9 1 3 1 3 3 3
split_gain=2230.06 196.504 121.76 54.4783 53.8637 40.0967 36.9498
threshold=1.0000000180025095e-35 0.68068188624754378 0.10641536589461904 0.13426417498807056 1.3422438082071373 1.0923768553898523 2.0783383448850858
decision_type=2 2 2 2 2 2 2
left_child=1 5 3 -2 -3 -1 -4
right_child=2 4 6 -5 -6 -7 -8
leaf_value=-0.0093983484932106971 0.050960250794983043 -0.03470075573085564 0.022961350128159804 0.020435653208998091 -0.056354074550113271 -0.037356067168245216 -0.027191616704081035
leaf_weight=1181.5619021803141 1540.6875188946724 1442.3250530809164 503.78791517019272 187.07219651341438 424.15421006083488 167.05267061293125 45.7149418592453
leaf_count=5345 10660 5939 2781 1143 1699 674 193
internal_value=0 -0.0283966 0.0406898 0.0476552 -0.0396214 -0.0128615 0.018789
internal_weight=0 3215.09 2277.26 1727.76 1866.48 1348.61 549.503
internal_count=28434 13657 14777 11803 7638 6019 2974
is_linear=0
shrinkage=0.0534144


Tree=13
num_leaves=8
num_cat=0
split_feature=0 0 0 0 2 1 0
split_gain=2180.88 270.958 112.556 69.7103 29.9922 27.5619 7.02679
threshold=-0.0981737111418403 0.55958156664912884 -0.77397027655221873 1.2699572666633756 0.6974259184326238 -0.29194163979431914 -0.96941755909582095
decision_type=2 2 2 2 2 2 2
left_child=2 4 6 -3 -2 -4 -1
right_child=1 3 5 -5 -6 -7 -8
leaf_value=0.056419931760236811 0.0042449907310249 -0.030807475208929142 0.036653375296730371 -0.050537378159282449 -0.013529314129812151 0.019220555454287937 0.047593459310527719
leaf_weight=732.24705702066422 475.27757982909679 1325.7555073946714 591.88466000556946 831.31115102767944 629.74219399690628 459.74341759085655 396.77501283586025
leaf_count=5431 2211 5426 3743 3333 2782 2676 2832
internal_value=0 -0.0273929 0.0416061 -0.0384112 -0.00588445 0.0290322 0.053318
internal_weight=0 3262.09 2180.65 2157.07 1105.02 1051.63 1129.02
internal_count=28434 13752 14682 8759 4993 6419 8263
is_linear=0
shrinkage=0.0534144


Tree=14
num_leaves=8
num_cat=0
split_feature=0 0 0 4 0 1 1
split_gain=1987.43 244.321 110.806 52.7355 44.8427 26.1177 7.18672
threshold=-0.0981737111418403 0.7512702476053541 -0.77397027655221873 -0.15242754210366879 1.6097348501622533 -0.29194163979431914 -0.81650264260341299
decision_type=2 2 2 2 2 2 2
left_child=2 3 6 -2 -3 -4 -1
right_child=1 4 5 -5 -6 -7 -8
leaf_value=0.056052907081072009 -0.026474782761002784 -0.034437520087735866 0.035497541616338169 -0.0041272051687351111 -0.053945321619617313 0.018393727309179524 0.047249414077234077
leaf_weight=635.53858253359795 414.22198139131069 1293.6912461221218 578.87148624658585 1104.8551364392042 454.23974364995956 454.88442662358284 453.251867800951
leaf_count=4863 1794 5206 3743 4922 1830 2676 3400
internal_value=0 -0.0258898 0.0404963 -0.0102209 -0.0395071 0.0279713 0.0523881
internal_weight=0 3267.01 2122.55 1519.08 1747.93 1033.76 1088.79
internal_count=28434 13752 14682 6716 7036 6419 8263
is_linear=0
shrinkage=0.0534144


Tree=15
num_leaves=8
num_cat=0
split_feature=0 0 0 0 4 0 0
split_gain=1811.6 224.58 109.008 58.7048 38.4694 24.112 7.37108
threshold=-0.0981737111418403 0.55958156664912884 -0.77397027655221873 1.2699572666633756 -0.15242754210366879 -0.36879302543298181 -0.96941755909582095
decision_type=2 2 2 2 2 2 2
left_child=2 4 6 -3 -2 -4 -1
right_child=1 3 5 -5 -6 -7 -8
leaf_value=0.054788756070676278 -0.019906071021178293 -0.027582913988499158 0.032969385938336551 -0.045699858130311799 0.001654931274971512 0.015716388335952885 0.045427242838033566
leaf_weight=678.67756794393063 340.53581918776035 1333.5654294490814 661.2638848721981 826.59331594407558 769.84796917438507 355.2827459871769 371.23062598705292
leaf_count=5431 1479 5426 4375 3333 3514 2044 2832
internal_value=0 -0.0244802 0.0394072 -0.0345154 -0.00495746 0.0269395 0.0514787
internal_weight=0 3270.54 2066.45 2160.16 1110.38 1016.55 1049.91
internal_count=28434 13752 14682 8759 4993 6419 8263
is_linear=0
shrinkage=0.0534144


Tree=16
num_leaves=8
num_cat=0
split_feature=0 0 0 0 4 1 1
split_gain=1655.62 232.936 81.891 55.0248 38.7293 19.0079 7.47608
threshold=-0.18913186955636285 0.55958156664912884 -0.77397027655221873 1.0688720817387078 0.0074044706624513436 -0.29194163979431914 -0.81650264260341299
decision_type=2 2 2 2 2 2 2
left_child=2 4 6 -3 -2 -4 -1
right_child=1 3 5 -5 -6 -7 -8
leaf_value=0.054481939183104948 -0.014810859048997408 -0.023670505711701307 0.035006881580358369 -0.040745463086035251 0.0044500059078734838 0.01914131861914585 0.045176825869889504
leaf_weight=588.77247581630945 508.64354361593723 1021.4659837782383 512.70385447144508 1138.7545865178108 718.74067325890064 371.59933939576149 423.57387439906597
leaf_count=4863 2284 4162 3483 4597 3359 2286 3400
internal_value=0 -0.0221138 0.0402153 -0.0326715 -0.00353194 0.0283399 0.0505886
internal_weight=0 3387.6 1896.65 2160.22 1227.38 884.303 1012.35
internal_count=28434 14402 14032 8759 5643 5769 8263
is_linear=0
shrinkage=0.0534144


Tree=17
num_leaves=8
num_cat=0
split_feature=0 0 0 0 5 1 0
split_gain=1512.21 209.117 80.7868 52.6042 34.7884 18.3808 7.72793
threshold=-0.18913186955636285 0.55958156664912884 -0.77397027655221873 1.6097348501622533 0.41011194598249118 -0.47225948450994432 -0.96941755909582095
decision_type=2 2 2 2 2 2 2
left_child=2 4 6 -3 -2 -4 -1
right_child=1 3 5 -5 -6 -7 -8
leaf_value=0.053246347264355384 0.0044472628591604941 -0.026684090185411451 0.036120904450221987 -0.047262714155563372 -0.013715346114934426 0.020461297038028462 0.043320177934975918
leaf_weight=628.69404117017984 701.8093551248312 1712.1600949764252 380.53641366958618 446.91906452178955 526.67954307794571 488.23399192094803 347.44810131937265
leaf_count=5431 3312 6929 2662 1830 2331 3107 2832
internal_value=0 -0.0209332 0.0391685 -0.0309438 -0.00333944 0.0273205 0.0497132
internal_weight=0 3387.57 1844.91 2159.08 1228.49 868.77 976.142
internal_count=28434 14402 14032 8759 5643 5769 8263
is_linear=0
shrinkage=0.0534144


Tree=18
num_leaves=8
num_cat=0
split_feature=0 0 0 0 1 1 0
split_gain=1381.87 195.761 73.6677 42.3198 41.5595 18.4297 7.79968
threshold=-0.21469036035052622 0.65993622903209392 -0.77397027655221873 1.681900000639891 0.25447607146515405 -0.29194163979431914 -0.96941755909582095
decision_type=2 2 2 2 2 2 2
left_child=2 4 6 -3 -2 -4 -1
right_child=1 3 5 -5 -6 -7 -8
leaf_value=0.052481545368451184 0.0044481776489566473 -0.026695342015716612 0.033810923229337403 -0.046264055059591247 -0.013523165049563376 0.017631045093049982 0.042338229509582846
leaf_weight=604.44474391639233 709.4487424492836 1551.1898879408836 475.36557768285275 395.75321874022484 760.89156849682331 347.82032699882984 336.80881712585688
leaf_count=5431 3387 6253 3385 1634 3312 2200 2832
internal_value=0 -0.0195631 0.0386452 -0.0306731 -0.00485188 0.0269744 0.048852
internal_weight=0 3417.28 1764.44 1946.94 1470.34 823.186 941.254
internal_count=28434 14586 13848 7887 6699 5585 8263
is_linear=0
shrinkage=0.0534144


Tree=19
num_leaves=8
num_cat=0
split_feature=0 0 0 0 6 1 1
split_gain=1262.98 180.146 72.6048 56.8155 40.6403 17.474 8.04342
threshold=-0.21469036035052622 0.90537291268780973 -0.77397027655221873 0.34233439489874018 2.1459047517005714 -0.29194163979431914 -0.81650264260341299
decision_type=2 2 2 2 2 2 2
left_child=2 3 6 -2 -3 -4 -1
right_child=1 4 5 -5 -6 -7 -8
leaf_value=0.052292378450113509 0.0023077610688666899 -0.030362010430953625 0.032750211210173456 -0.015971975299129013 -0.064541109098422519 0.01687210146092686 0.042109234088643734
leaf_weight=525.2331516072154 854.97566777467728 1331.4350149035454 464.83860170841217 1121.3931889235973 107.25016042590141 344.15405252575874 382.45139279961586
leaf_count=4863 4076 5411 3385 4660 439 2200 3400
internal_value=0 -0.0185311 0.0376312 -0.00806418 -0.03291 0.0259955 0.0480017
internal_weight=0 3415.05 1716.68 1976.37 1438.69 808.993 907.685
internal_count=28434 14586 13848 8736 5850 5585 8263
is_linear=0
shrinkage=0.0534144


Tree=20
num_leaves=8
num_cat=0
split_feature=0 0 0 0 6 1 1
split_gain=1154.31 162.807 71.4582 50.7221 37.1934 16.6663 8.24674
threshold=-0.21469036035052622 0.90537291268780973 -0.77397027655221873 0.34233439489874018 2.1459047517005714 -0.3575117651454553 0.27633277991553323
decision_type=2 2 2 2 2 2 2
left_child=2 3 6 -2 -3 -4 -1
right_child=1 4 5 -5 -6 -7 -8
leaf_value=0.0479073774080368 0.0021864312104010854 -0.028828873462536909 0.032749002604127039 -0.015080219713497756 -0.061668318802377109 0.017284948069800452 0.011224804174716593
leaf_weight=857.58742459863424 854.23876900970936 1327.4509609937668 398.93874257802963 1124.1856405287981 106.27703565359116 396.4397329390049 17.849486343562603
leaf_count=8114 4076 5411 2985 4660 439 2600 149
internal_value=0 -0.0175573 0.0366303 -0.00762487 -0.0312631 0.0250413 0.0471594
internal_weight=0 3412.15 1670.82 1978.42 1433.73 795.378 875.437
internal_count=28434 14586 13848 8736 5850 5585 8263
is_linear=0
shrinkage=0.0534144


Tree=21
num_leaves=8
num_cat=0
split_feature=0 0 0 0 0 1 0
split_gain=1054.95 147.223 70.2339 45.2983 27.189 15.9647 8.49582
threshold=-0.21469036035052622 0.90537291268780973 -0.77397027655221873 0.34233439489874018 1.8991471723902797 -0.47225948450994432 -0.96941755909582095
decision_type=2 2 2 2 2 2 2
left_child=2 3 6 -2 -3 -4 -1
right_child=1 4 5 -5 -6 -7 -8
leaf_value=0.05035077322900175 0.0020713871679652967 -0.026280915625780454 0.032874359524729266 -0.014241906180811328 -0.045550711555226678 0.017467294756928528 0.039195640333870595
leaf_weight=539.65223864465952 853.53948125243187 1174.1711006760597 337.35913521051407 1126.7039199769497 254.12151752412319 444.98164806514978 304.82031133025885
leaf_count=5431 4076 4775 2592 4660 1075 2993 2832
internal_value=0 -0.0166383 0.0356418 -0.00721043 -0.0297094 0.0241111 0.0463242
internal_weight=0 3408.54 1626.81 1980.24 1428.29 782.341 844.473
internal_count=28434 14586 13848 8736 5850 5585 8263
is_linear=0
shrinkage=0.0534144


Tree=22
num_leaves=8
num_cat=0
split_feature=0 0 0 5 5 4 0
split_gain=964.112 133.256 68.9397 56.0566 37.8125 11.8253 8.54544
threshold=-0.21469036035052622 0.90537291268780973 -0.77397027655221873 0.3891459996489473 1.9930408941650828 -0.75978919061492445 -0.96941755909582095
decision_type=2 2 2 2 2 2 2
left_child=2 3 6 -2 -3 -4 -1
right_child=1 4 5 -5 -6 -7 -8
leaf_value=0.049627092047537784 0.0019942737657774744 -0.025462293072153499 0.011717154994461477 -0.015975610384009013 -0.055483256415471999 0.027019566906823122 0.038252243380302114
leaf_weight=518.84249887615442 1009.8267690837383 1290.2264006584883 191.93086425215006 972.02495612204075 131.9435737580061 577.93696826696396 295.89949062466621
leaf_count=5431 4608 5299 1400 4128 551 4185 2832
internal_value=0 -0.0157718 0.0346659 -0.00681929 -0.0282475 0.0232046 0.045496
internal_weight=0 3404.02 1584.61 1981.85 1422.17 769.868 814.742
internal_count=28434 14586 13848 8736 5850 5585 8263
is_linear=0
shrinkage=0.0534144


Tree=23
num_leaves=8
num_cat=0
split_feature=2 3 5 3 3 7 3
split_gain=852.242 88.2226 69.7643 50.6691 29.8226 13.0855 3.82565
threshold=-0.22933440422724774 -0.71071710142677358 1.6575857528283751 1.3017248428854151 0.9775731203116399 0.72421200689569065 -1.0821409502092243
decision_type=2 2 2 2 2 2 2
left_child=1 6 3 -2 -3 -4 -1
right_child=2 4 5 -5 -6 -7 -8
leaf_value=0.049562569919472957 -0.010219732445776439 0.024927986506908244 -0.046354367542687569 -0.029742952523632779 0.0021053331299094162 -0.026380190139187215 0.041340871664085538
leaf_weight=339.51801187545061 2341.0296214297414 923.60449437052011 216.85556480288506 452.60532081127167 198.45401558279991 164.60760816931725 307.91516998410225
leaf_count=3653 10092 7148 906 1906 963 690 3076
internal_value=0 0.0299511 -0.0163085 -0.0133827 0.0208914 -0.0377352 0.0456524
internal_weight=0 1769.49 3175.1 2793.63 1122.06 381.463 647.433
internal_count=28434 14840 13594 11998 8111 1596 6729
is_linear=0
shrinkage=0.0534144


Tree=24
num_leaves=8
num_cat=0
split_feature=0 0 0 0 4 1 1
split_gain=811.346 116.269 66.4155 36.9914 33.6976 15.3548 9.19484
threshold=-0.21469036035052622 0.55958156664912884 -0.77397027655221873 1.681900000639891 -0.424141963806073 -0.29194163979431914 -0.81650264260341299
decision_type=2 2 2 2 2 2 2
left_child=2 4 6 -3 -2 -4 -1
right_child=1 3 5 -5 -6 -7 -8
leaf_value=0.048989344252271416 -0.021508395951385057 -0.01859116606301154 0.02823698258949224 -0.037028138555869193 0.0023548980809131232 0.012790717355366301 0.037119537678546519
leaf_weight=437.37518224865198 200.58836790919304 1752.4197439551353 422.35578718781471 377.33801800012589 1066.4230395108461 324.84175731986761 324.224998742342
leaf_count=4863 895 7125 3385 1634 4932 2200 3400
internal_value=0 -0.0142355 0.032836 -0.0218577 -0.00142305 0.0215218 0.0439362
internal_weight=0 3396.77 1508.8 2129.76 1267.01 747.198 761.6
internal_count=28434 14586 13848 8759 5827 5585 8263
is_linear=0
shrinkage=0.0534144


Tree=25
num_leaves=8
num_cat=0
split_feature=2 1 1 3 6 5 3
split_gain=712.915 89.1064 70.0115 38.0827 30.84 28.4392 21.1681
threshold=-0.22933440422724774 -0.41215353627140255 0.91017732497652182 0.9775731203116399 2.2681999106439279 0.41011194598249118 -0.73772974497458754
decision_type=2 2 2 2 2 2 2
left_child=1 6 5 -3 -4 -2 -1
right_child=2 3 4 -5 -6 -7 -8
leaf_value=0.047691975198534443 -0.0021133708487408851 0.019546124946828575 -0.022271355721004259 -0.013391253134736254 -0.054772820502448041 -0.015097614573237194 0.03175488331737969
leaf_weight=430.50621271878481 1001.1474839523435 614.11130706965923 1150.012348882854 119.67034763097763 89.800432845950127 926.8504840657115 531.15829124301672
leaf_count=4973 4448 4830 4791 553 384 3971 4484
internal_value=0 0.0281929 -0.0147231 0.0141745 -0.0246255 -0.00835531 0.0388894
internal_weight=0 1695.45 3167.81 733.782 1239.81 1928 961.665
internal_count=28434 14840 13594 5383 5175 8419 9457
is_linear=0
shrinkage=0.0534144


Tree=26
num_leaves=8
num_cat=0
split_feature=0 0 0 6 4 4 0
split_gain=683.514 116.036 51.2718 43.9337 24.4418 11.836 5.71155
threshold=-0.30865540003495034 0.39269965616959152 -0.84651128718859414 1.4528988510215497 -0.59196557721049914 -0.75978919061492445 -1.2208680052913399
decision_type=2 2 2 2 2 2 2
left_child=2 4 6 -3 -2 -4 -1
right_child=1 3 5 -5 -6 -7 -8
leaf_value=0.05242251625208566 -0.018810875188969494 -0.015068059242389676 0.012451072258513936 -0.033300903242819119 0.0057671227842990818 0.02753660904917999 0.040934844443483373
leaf_weight=170.87705997377634 132.0216446518898 1979.6513704806566 210.48878008872271 465.76872329413891 919.13282425701618 502.95485451072454 445.20946434885263
leaf_count=2096 638 8184 1741 1950 4542 4103 5180
internal_value=0 -0.0121612 0.0328333 -0.0185408 0.0026802 0.0230859 0.0441211
internal_weight=0 3496.57 1329.53 2445.42 1051.15 713.444 616.087
internal_count=28434 15314 13120 10134 5180 5844 7276
is_linear=0
shrinkage=0.0534144


Tree=27
num_leaves=8
num_cat=0
split_feature=9 1 1 6 3 3 5
split_gain=594.517 83.1685 60.2745 33.2991 32.5943 20.4665 16.9342
threshold=1.0000000180025095e-35 -0.41215353627140255 0.68068188624754378 2.2681999106439279 1.1531553033724351 -0.73772974497458754 0.41011194598249118
decision_type=2 2 2 2 2 2 2
left_child=2 5 6 -4 -3 -2 -1
right_child=1 4 3 -5 -6 -7 -8
leaf_value=0.00053807754427850441 0.046353959447571258 0.017196408694240259 -0.017726478267186492 -0.049117083321687231 -0.017557982092490567 0.03023259201648262 -0.011540980690365613
leaf_weight=776.91485518217087 400.61663074046373 607.09665714204311 1724.4048972725868 102.12624770402908 88.172763347625732 511.58444189280272 577.13005195558071
leaf_count=3499 4984 4901 7196 442 401 4491 2520
internal_value=0 0.0267056 -0.0131506 -0.0194816 0.0127889 0.0373127 -0.00461034
internal_weight=0 1607.47 3180.58 1826.53 695.269 912.201 1354.04
internal_count=28434 14777 13657 7638 5302 9475 6019
is_linear=0
shrinkage=0.0534144


Tree=28
num_leaves=8
num_cat=0
split_feature=2 1 1 3 1 6 3
split_gain=542.719 78.9148 55.8532 29.7548 26.5956 22.0627 20.8124
threshold=-0.22933440422724774 -0.41215353627140255 1.3254547855337229 -0.643185492557237 0.27633277991553323 2.2681999106439279 -0.73772974497458754
decision_type=2 2 2 2 2 2 2
left_child=1 6 4 -3 -2 -4 -1
right_child=2 3 5 -5 -6 -7 -8
leaf_value=0.045608319298764688 -0.00073166643324669 0.031321177570579298 -0.022625104401383957 0.0060602602882618472 -0.012628436871634091 -0.054162300829455751 0.029081992932288782
leaf_weight=384.64865534752607 795.13059283047915 177.26884390413761 646.67635399103165 533.1904326826334 1645.8990074172616 70.155099675059319 500.06119231879711
leaf_count=4973 3657 1844 2735 3539 6890 312 4484
internal_value=0 0.0256208 -0.0126028 0.0123632 -0.00875323 -0.0257116 0.0362672
internal_weight=0 1595.17 3157.86 710.459 2441.03 716.831 884.71
internal_count=28434 14840 13594 5383 10547 3047 9457
is_linear=0
shrinkage=0.0534144


Tree=29
num_leaves=8
num_cat=0
split_feature=2 3 1 1 7 5 1
split_gain=493.395 75.5628 50.6857 42.0434 24.8413 21.6111 12.2995
threshold=-0.22933440422724774 -0.71071710142677358 0.91017732497652182 -0.41215353627140255 0.52324259945102136 0.41011194598249118 0.7899654284994384
decision_type=2 2 2 2 2 2 2
left_child=1 6 5 -3 -4 -2 -1
right_child=2 3 4 -5 -6 -7 -8
leaf_value=0.041797969356690029 -0.0011045261830477937 0.02793961630604885 -0.028691973352252129 0.0063383590281970081 -0.013425437061255048 -0.012415906849780275 -0.057858520550378635
leaf_weight=527.07652628421783 1000.8805451393127 478.53176283836365 562.89153815805912 555.48880407214165 661.41709153354168 929.38994308561087 3.5572605505585662
leaf_count=6699 4448 4347 2376 3764 2799 3971 30
internal_value=0 0.024744 -0.011943 0.0163352 -0.0204444 -0.00655075 0.0411299
internal_weight=0 1564.65 3154.58 1034.02 1224.31 1930.27 530.634
internal_count=28434 14840 13594 8111 5175 8419 6729
is_linear=0
shrinkage=0.0534144


Tree=30
num_leaves=8
num_cat=0
split_feature=0 0 0 0 4 1 1
split_gain=495.8 95.9291 39.6703 36.0467 19.4754 16.7712 7.88551
threshold=-0.36879302543298181 1.0688720817387078 -0.84651128718859414 0.34233439489874018 0.73064432842914562 0.27633277991553323 -1.1443532693590968
decision_type=2 2 2 2 2 2 2
left_child=2 3 6 -2 -3 -4 -1
right_child=1 4 5 -5 -6 -7 -8
leaf_value=0.049440125867177998 0.0037717859761610402 -0.033112706206660042 0.024509739762336485 -0.0093176860312420354 -0.017877554043669561 -0.0037513340280071312 0.036177228834167567
leaf_weight=207.61219366639853 1026.4741530641913 361.67986848950386 537.76969292014837 1445.6237744688988 708.03194619715214 67.421854540705681 333.11609150469303
leaf_count=2902 5286 1538 4870 5913 3059 492 4374
internal_value=0 -0.0096652 0.0307554 -0.00388262 -0.0230287 0.0213613 0.0412695
internal_weight=0 3541.81 1145.92 2472.1 1069.71 605.192 540.728
internal_count=28434 15796 12638 11199 4597 5362 7276
is_linear=0
shrinkage=0.0534144


Tree=31
num_leaves=8
num_cat=0
split_feature=0 0 0 5 5 1 1
split_gain=453.548 86.7995 38.7463 34.3826 19.5225 15.6461 7.90959
threshold=-0.36879302543298181 1.0688720817387078 -0.84651128718859414 0.54639059715052885 1.8357962966635013 0.13426417498807056 -1.1443532693590968
decision_type=2 2 2 2 2 2 2
left_child=2 3 6 -2 -3 -4 -1
right_child=1 4 5 -5 -6 -7 -8
leaf_value=0.048859117685661466 0.0017033323332496168 -0.019228729343122215 0.024842387584140046 -0.011055259465135111 -0.041342060575461748 0.0030815815340704943 0.035325018426978425
leaf_weight=199.09124087542295 1429.1782014071941 933.97039180994034 478.28294635564089 1042.0001244544983 129.7267342954874 117.41160948574543 323.20224017649889
leaf_count=2902 6792 4007 4488 4407 590 874 4374
internal_value=0 -0.00916792 0.0298644 -0.00367647 -0.0219256 0.0205533 0.040484
internal_weight=0 3534.88 1117.99 2471.18 1063.7 595.695 522.293
internal_count=28434 15796 12638 11199 4597 5362 7276
is_linear=0
shrinkage=0.0534144


Tree=32
num_leaves=8
num_cat=0
split_feature=9 1 5 3 3 7 3
split_gain=374.663 69.7269 42.3527 32.4625 28.6346 20.1938 19.3845
threshold=1.0000000180025095e-35 -0.1280163264164772 1.1439200676565406 -0.71071710142677358 1.3017248428854151 0.73856696457031057 1.173414786033296
decision_type=2 2 2 2 2 2 2
left_child=2 3 4 -2 -1 -4 -3
right_child=1 6 5 -5 -6 -7 -8
leaf_value=-0.0038790875104331964 0.04131987340555604 0.0081855931015152976 -0.027622351268980147 0.022206908682679553 -0.020102365882936069 -0.010753417013501675 -0.026131897722437281
leaf_weight=1960.062106475234 417.17315790057182 343.61391042917967 479.59514302015305 646.36956387758255 368.81323276460171 350.39607053995132 54.395357936620712
leaf_count=8484 6025 2671 2053 5838 1617 1503 243
internal_value=0 0.0225669 -0.0101406 0.0297039 -0.00644829 -0.0205008 0.00349547
internal_weight=0 1461.55 3158.87 1063.54 2328.88 829.991 398.009
internal_count=28434 14777 13657 11863 10101 3556 2914
is_linear=0
shrinkage=0.0534144


Tree=33
num_leaves=8
num_cat=0
split_feature=0 0 4 0 0 1 1
split_gain=384.289 81.0531 32.4257 31.826 24.5418 13.0312 4.68877
threshold=-0.43118581178343945 0.78284250093932062 1.0383209530039272 -0.96941755909582095 1.8991471723902797 0.057765695411743971 -1.0678547897827702
decision_type=2 2 2 2 2 2 2
left_child=3 2 -2 6 -3 -5 -1
right_child=1 4 -4 5 -6 -7 -8
leaf_value=0.049370171218214569 -0.0033582884041039379 -0.014186771833745386 0.017126413940596392 0.025884550084723137 -0.032993289105184273 0.0055257091557695684 0.036964602332293192
leaf_weight=155.71989018470049 1746.8264405205846 1363.8665971159935 252.31292830407619 536.94097051769495 231.58944307267666 107.69088321179152 196.75569250434637
leaf_count=2492 8316 5719 1241 5782 1075 870 2939
internal_value=0 -0.00793828 -0.000772898 0.0295399 -0.0169166 0.0224834 0.0424452
internal_weight=0 3594.6 1999.14 997.107 1595.46 644.632 352.476
internal_count=28434 16351 9557 12083 6794 6652 5431
is_linear=0
shrinkage=0.0534144


Tree=34
num_leaves=8
num_cat=0
split_feature=10 1 5 3 3 3 7
split_gain=311.352 63.9704 39.043 26.7011 23.104 18.5534 10.6447
threshold=1.0000000180025095e-35 -0.41215353627140255 1.6575857528283751 1.3017248428854151 1.1531553033724351 -0.73772974497458754 0.72421200689569065
decision_type=2 2 2 2 2 2 2
left_child=1 5 3 -2 -3 -1 -4
right_child=2 4 6 -5 -6 -7 -8
leaf_value=0.041543126877906483 -0.0047341481287001405 0.012705896722015657 -0.033454209007182101 -0.019131861143486008 -0.01671567555453226 0.024598161132729668 -0.015089820574022196
leaf_weight=311.83080769330263 2346.8457302078605 561.10489095002413 208.52402816712856 435.73478595912457 88.108036041259766 450.97807374224067 158.50383844971657
leaf_count=4984 10111 4901 909 1944 401 4491 693
internal_value=0 0.0210367 -0.00914861 -0.00698874 0.00871294 0.0315251 -0.0255234
internal_weight=0 1412.02 3149.61 2782.58 649.213 762.809 367.028
internal_count=28434 14777 13657 12055 5302 9475 1602
is_linear=0
shrinkage=0.0534144


Tree=35
num_leaves=8
num_cat=0
split_feature=2 3 5 3 5 7 3
split_gain=286.218 60.5446 35.3111 25.6308 16.3743 9.98606 4.85101
threshold=-0.22933440422724774 -0.71071710142677358 1.6575857528283751 1.3017248428854151 -0.13500265868965969 0.72421200689569065 -1.4805774425394902
decision_type=2 2 2 2 2 2 2
left_child=1 6 3 -2 -3 -4 -1
right_child=2 4 5 -5 -6 -7 -8
leaf_value=0.049443000504013929 -0.0045655165243893778 0.017169173438823571 -0.032179784787592258 -0.018834225130011768 0.0018859238008723258 -0.014319956662325854 0.034153902719525765
leaf_weight=70.493288177996874 2337.8374458551407 685.90355516970158 206.58520276099443 424.37723743915558 282.33825561404228 157.35908585786819 369.86620993167162
leaf_count=1197 10092 6009 906 1906 2102 690 5532
internal_value=0 0.0201808 -0.00881833 -0.00675771 0.0127126 -0.0244577 0.0366014
internal_weight=0 1408.6 3126.16 2762.21 968.242 363.944 440.359
internal_count=28434 14840 13594 11998 8111 1596 6729
is_linear=0
shrinkage=0.0534144


Tree=36
num_leaves=8
num_cat=0
split_feature=0 0 5 0 7 6 0
split_gain=302.594 73.8066 29.1184 24.6994 13.3696 8.56859 3.46846
threshold=-0.50710956384845407 0.39269965616959152 0.77701600681951588 -0.96941755909582095 1.1620382159715794 -1.1968295927511805 -1.2208680052913399
decision_type=2 2 2 2 2 2 2
left_child=3 4 -3 6 -2 -5 -1
right_child=1 2 -4 5 -6 -7 -8
leaf_value=0.047768976345244303 0.0018118223645972095 -0.0068848204296481832 -0.018773511703771385 0.0043065142829584336 0.018086225922329238 0.024348976370714183 0.03623680350306973
leaf_weight=117.87356791645288 1090.7796135097742 1359.9633902609348 1035.1989040076733 69.948272235691547 165.92863089591265 468.34278103336692 201.80066691339016
leaf_count=2096 6085 5704 4430 820 778 5186 3335
internal_value=0 -0.00652271 -0.0120232 0.0287287 0.0039606 0.0217446 0.0404891
internal_weight=0 3651.87 2395.16 857.965 1256.71 538.291 319.674
internal_count=28434 16997 10134 11437 6863 6006 5431
is_linear=0
shrinkage=0.0534144


Tree=37
num_leaves=8
num_cat=0
split_feature=2 3 5 7 4 7 3
split_gain=238.204 54.8152 30.2551 24.1048 15.6288 9.09055 4.88786
threshold=-0.22933440422724774 -0.71071710142677358 1.6575857528283751 0.12848126339899088 -0.75978919061492445 0.72421200689569065 -1.4805774425394902
decision_type=2 2 2 2 2 2 2
left_child=1 6 3 -2 -3 -4 -1
right_child=2 4 5 -5 -6 -7 -8
leaf_value=0.048460711716445323 -0.014101726410398792 -0.0048231012062265998 -0.029932043353249851 -0.0029632416607835977 0.014547928616662277 -0.012820117429544246 0.032493831322948433
leaf_weight=64.857182826846838 768.74387109279633 139.16649916395545 204.48768831789494 1987.4458618238568 813.31752786040306 156.25838431715965 349.31975600868464
leaf_count=1197 3399 1324 906 8599 6787 690 5532
internal_value=0 0.0187718 -0.00797382 -0.00606994 0.0117176 -0.02252 0.0349941
internal_weight=0 1366.66 3116.94 2756.19 952.484 360.746 414.177
internal_count=28434 14840 13594 11998 8111 1596 6729
is_linear=0
shrinkage=0.0534144


Tree=38
num_leaves=8
num_cat=0
split_feature=1 3 1 2 1 6 1
split_gain=231.86 41.8398 35.0547 24.3978 18.0558 17.5118 6.85349
threshold=-0.1280163264164772 -0.76474238852240217 1.2489563059573963 0.62949368687381491 0.27633277991553323 2.2681999106439279 -1.2973502285117482
decision_type=2 2 2 2 2 2 2
left_child=1 6 4 -3 -2 -4 -1
right_child=2 3 5 -5 -6 -7 -8
leaf_value=0.048475961978805888 0.0026249253595358579 0.017913477214976825 -0.015248279752141217 -0.0044283693731901009 -0.0073415793669737344 -0.044388311758187346 0.031076300953142774
leaf_weight=84.67712327092886 731.02457533031702 713.35579868033528 638.89936354011297 173.33973908424377 1784.8975237384439 64.807910189032555 272.23023401945829
leaf_count=1614 4087 6592 2815 814 7902 314 4296
internal_value=0 0.0197618 -0.00739337 0.0135459 -0.00444572 -0.0179319 0.0352044
internal_weight=0 1243.6 3219.63 886.696 2515.92 703.707 356.907
internal_count=28434 13316 15118 7406 11989 3129 5910
is_linear=0
shrinkage=0.0534144


Tree=39
num_leaves=8
num_cat=0
split_feature=0 0 4 0 4 4 1
split_gain=241.485 59.1833 26.3093 22.7857 21.6816 12.392 5.22246
threshold=-0.50710956384845407 0.90537291268780973 1.0383209530039272 -0.96941755909582095 0.73064432842914562 -0.74380598933831321 -1.0678547897827702
decision_type=2 2 2 2 2 2 2
left_child=3 2 -2 6 -3 -5 -1
right_child=1 4 -4 5 -6 -7 -8
leaf_value=0.046715535889345287 -0.0027511434013064813 -0.023175513076057853 0.014078363390578847 0.0094580651350339214 -0.0092111504972553562 0.026438615856626921 0.032281536912231137
leaf_weight=126.12172719091177 1994.2928247973323 520.15328007936478 305.63946111500263 200.41761079058051 813.11616651713848 315.87114264070988 165.19236883148551
leaf_count=2492 9651 2248 1496 2387 3602 3619 2939
internal_value=0 -0.00570523 -0.00051466 0.0265864 -0.0146591 0.019847 0.0385306
internal_weight=0 3633.2 2299.93 807.603 1333.27 516.289 291.314
internal_count=28434 16997 11147 11437 5850 6006 5431
is_linear=0
shrinkage=0.0534144


Tree=40
num_leaves=8
num_cat=0
split_feature=1 1 1 6 1 9 8
split_gain=194.686 37.2804 29.7246 16.257 14.8988 13.4617 10.2893
threshold=-0.1280163264164772 -0.76186087147746562 1.2489563059573963 2.2681999106439279 0.27633277991553323 1.0000000180025095e-35 -0.3666885092468537
decision_type=2 2 2 2 2 2 2
left_child=1 6 4 -4 -2 -3 -1
right_child=2 5 3 -5 -6 -7 -8
leaf_value=0.037596228692930188 0.0024240686416583928 0.001148975928135718 -0.013897155907874333 -0.042278230585981298 -0.0066410256823228701 0.01626206687723827 0.021893813604167138
leaf_weight=247.74343158304691 728.74436216428876 261.72672098875046 634.34415877610445 63.332895070314407 1782.6208658665419 470.34197740629315 229.21857406944036
leaf_count=4036 4087 1253 2815 314 7902 5279 2748
internal_value=0 0.0184298 -0.0067201 -0.0164735 -0.00401053 0.0108589 0.03005
internal_weight=0 1209.03 3209.04 697.677 2511.37 732.069 476.962
internal_count=28434 13316 15118 3129 11989 6532 6784
is_linear=0
shrinkage=0.0534144


Tree=41
num_leaves=8
num_cat=0
split_feature=0 0 4 0 4 4 0
split_gain=207.661 55.1624 28.3717 18.4241 14.8966 13.3929 3.62548
threshold=-0.55747482511930546 0.34233439489874018 -0.13644434082705656 -0.96941755909582095 -0.63991518104033418 -0.72782278806170109 -1.2208680052913399
decision_type=2 2 2 2 2 2 2
left_child=3 4 -3 6 -2 -5 -1
right_child=1 2 -4 5 -6 -7 -8
leaf_value=0.045441735093780369 -0.010327291718649458 -0.025370777184756412 -0.0074946846546203906 0.008443502023985517 0.0067108912810568116 0.027326845648524979 0.032664732914240123
leaf_weight=98.980056528002024 170.22446864843369 286.71215443313122 2174.4840210676193 180.17388808354735 1046.2916361764073 264.43777234852314 176.07287542149425
leaf_count=2096 1014 1181 9329 2250 5987 3242 3335
internal_value=0 -0.00497798 -0.00957712 0.0263967 0.00432678 0.0196746 0.0372626
internal_weight=0 3677.71 2461.2 719.665 1216.52 444.612 275.053
internal_count=28434 17511 10510 10923 7001 5492 5431
is_linear=0
shrinkage=0.0534144


Tree=42
num_leaves=8
num_cat=0
split_feature=0 0 4 0 4 4 0
split_gain=189.945 52.1811 22.7838 17.8979 16.7626 12.5724 3.62295
threshold=-0.55747482511930546 1.0688720817387078 0.29110629332231502 -0.96941755909582095 0.73064432842914562 -0.72782278806170109 -1.2208680052913399
decision_type=2 2 2 2 2 2 2
left_child=3 2 -2 6 -3 -5 -1
right_child=1 4 -4 5 -6 -7 -8
leaf_value=0.044865074449773598 -0.0056712670532003094 -0.024623733834855586 0.0042238675337685425 0.008048835718238374 -0.010116745033875408 0.026464740579648441 0.031856029581844414
leaf_weight=95.005516137927771 1342.7794160470366 342.84455044567585 1313.1370558589697 178.94714312255383 674.00742490589619 258.62775345891714 171.03758560866117
leaf_count=2096 6718 1538 6196 2250 3059 3242 3335
internal_value=0 -0.00471841 -0.000778919 0.0255762 -0.015008 0.0189335 0.0365016
internal_weight=0 3672.77 2655.92 703.618 1016.85 437.575 266.043
internal_count=28434 17511 12914 10923 4597 5492 5431
is_linear=0
shrinkage=0.0534144


Tree=43
num_leaves=8
num_cat=0
split_feature=1 1 3 7 3 2 1
split_gain=152.546 33.8059 26.5448 26.1312 14.0523 11.5271 4.9796
threshold=-0.3575117651454553 0.27633277991553323 -0.73772974497458754 0.72421200689569065 1.7541866223113103 1.2492003228878703 -1.2973502285117482
decision_type=2 2 2 2 2 2 2
left_child=2 4 6 -3 -2 -4 -1
right_child=1 3 5 -5 -6 -7 -8
leaf_value=0.045765343158723923 0.0047512979449895534 -0.012766753178437951 0.015620657615477098 -0.001572376736732791 -0.024854558740397988 -0.015288852395263597 0.029468913399204717
leaf_weight=72.058125302195549 966.39670139178634 1468.7674310654402 557.60304021462798 1000.0142634361982 48.013912066817284 36.68811073154211 207.67965640127659
leaf_count=1640 6046 6699 5482 4332 208 179 3848
internal_value=0 -0.0048592 0.020099 -0.00823232 0.00335 0.0137125 0.0336667
internal_weight=0 3483.19 874.029 2468.78 1014.41 594.291 279.738
internal_count=28434 17285 11149 11031 6254 5661 5488
is_linear=0
shrinkage=0.0534144


Tree=44
num_leaves=8
num_cat=0
split_feature=1 1 3 5 3 2 1
split_gain=138.633 35.8853 19.5936 17.4808 15.5896 10.7201 2.92483
threshold=-0.41215353627140255 0.27633277991553323 -1.0821409502092243 2.0559387331657164 1.7541866223113103 0.26842358337638844 -1.2973502285117482
decision_type=2 2 2 2 2 2 2
left_child=2 4 6 -3 -2 -4 -1
right_child=1 3 5 -5 -6 -7 -8
leaf_value=0.050145785606819704 0.0050654497701597629 -0.0066076388286179259 0.020099837168466594 -0.024807711569337924 -0.024714104931911778 0.0004080730791229222 0.033757791724391265
leaf_weight=46.996765900403261 1081.2742579877377 2306.7844251990318 506.88512925431132 161.0813138410449 52.594884723424911 93.412376459687948 91.696506101638079
leaf_count=1153 7092 10276 6494 755 228 488 1948
internal_value=0 -0.00418164 0.0212162 -0.00779558 0.00368412 0.0170356 0.0393109
internal_weight=0 3601.73 738.991 2467.87 1133.87 600.298 138.693
internal_count=28434 18351 10083 11031 7320 6982 3101
is_linear=0
shrinkage=0.0534144


Tree=45
num_leaves=8
num_cat=0
split_feature=0 0 2 0 0 4 0
split_gain=152.401 43.4554 20.1322 15.7271 14.365 11.1117 3.54634
threshold=-0.56649546892901015 1.2511642587264908 0.95565074045495668 -0.96941755909582095 2.4306134368453831 -0.72782278806170109 -1.2208680052913399
decision_type=2 2 2 2 2 2 2
left_child=3 2 -2 6 -3 -5 -1
right_child=1 4 -4 5 -6 -7 -8
leaf_value=0.043321069822439787 0.002322535104332224 -0.013323202511672412 -0.0067584259291757565 0.0070856356512456536 -0.03886383250906035 0.024862417128514759 0.029834385745820438
leaf_weight=85.448042836040258 1794.5477793440223 663.8290342092514 1138.3944039270282 172.00925621017814 69.397258341312408 240.71059023216367 159.39256542176008
leaf_count=2096 9285 3089 4883 2228 347 3171 3335
internal_value=0 -0.0041098 -0.00120216 0.0238161 -0.0157405 0.0174536 0.0345412
internal_weight=0 3666.17 2932.94 657.56 733.226 412.72 244.841
internal_count=28434 17604 14168 10830 3436 5399 5431
is_linear=0
shrinkage=0.0534144


Tree=46
num_leaves=8
num_cat=0
split_feature=0 0 4 0 7 4 1
split_gain=139.199 40.6353 26.0535 15.1759 12.1023 10.3862 5.51033
threshold=-0.56649546892901015 0.39269965616959152 -0.13644434082705656 -0.96941755909582095 1.1620382159715794 -0.72782278806170109 -1.0678547897827702
decision_type=2 2 2 2 2 2 2
left_child=3 4 -3 6 -2 -5 -1
right_child=1 2 -4 5 -6 -7 -8
leaf_value=0.043372687198412682 0.0016908135193853075 -0.024018953728458192 -0.0061066352639668258 0.0067471022238969787 0.017095575533256815 0.024036761185249441 0.026869487142406612
leaf_weight=99.159079123288393 1140.1578358337283 260.49646909534931 2093.9400030374527 171.01879992336035 166.78926678746939 235.81545537337661 138.14163890853524
leaf_count=2492 6673 1080 9054 2228 797 3171 2939
internal_value=0 -0.00389597 -0.00808847 0.0230304 0.00365673 0.0167688 0.0337656
internal_weight=0 3661.38 2354.44 644.135 1306.95 406.834 237.301
internal_count=28434 17604 10134 10830 7470 5399 5431
is_linear=0
shrinkage=0.0534144


Tree=47
num_leaves=8
num_cat=0
split_feature=0 0 4 4 0 4 1
split_gain=127.074 38.657 19.1993 15.5415 14.6149 9.69469 5.45471
threshold=-0.56649546892901015 1.0688720817387078 0.15125328215195988 0.73064432842914562 -0.96941755909582095 -0.72782278806170109 -1.0678547897827702
decision_type=2 2 2 2 2 2 2
left_child=4 2 -2 -3 6 -6 -1
right_child=1 3 -4 -5 5 -7 -8
leaf_value=0.042770155948356252 -0.0057131099228720263 -0.021998823479659983 0.0035015980456970987 -0.0079038691818445507 0.0064229705453479552 0.023224394326905623 0.026074730677697451
leaf_weight=95.290272276848555 1102.9794588983059 336.31992319226265 1554.0784883052111 663.54795861244202 170.07968217134476 231.15662471204996 134.83973100781441
leaf_count=2492 5607 1538 7400 3059 2228 3171 2939
internal_value=0 -0.00369242 -0.000323548 -0.0126449 0.0222571 0.0161025 0.0329878
internal_weight=0 3656.93 2657.06 999.868 631.366 401.236 230.13
internal_count=28434 17604 13007 4597 10830 5399 5431
is_linear=0
shrinkage=0.0534144


Tree=48
num_leaves=8
num_cat=0
split_feature=0 0 7 0 5 1 1
split_gain=116.828 33.608 20.512 18.9855 10.0848 8.69642 5.39043
threshold=-0.43118581178343945 1.681900000639891 0.68114713387183257 -0.96941755909582095 0.85039681898692066 0.6369684693467853 -1.0678547897827702
decision_type=2 2 2 2 2 2 2
left_child=3 2 -2 6 -3 -5 -1
right_child=1 4 -4 5 -6 -7 -8
leaf_value=0.042158215243383118 -0.0057356080609793298 -0.011538254147800164 0.003051322738713517 0.014992843500965455 -0.030344777129270903 -0.021343521920411706 0.025286551182162467
leaf_weight=91.610000755637884 1943.7606327682734 174.7912093102932 1242.4613270461559 516.50377868488431 152.17826715111732 19.501577503979206 131.70248962193727
leaf_count=2492 9326 846 5391 6496 788 156 2939
internal_value=0 -0.00398273 -0.00230916 0.0191225 -0.0202912 0.0136708 0.0322079
internal_weight=0 3513.19 3186.22 759.318 326.969 536.005 223.312
internal_count=28434 16351 14717 12083 1634 6652 5431
is_linear=0
shrinkage=0.0534144


Tree=49
num_leaves=8
num_cat=0
split_feature=0 0 0 4 4 0 0
split_gain=107.545 36.1039 25.4987 28.8608 15.0825 6.63347 5.88532
threshold=0.090508088544483403 -0.84651128718859414 1.8991471723902797 0.87449313991865341 -0.59196557721049914 3.0864894138426635 -1.2208680052913399
decision_type=2 2 2 2 2 2 2
left_child=1 6 3 -2 -3 -4 -1
right_child=2 4 5 -5 -6 -7 -8
leaf_value=0.0411311574391756 -0.0083061586271256441 -0.0026328823875386206 -0.020938222863278455 0.0035105920783844191 0.011519204224686736 -0.056411554690720692 0.024006052241222049
leaf_weight=74.3692985214293 1772.9680938720703 297.98269941285253 194.31422685086727 883.58068664371967 770.19483344256878 16.30199559032917 248.81617460399866
leaf_count=2096 7531 2661 991 3846 6045 84 5180
internal_value=0 0.0123041 -0.00579418 -0.00437585 0.00757129 -0.0236839 0.0279468
internal_weight=0 1391.36 2867.17 2656.55 1068.18 210.616 323.185
internal_count=28434 15982 12452 11377 8706 1075 7276
is_linear=0
shrinkage=0.0534144


Tree=50
num_leaves=8
num_cat=0
split_feature=0 0 4 4 0 4 6
split_gain=98.6019 32.9928 17.7437 16.1282 12.2805 9.40842 3.09686
threshold=-0.57626783305619023 0.7512702476053541 0.73064432842914562 1.0383209530039272 -1.0164000789380327 -0.72782278806170109 -0.028231407292438511
decision_type=2 2 2 2 2 2 2
left_child=4 3 -3 -2 6 -6 -1
right_child=1 2 -4 -5 5 -7 -8
leaf_value=0.028975472427021538 -0.00040986213189729494 -0.01543796516834928 -0.0040250560136703079 0.01441512930411256 0.0062099222744047512 0.022506922559396691 0.048225538185523775
leaf_weight=152.0998027715832 1833.7695010825992 684.73605903983116 898.8468491435051 236.35522350668907 181.90575571730733 227.43391685560346 28.276373842731118
leaf_count=4029 9413 2994 4042 1257 2605 3375 719
internal_value=0 -0.00315661 -0.00895996 0.00128277 0.0203815 0.0152647 0.0319932
internal_weight=0 3653.71 1583.58 2070.12 589.716 409.34 180.376
internal_count=28434 17706 7036 10670 10728 5980 4748
is_linear=0
shrinkage=0.0534144


Tree=51
num_leaves=8
num_cat=0
split_feature=0 0 5 1 1 0 0
split_gain=90.3829 27.4158 20.4377 18.573 8.39208 8.2322 6.28569
threshold=-0.36879302543298181 1.8991471723902797 0.41011194598249118 -0.69629074612632802 0.27633277991553323 -0.98821056703270582 3.0864894138426635
decision_type=2 2 2 2 2 2 2
left_child=3 2 -2 5 -5 -1 -3
right_child=1 6 -4 4 -6 -7 -8
leaf_value=0.035956528522973819 0.0019610709967282777 -0.019783953994644488 -0.0065469871409858096 0.012449988566818821 -0.0074641148800252549 0.01895668752673459 -0.05479699416411226
leaf_weight=136.83679383993149 1558.9091677516699 191.95966324210167 1666.8767376989126 386.17864053323865 71.564624514430761 200.14674475044012 15.835638418793677
leaf_count=3894 7456 991 7265 5121 594 3029 84
internal_value=0 -0.00364673 -0.00243534 0.0163428 0.00933657 0.0258597 -0.0224522
internal_weight=0 3433.58 3225.79 794.727 457.743 336.984 207.795
internal_count=28434 15796 14721 12638 5715 6923 1075
is_linear=0
shrinkage=0.0534144


Tree=52
num_leaves=8
num_cat=0
split_feature=0 0 7 0 4 4 0
split_gain=82.7181 29.7584 23.1857 22.0622 13.7495 9.42694 5.71284
threshold=0.090508088544483403 -0.84651128718859414 0.12848126339899088 1.745044507307824 -0.59196557721049914 0.0074044706624513436 -1.2208680052913399
decision_type=2 2 2 2 2 2 2
left_child=1 6 5 -4 -3 -2 -1
right_child=2 4 3 -5 -6 -7 -8
leaf_value=0.039456735936255323 -0.023314451025336295 -0.0030258712543775237 -0.00010449796589018726 -0.018420303518198806 0.01054661757469064 -0.0095599512300558378 0.021816218693082694
leaf_weight=67.462285568937659 182.68728750944138 296.06057137623429 1824.5944446176291 209.14236548542976 758.62871554121375 640.95924088358879 234.24641961976886
leaf_count=2096 767 2661 7754 1077 6045 2854 5180
internal_value=0 0.0109683 -0.00505005 -0.00198803 0.0067367 -0.0126107 0.0257607
internal_weight=0 1356.4 2857.38 2033.74 1054.69 823.647 301.709
internal_count=28434 15982 12452 8831 8706 3621 7276
is_linear=0
shrinkage=0.0534144


Tree=53
num_leaves=8
num_cat=0
split_feature=0 0 0 7 0 8 7
split_gain=76.5234 28.0804 16.6591 12.4249 9.84313 5.80536 1.36681
threshold=-0.62325035289840236 0.51523006791808068 2.4306134368453831 1.1620382159715794 -1.2208680052913399 -1.0539089753775535 -0.98402795638400442
decision_type=2 2 2 2 2 2 2
left_child=4 3 -3 -2 6 -6 -1
right_child=1 2 -4 -5 5 -7 -8
leaf_value=0.029654893884743995 0.00089965955123740785 -0.0058149279375660588 -0.033367028691471685 0.014794358837059051 0.006880743706577222 0.020352522989643438 0.045355174395376605
leaf_weight=27.189183723181486 1380.7213904038072 2026.9183377027512 64.607945889234543 211.77992281317711 127.00771121867001 324.2786732558161 37.833694001659751
leaf_count=884 8108 8794 347 1000 2311 5778 1212
internal_value=0 -0.00259684 -0.00666602 0.00274746 0.0193606 0.0165611 0.0387901
internal_weight=0 3684.03 2091.53 1592.5 516.309 451.286 65.0229
internal_count=28434 18249 9141 9108 10185 8089 2096
is_linear=0
shrinkage=0.0534144


Tree=54
num_leaves=8
num_cat=0
split_feature=0 0 2 7 1 3 0
split_gain=69.6971 26.3946 15.4631 14.1553 13.038 6.97203 2.72862
threshold=-0.62325035289840236 1.2511642587264908 0.95565074045495668 0.45146781107792483 -1.1443532693590968 -0.79175503207021758 -0.95363143242883763
decision_type=2 2 2 2 2 2 2
left_child=4 2 -2 -3 6 -6 -1
right_child=1 3 -4 -5 5 -7 -8
leaf_value=0.039624265330877359 0.0027806871310017711 -0.0211308551194389 -0.0051474481508064435 -0.0056621383386599097 0.021328273069287126 0.0068606166546542179 0.0234364462969457
leaf_weight=78.727903071790934 1834.2510472349823 277.70868422091007 1136.968252055347 430.31371119618416 180.75828367471695 200.38920379430056 47.713938545435667
leaf_count=2542 9910 1359 4903 2077 3826 2982 835
internal_value=0 -0.00246157 -0.000253097 -0.0117295 0.0186526 0.0137219 0.0335156
internal_weight=0 3679.24 2971.22 708.022 507.589 381.147 126.442
internal_count=28434 18249 14813 3436 10185 6808 3377
is_linear=0
shrinkage=0.0534144


Tree=55
num_leaves=8
num_cat=0
split_feature=0 0 4 0 8 0 0
split_gain=63.7554 20.7606 19.0618 14.4825 8.43291 5.81327 3.48661
threshold=-0.36879302543298181 1.8991471723902797 0.87449313991865341 -0.96941755909582095 -1.2257140919102285 3.0864894138426635 -1.2208680052913399
decision_type=2 2 2 2 2 2 2
left_child=3 2 -2 6 -5 -3 -1
right_child=1 5 -4 4 -6 -7 -8
leaf_value=0.037548022778489308 -0.0046405142509648167 -0.017083998572405213 0.0043635683170727916 -0.0046066958192004905 0.01280704234830337 -0.051742758474149414 0.021963688815422246
leaf_weight=60.863453535363078 2262.3962004557252 186.44798718392849 953.54606238007545 95.230603858828545 475.59378955513239 14.911647424101828 125.23887834697962
leaf_count=2096 10360 991 4361 1224 5983 84 3335
internal_value=0 -0.00301251 -0.00197075 0.0141206 0.00990191 -0.0196506 0.0270604
internal_weight=0 3417.3 3215.94 756.927 570.824 201.36 186.102
internal_count=28434 15796 14721 12638 7207 1075 5431
is_linear=0
shrinkage=0.0534144


Tree=56
num_leaves=8
num_cat=0
split_feature=0 0 7 5 0 1 8
split_gain=59.3312 26.9953 22.1673 13.6567 11.5585 8.74162 6.95634
threshold=0.32654826823175692 -0.77397027655221873 0.6380822608479747 0.52542465081698542 2.3174795290653365 -1.1443532693590968 -1.2257140919102285
decision_type=2 2 2 2 2 2 2
left_child=1 5 3 -2 -4 -1 -3
right_child=2 6 4 -5 -6 -7 -8
leaf_value=0.034326178938434863 -0.0043286318769968938 -0.0088306574857114403 0.0010549398679035845 -0.015393479621483358 -0.028472667722867655 0.015589042204087243 0.0054470716332481479
leaf_weight=101.03291908279061 606.78453315794468 105.38252991437912 1124.515624627471 669.28324989974499 39.14013284444809 239.30091520398855 1278.8518052846193
leaf_count=3087 2606 923 4849 2973 214 5176 8606
internal_value=0 0.00767377 -0.00526997 -0.010132 6.17643e-05 0.0211514 0.0043601
internal_weight=0 1724.57 2439.72 1276.07 1163.66 340.334 1384.23
internal_count=28434 17792 10642 5579 5063 8263 9529
is_linear=0
shrinkage=0.0534144


Tree=57
num_leaves=8
num_cat=0
split_feature=0 4 0 0 3 4 0
split_gain=54.1127 19.777 21.355 19.487 10.5566 10.5237 5.09115
threshold=0.018342938066845647 -0.13644434082705656 1.6097348501622533 -0.84651128718859414 -0.048907334505315779 -0.74380598933831321 -1.2208680052913399
decision_type=2 2 2 2 2 2 2
left_child=3 4 -3 6 -2 -5 -1
right_child=1 2 -4 5 -6 -7 -8
leaf_value=0.036361207091256134 -0.0078278761664224202 0.00010745930158081729 -0.014200730802691063 -0.0044917586153768018 -0.024439462880344393 0.0090535450521996921 0.018442359271522282
leaf_weight=57.31578972376883 303.63145543634892 2130.9316002726555 345.92175802588463 212.02147371694446 170.40637299418449 717.24478282779455 214.70123756490648
leaf_count=2096 1253 9166 1807 1983 732 6217 5180
internal_value=0 -0.00380386 -0.00189085 0.00964379 -0.0137994 0.00596305 0.022218
internal_weight=0 2950.89 2476.85 1201.28 474.038 929.266 272.017
internal_count=28434 12958 10973 15476 1985 8200 7276
is_linear=0
shrinkage=0.0534144


Tree=58
num_leaves=8
num_cat=0
split_feature=1 5 7 7 8 8 1
split_gain=50.9917 18.9215 12.4864 12.4758 8.19444 12.4027 3.6944
threshold=-0.76186087147746562 1.1439200676565406 2.0807555071472135 0.73856696457031057 -0.3666885092468537 -0.31372602971422425 -1.6142725010422432
decision_type=2 2 2 2 2 2 2
left_child=4 2 -2 -3 6 -6 -1
right_child=1 3 -4 -5 5 -7 -8
leaf_value=0.050164204616893554 -0.00045890598078566396 -0.014572708007424792 0.017581911647532041 -0.0010668689103182449 -0.050385601237484173 0.014690090447315486 0.025065473003772362
leaf_weight=18.784398067742586 2866.2429366596043 472.82154218293726 113.80245467089117 332.26713698729873 8.7760347351431829 174.56471712887287 153.16787849739194
leaf_count=613 17356 2265 523 1506 163 2585 3423
internal_value=0 -0.0017329 0.00023004 -0.00899873 0.019431 0.0115751 0.0278073
internal_weight=0 3785.13 2980.05 805.089 355.293 183.341 171.952
internal_count=28434 21650 17879 3771 6784 2748 4036
is_linear=0
shrinkage=0.0534144


Tree=59
num_leaves=8
num_cat=0
split_feature=1 5 7 8 8 7 1
split_gain=46.4242 17.8646 12.2971 7.76573 10.8765 7.3022 3.65962
threshold=-0.76186087147746562 0.41011194598249118 0.72421200689569065 -0.3666885092468537 -0.31372602971422425 1.2051030889954373 -1.6142725010422432
decision_type=2 2 2 2 2 2 2
left_child=3 5 -3 6 -5 -2 -1
right_child=1 2 -4 4 -6 -7 -8
leaf_value=0.049785249889086801 0.00053347504867039318 -0.008994570445433692 -0.00011133773111810606 -0.045713663840907373 0.014059197708582452 0.0095794623171548219 0.024257144448892435
leaf_weight=17.939288461580873 1636.9856093171984 1099.2853937074542 746.55574990063906 9.1454569045454246 172.70734485983849 301.49084059521556 149.90817389264703
leaf_count=613 11534 5396 3331 163 2585 1389 3423
internal_value=0 -0.0016408 -0.00540172 0.0187003 0.0110532 0.0019404 0.0269856
internal_weight=0 3784.32 1845.84 349.7 181.853 1938.48 167.847
internal_count=28434 21650 8727 6784 2748 12923 4036
is_linear=0
shrinkage=0.0534144


Tree=60
num_leaves=8
num_cat=0
split_feature=1 5 3 3 7 2 5
split_gain=42.7625 14.835 13.2562 10.9152 10.873 7.62619 2.74849
threshold=-0.41215353627140255 1.1439200676565406 1.7879524267460785 -1.1834383635135293 0.73856696457031057 1.8399225401035004 -0.19790049769029253
decision_type=2 2 2 2 2 2 2
left_child=3 2 -2 6 -3 -5 -1
right_child=1 4 -4 5 -6 -7 -8
leaf_value=0.027140566073283433 0.00072469073220308576 -0.013861480358462328 -0.01368584995017867 0.011244687418936684 -0.0011970386852241533 -0.04367581415899896 0.052387457825444184
leaf_weight=55.367791509255767 2521.0440683849156 466.01463381573558 196.3096142411232 535.34977442398667 330.64989839866757 7.3121819272637358 15.817037424072621
leaf_count=2014 13696 2200 959 7524 1496 43 502
internal_value=0 -0.00219553 -0.000316369 0.0130844 -0.00860519 0.0105047 0.0327503
internal_weight=0 3514.02 2717.35 613.847 796.665 542.662 71.1848
internal_count=28434 18351 14655 10083 3696 7567 2516
is_linear=0
shrinkage=0.0534144


Tree=61
num_leaves=8
num_cat=0
split_feature=0 4 0 0 4 8 1
split_gain=42.7083 21.3445 19.778 15.2405 12.3859 9.82857 6.99496
threshold=0.32654826823175692 -0.13644434082705656 -0.84651128718859414 1.6097348501622533 -0.59196557721049914 -0.42740159554035528 -1.2973502285117482
decision_type=2 2 2 2 2 2 2
left_child=2 5 6 -3 -4 -2 -1
right_child=1 3 4 -5 -6 -7 -8
leaf_value=0.037296069635390561 -0.039311934616976282 -0.00065809218648585864 -0.0048018830239865236 -0.012968200238142311 0.0068998342614820249 -0.013515757966747408 0.015682595292523038
leaf_weight=54.0830860119313 51.200500965118408 1797.8021245598793 337.59639816731215 341.43685112893581 1095.5972539708018 238.13650503754616 203.37610972113907
leaf_count=1996 217 7619 2853 1807 7663 999 5280
internal_value=0 -0.00446448 0.00659206 -0.00262287 0.00414343 -0.0180806 0.0202228
internal_weight=0 2428.58 1690.65 2139.24 1433.19 289.337 257.459
internal_count=28434 10642 17792 9426 10516 1216 7276
is_linear=0
shrinkage=0.0534144


Tree=62
num_leaves=8
num_cat=0
split_feature=0 0 4 4 1 6 0
split_gain=39.2442 17.7471 14.1782 13.8393 9.73017 7.34249 2.42067
threshold=-0.62325035289840236 1.0812754669770519 0.29110629332231502 0.87449313991865341 -1.2973502285117482 -1.1288878377826488 -1.3370087943412881
decision_type=2 2 2 2 2 2 2
left_child=4 2 -2 -3 6 -6 -1
right_child=1 3 -4 -5 5 -7 -8
leaf_value=0.054581847056046788 -0.0033717029731028122 -0.016454400496803401 0.0043604737896506722 -0.0030710537512246045 -0.0056940591573986527 0.014602478446106132 0.028608032216270073
leaf_weight=12.565798813477157 1385.1694514714181 353.93392281234264 1322.6798712201416 584.49608080089092 59.966704724356532 334.6033078469336 55.242471171543002
leaf_count=603 7324 1687 6426 2812 1328 6593 1661
internal_value=0 -0.00178858 0.000405167 -0.00811865 0.01473 0.0115178 0.0334213
internal_weight=0 3646.28 2707.85 938.43 462.378 394.57 67.8083
internal_count=28434 18249 13750 4499 10185 7921 2264
is_linear=0
shrinkage=0.0534144


Tree=63
num_leaves=8
num_cat=0
split_feature=1 3 7 8 8 4 1
split_gain=34.5359 13.8133 12.259 7.16513 9.93963 3.85763 3.54422
threshold=-0.76186087147746562 -0.76474238852240217 1.2051030889954373 -0.3666885092468537 -0.31372602971422425 -0.61993617944457025 -1.6142725010422432
decision_type=2 2 2 2 2 2 2
left_child=3 5 -3 6 -5 -2 -1
right_child=1 2 -4 4 -6 -7 -8
leaf_value=0.048802114330028262 0.0084109193807754903 -0.003698586563722712 0.004307639112836107 -0.044901399683437988 0.012123296250083241 0.026961835475739354 0.022147945136469255
leaf_weight=15.824248488992451 173.5543576925993 2880.811701849103 673.15501710772514 9.2024482954293472 166.65550685301423 39.207019474357367 141.5738434009254
leaf_count=613 2712 15495 3022 163 2585 421 3423
internal_value=0 -0.0013907 -0.00218213 0.016549 0.00913926 0.0118294 0.0248277
internal_weight=0 3766.73 3553.97 333.256 175.858 212.761 157.398
internal_count=28434 21650 18517 6784 2748 3133 4036
is_linear=0
shrinkage=0.0534144


Tree=64
num_leaves=8
num_cat=0
split_feature=0 4 0 0 4 8 1
split_gain=34.7427 18.7284 15.8266 14.3938 11.526 8.88527 7.1539
threshold=0.32654826823175692 -0.13644434082705656 -0.77397027655221873 2.4306134368453831 -0.59196557721049914 -0.42740159554035528 0.27633277991553323
decision_type=2 2 2 2 2 2 2
left_child=2 5 6 -3 -4 -2 -1
right_child=1 3 4 -5 -6 -7 -8
leaf_value=0.018538351116592688 -0.037064727365593332 -0.0015519131906852018 -0.0056654688479737076 -0.028111004600585968 0.0061446150016883335 -0.012462643268874434 -0.025711942332030602
leaf_weight=294.81733794882894 50.854245632886887 2073.7378146648407 302.8533988930285 59.900681391358376 1064.4077427238226 237.43451084196568 10.80589611455798
leaf_count=8114 217 9080 2320 346 7209 999 149
internal_value=0 -0.00402411 0.00598497 -0.00229754 0.00352864 -0.0168025 0.0169738
internal_weight=0 2421.93 1672.88 2133.64 1367.26 288.289 305.623
internal_count=28434 10642 17792 9426 9529 1216 8263
is_linear=0
shrinkage=0.0534144


Tree=65
num_leaves=8
num_cat=0
split_feature=0 4 0 0 4 7 1
split_gain=31.2924 15.5902 15.2007 14.787 11.0782 9.71326 6.41476
threshold=0.34233439489874018 0.29110629332231502 1.8991471723902797 -0.84651128718859414 -0.70784378646593604 0.6380822608479747 -1.1443532693590968
decision_type=2 2 2 2 2 2 2
left_child=3 5 -3 6 -5 -2 -1
right_child=1 2 -4 4 -6 -7 -8
leaf_value=0.030998343391698914 -0.016872743713950179 0.00057633288922417296 -0.015504861542963256 -0.0057584723867200194 0.0059055294242532442 -0.0039856355751201385 0.012090672717977728
leaf_weight=73.543953742831945 353.56799560785294 1531.9874638617039 188.31928986310959 290.28376038372517 1163.5175279267132 316.00770208239555 168.45946273766458
leaf_count=2902 1505 6622 1050 2462 8186 1333 4374
internal_value=0 -0.00387554 -0.00118405 0.00561157 0.00357655 -0.0107906 0.0178366
internal_weight=0 2389.88 1720.31 1695.8 1453.8 669.576 242.003
internal_count=28434 10510 7672 17924 10648 2838 7276
is_linear=0
shrinkage=0.0534144


Tree=66
num_leaves=8
num_cat=0
split_feature=0 0 8 5 0 1 3
split_gain=29.09 13.4684 10.6185 8.73837 8.11688 6.98826 1.82627
threshold=-0.43118581178343945 1.2511642587264908 0.13322562682942649 2.0244898136653995 -1.2208680052913399 0.6369684693467853 -1.0821409502092243
decision_type=2 2 2 2 2 2 2
left_child=4 2 -2 -3 6 -6 -1
right_child=1 3 -4 -5 5 -7 -8
leaf_value=0.035627324507902867 -0.0043571971109717346 -0.0066973176498475199 0.0024383406916892087 -0.028040599255642864 0.010004243723097956 -0.022170649170872806 0.0015159124227428591
leaf_weight=41.951024642214179 1072.989609375596 626.87553922832012 1688.3013442829251 59.965187981724739 561.85340299084783 19.943416431546211 5.0131093934178343
leaf_count=1882 5353 3081 7562 355 9822 165 214
internal_value=0 -0.00186722 -0.000202287 -0.00856071 0.0106256 0.00890132 0.0319862
internal_weight=0 3448.13 2761.29 686.841 628.761 581.797 46.9641
internal_count=28434 16351 12915 3436 12083 9987 2096
is_linear=0
shrinkage=0.0534144


Tree=67
num_leaves=8
num_cat=0
split_feature=0 7 0 4 0 8 6
split_gain=26.6868 15.4461 12.1102 11.5418 8.75144 7.67518 1.93566
threshold=-0.21469036035052622 0.12848126339899088 1.745044507307824 -0.56399497497642803 -1.2208680052913399 -1.0539089753775535 -0.5853537980343968
decision_type=2 2 2 2 2 2 2
left_child=4 3 -3 -2 6 -6 -1
right_child=1 2 -4 -5 5 -7 -8
leaf_value=0.022682645275294441 -0.030371338127482755 0.0015876095211975233 -0.012336881676305245 -0.0061872522420181155 -0.0022220526551045366 0.01006944216984762 0.045404629517616479
leaf_weight=28.394322626292706 59.818122126162052 2004.0115625634789 195.59402979165316 958.16170483082533 189.51181632652879 616.30763153731823 17.162226609885693
leaf_count=1331 268 8708 1077 4533 2996 8756 765
internal_value=0 -0.00216826 0.000349411 -0.00760835 0.00846638 0.00717874 0.0312426
internal_weight=0 3217.59 2199.61 1017.98 851.376 805.819 45.5565
internal_count=28434 14586 9785 4801 13848 11752 2096
is_linear=0
shrinkage=0.0534144


Tree=68
num_leaves=8
num_cat=0
split_feature=0 4 3 0 2 4 1
split_gain=24.9562 15.5853 19.4112 11.9919 11.8489 8.60336 4.51373
threshold=0.34233439489874018 0.87449313991865341 1.2747121993376007 -0.96941755909582095 1.1065838076638013 -0.74380598933831321 -1.0678547897827702
decision_type=2 2 2 2 2 2 2
left_child=3 4 -3 6 -2 -5 -1
right_child=1 2 -4 5 -6 -7 -8
leaf_value=0.031872227376673043 -0.0031310667382416558 0.0091370656785867664 -0.0059348833197833224 -0.0045544660546508308 -0.013174662138457541 0.0055937829177008722 0.012508607285305257
leaf_weight=53.874213135801256 857.76198729872704 496.04948149621487 479.42484386265278 295.33109673857689 550.0300557538867 1235.1762865576893 94.755028784275055
leaf_count=2492 3686 2086 2371 3086 2367 9407 2939
internal_value=0 -0.00345956 0.00172952 0.00504222 -0.00705514 0.00363555 0.0195274
internal_weight=0 2383.27 975.474 1679.14 1407.79 1530.51 148.629
internal_count=28434 10510 4457 17924 6053 12493 5431
is_linear=0
shrinkage=0.0534144


Tree=69
num_leaves=8
num_cat=0
split_feature=1 6 1 7 8 8 6
split_gain=23.2647 10.8599 10.6488 9.73463 6.41269 9.22029 3.59403
threshold=-0.76186087147746562 2.3089649636250473 1.1506011179306903 1.3701851022535585 -0.3666885092468537 -0.31372602971422425 -0.57176544704069043
decision_type=2 2 2 2 2 2 2
left_child=4 3 -3 -2 6 -6 -1
right_child=1 2 -4 -5 5 -7 -8
leaf_value=0.015101458700009198 -0.0017780043414185845 0.0034395758386260092 -0.034109003894552119 0.0061904234385033591 -0.045225973100908985 0.0098988402754872154 0.032099485267283442
leaf_weight=84.995918073691428 3141.6011674124748 35.41923438385129 55.028654620051384 508.16517344675958 9.1530688758939487 159.72780968435109 60.931069931946695
leaf_count=2434 18847 173 313 2317 163 2585 1602
internal_value=0 -0.00112164 -0.019405 -0.000668542 0.0139977 0.00691117 0.0221989
internal_weight=0 3740.21 90.4479 3649.77 314.808 168.881 145.927
internal_count=28434 21650 486 21164 6784 2748 4036
is_linear=0
shrinkage=0.0534144


Tree=70
num_leaves=8
num_cat=0
split_feature=0 7 0 0 1 6 1
split_gain=22.1274 12.1374 11.4485 9.78167 8.17645 7.17615 5.63303
threshold=-0.57626783305619023 0.12848126339899088 0.55958156664912884 0.29798289616769197 0.17797759188882903 0.32506571854392552 -1.2973502285117482
decision_type=2 2 2 2 2 2 2
left_child=4 3 -3 -2 6 -6 -1
right_child=1 2 -4 -5 5 -7 -8
leaf_value=0.028204165587515494 -0.00059892332126198588 0.0058512620924440666 -0.0019579219523993144 -0.0099473788189102397 -0.023465777243207916 0.025003697431093784 0.010677369311309318
leaf_weight=60.994103419594467 602.91688695177436 851.32069923356175 1444.3372239544988 678.94230586290359 33.227763373404741 11.8135814294219 367.8185792863369
leaf_count=2307 4121 4133 6433 3019 365 122 7934
internal_value=0 -0.00138683 0.000938032 -0.00555037 0.0108964 -0.0107531 0.0131704
internal_weight=0 3577.52 2295.66 1281.86 473.854 45.0413 428.813
internal_count=28434 17706 10566 7140 10728 487 10241
is_linear=0
shrinkage=0.0534144


Tree=71
num_leaves=8
num_cat=0
split_feature=0 4 0 0 4 5 1
split_gain=20.0818 11.7799 11.645 8.52999 7.60875 6.24528 4.06612
threshold=0.090508088544483403 -0.44012516508268407 2.4306134368453831 -0.96941755909582095 -0.74380598933831321 0.3681800533154026 -1.0678547897827702
decision_type=2 2 2 2 2 2 2
left_child=3 5 -3 6 -5 -2 -1
right_child=1 2 -4 4 -6 -7 -8
leaf_value=0.030214757400117913 0.0014988769377205328 -0.00099089967730111618 -0.02529375983201421 -0.0037563368506306938 0.0066523473162086221 -0.021077083430819626 0.011351545904138043
leaf_weight=50.392826432362199 46.637607172131538 2567.5485335662961 57.512359246611595 264.64076305367053 825.08662849292159 139.62779587507248 92.3583993781358
leaf_count=2492 194 11325 347 2962 7589 586 2939
internal_value=0 -0.00244437 -0.00152335 0.00573292 0.00412459 -0.0154245 0.0180105
internal_weight=0 2811.33 2625.06 1232.48 1089.73 186.265 142.751
internal_count=28434 12452 11672 15982 10551 780 5431
is_linear=0
shrinkage=0.0534144


Tree=72
num_leaves=8
num_cat=0
split_feature=0 0 4 4 6 0 5
split_gain=18.7872 11.0412 15.0872 12.9145 6.09262 6.08424 5.43539
threshold=-0.62325035289840236 0.90537291268780973 0.73064432842914562 1.0383209530039272 0.78706965232994008 -1.4001533010092211 2.2131833306672979
decision_type=2 2 2 2 2 2 2
left_child=4 3 -3 -2 5 -1 -6
right_child=1 2 -4 -5 6 -7 -8
leaf_value=0.045895170654167691 -0.0005562208243092623 -0.012653120545204434 -0.00058545709839603107 0.011343043910721799 0.044810979092761577 0.0080215527563253786 -0.069173394573952746
leaf_weight=12.49049433134496 2072.5898816101253 483.53651162236929 760.42296274751425 297.59174434095621 20.543105795048181 388.8758343514055 1.2672233041375864
leaf_count=701 10857 2248 3602 1542 421 9036 27
internal_value=0 -0.00120102 -0.00527625 0.000937809 0.0106942 0.00920018 0.0381883
internal_weight=0 3614.14 1243.96 2370.18 423.177 401.366 21.8103
internal_count=28434 18249 5850 12399 10185 9737 448
is_linear=0
shrinkage=0.0534144


Tree=73
num_leaves=8
num_cat=0
split_feature=1 0 5 7 8 8 2
split_gain=17.334 11.6957 10.9572 6.20113 5.7965 8.47098 3.66402
threshold=-0.76186087147746562 0.63174671712676667 2.0244898136653995 1.7075266076071121 -0.3666885092468537 -0.3434366889642359 -0.8492057244390212
decision_type=2 2 2 2 2 2 2
left_child=4 3 -3 -2 6 -6 -1
right_child=1 2 -4 -5 5 -7 -8
leaf_value=0.014527817276869295 0.0012349030412702237 -0.0029173089155892342 -0.019262882732773514 0.015196017511369755 -0.070872436538482977 0.0074579986590096077 0.033274501736385617
leaf_weight=95.785033570602536 1838.8459714017808 1666.4565092027187 125.8436938226223 95.484447289258242 4.0378930456936351 160.88206830434501 43.143989689648151
leaf_count=2880 13091 7431 666 462 72 2676 1156
internal_value=0 -0.000956333 -0.00406499 0.00192407 0.0123115 0.00554016 0.0203495
internal_weight=0 3726.63 1792.3 1934.33 303.849 164.92 138.929
internal_count=28434 21650 8097 13553 6784 2748 4036
is_linear=0
shrinkage=0.0534144


Tree=74
num_leaves=8
num_cat=0
split_feature=0 0 4 1 0 1 4
split_gain=16.2979 10.8126 9.01519 7.46265 9.25732 4.4213 3.85545
threshold=-0.76494963274251393 2.4306134368453831 0.87449313991865341 0.27633277991553323 -0.80854941115608681 -1.2973502285117482 1.1901613651317413
decision_type=2 2 2 2 2 2 2
left_child=3 2 -2 5 -5 -1 -3
right_child=1 6 -4 4 -6 -7 -8
leaf_value=0.029234764486047234 -0.0022299702406198001 -0.066440695691090207 0.0035972098665461773 -0.005884657173193272 -0.12585336720098295 0.011062620206825097 -0.019492129898428419
leaf_weight=45.868281346745789 2615.1309130378067 5.5324024409055701 1066.3641584217548 9.1782869808375818 2.293742023408412 228.46587902400643 50.953218452632427
leaf_count=2112 14499 36 5181 131 23 6141 311
internal_value=0 -0.000897943 -0.000542097 0.012336 -0.0298715 0.014101 -0.0240904
internal_weight=0 3737.98 3681.5 285.806 11.472 274.334 56.4856
internal_count=28434 20027 19680 8407 154 8253 347
is_linear=0
shrinkage=0.0534144


Tree=75
num_leaves=8
num_cat=0
split_feature=0 4 1 4 0 5 0
split_gain=15.3888 13.1251 10.4891 10.3169 9.05399 7.36066 4.50821
threshold=0.78284250093932062 0.35903489874791622 -1.3410636454125069 1.0383209530039272 2.4306134368453831 1.8357962966635013 0.090508088544483403
decision_type=2 2 2 2 2 2 2
left_child=2 5 6 -4 -3 -2 -1
right_child=1 4 3 -5 -6 -7 -8
leaf_value=0.018162105796447486 -0.010178302952739953 -0.00063012307540480004 0.00081295405958972005 0.012661974098970722 -0.022798409930659878 -0.031484919215145214 0.070765365977553119
leaf_weight=77.12286838889122 256.34921157360077 1100.235760755837 2239.4013645406812 231.30917620845139 55.20175775885582 56.445908524096012 4.9464398920536032
leaf_count=2517 1133 5027 17865 1230 343 291 28
internal_value=0 -0.00431688 0.00254629 0.00192227 -0.00168923 -0.0140232 0.0213326
internal_weight=0 1468.23 2552.78 2470.71 1155.44 312.795 82.0693
internal_count=28434 6794 21640 19095 5370 1424 2545
is_linear=0
shrinkage=0.0534144


Tree=76
num_leaves=7
num_cat=0
split_feature=3 2 7 3 4 4
split_gain=14.6959 12.1065 12.1912 9.86702 5.56204 6.0928
threshold=-0.76474238852240217 0.95565074045495668 1.7793013959802082 1.3422438082071373 0.53485011279064809 -0.61993617944457025
decision_type=2 2 2 2 2 2
left_child=4 3 -3 -2 5 -1
right_child=1 2 -4 -5 -6 -7
leaf_value=0.0083133975399054018 0.0028937929548181166 -0.0065341792149385741 0.012169362904018965 -0.00634111465978132 -0.12318627610795997 0.028214877544591233
leaf_weight=234.88789055962116 2018.049754159525 1204.633144300431 108.37473823875189 394.64651975035667 0.87053586822003026 53.975213857367635
leaf_count=5778 13710 5369 484 2014 13 1066
internal_value=0 -0.000862956 -0.0049904 0.00138323 0.0116258 0.0120321
internal_weight=0 3725.7 1313.01 2412.7 289.734 288.863
internal_count=28434 21577 5853 15724 6857 6844
is_linear=0
shrinkage=0.0534144


Tree=77
num_leaves=8
num_cat=0
split_feature=0 7 0 6 8 0 8
split_gain=13.5306 13.1186 9.2185 8.4584 7.90281 6.51076 5.85091
threshold=-0.50710956384845407 0.12848126339899088 1.745044507307824 -1.1288878377826488 0.35670145510125167 1.2699572666633756 -1.039699529649287
decision_type=2 2 2 2 2 2 2
left_child=3 5 -3 4 -1 -2 -5
right_child=1 2 -4 6 -6 -7 -8
leaf_value=-0.00040168361295388725 -0.0041159544276055497 0.0022678911682210692 -0.010014045275552103 0.0018847845912341487 -0.045524158804396544 -0.015680472685933165 0.015244218183495752
leaf_weight=73.20435575582087 1059.6155199185014 2078.5129480883479 190.32418807595968 135.89969515334815 13.048085130751131 159.8508218601346 300.02421145234257
leaf_count=1989 5744 9337 1077 2945 295 839 6208
internal_value=0 -0.00116387 0.00123761 0.00805546 -0.00722772 -0.00563186 0.0110794
internal_weight=0 3488.3 2268.84 522.176 86.2524 1219.47 435.924
internal_count=28434 16997 10414 11437 2284 6583 9153
is_linear=0
shrinkage=0.0534144


Tree=78
num_leaves=8
num_cat=0
split_feature=1 5 0 6 5 5 1
split_gain=12.924 8.98268 8.50111 6.55731 6.21188 5.81234 5.46648
threshold=-0.76186087147746562 2.0559387331657164 2.4306134368453831 -0.47664699008474637 -0.50190671952668431 -0.50190671952668431 1.8828008510183849
decision_type=2 2 2 2 2 2 2
left_child=3 2 -2 4 -1 -5 -3
right_child=1 6 -4 5 -6 -7 -8
leaf_value=0.0073059583143661525 4.1089883347872326e-05 -0.0079636605443790306 -0.022385676952660798 0.045348494928517898 -0.03463155808711741 0.014867838352353155 -0.031855452590456773
leaf_weight=181.47429553512484 3504.9505574833602 121.94374204613268 48.896281853318214 23.005610658787191 10.669542035087941 79.635254795663059 35.212765052914619
leaf_count=4365 20523 613 303 511 235 1673 211
internal_value=0 -0.0008201 -0.000267473 0.0107998 0.00497721 0.0216997 -0.0133169
internal_weight=0 3711 3553.85 294.785 192.144 102.641 157.157
internal_count=28434 21650 20826 6784 4600 2184 824
is_linear=0
shrinkage=0.0534144


Tree=79
num_leaves=8
num_cat=0
split_feature=0 0 4 1 0 1 8
split_gain=12.1231 8.17644 8.32117 6.64593 7.39871 3.92682 1.07948
threshold=-0.76494963274251393 3.0864894138426635 -0.44012516508268407 0.27633277991553323 -0.80854941115608681 -1.2973502285117482 1.7117658704604708
decision_type=2 2 2 2 2 2 2
left_child=3 2 -2 5 -5 -1 -3
right_child=1 6 -4 4 -6 -7 -8
leaf_value=0.027354990707374897 -0.0069910804496395177 -0.032495654370941505 0.00038141044770652907 -0.0064427893288312088 -0.1103419302999038 0.009698701399051322 -0.065518001529444508
leaf_weight=42.87789208162576 505.65662619099021 8.123676270246504 3207.1320739239454 9.1041159853339177 2.4903604164719573 222.05872999783605 4.3295648992061606
leaf_count=2112 3425 55 16518 131 23 6141 29
internal_value=0 -0.000767601 -0.000622673 0.0108239 -0.0287591 0.0125562 -0.0439764
internal_weight=0 3725.24 3712.79 276.531 11.5945 264.937 12.4532
internal_count=28434 20027 19943 8407 154 8253 84
is_linear=0
shrinkage=0.0534144


Tree=80
num_leaves=8
num_cat=0
split_feature=0 4 3 4 0 7 7
split_gain=11.9007 13.264 8.37644 8.08436 7.53799 7.12021 6.65944
threshold=0.65993622903209392 0.29110629332231502 -1.1631788808526682 1.6856406047067134 3.0864894138426635 -0.2591025938157307 -1.1060450966182682
decision_type=2 2 2 2 2 2 2
left_child=2 5 6 -4 -3 -2 -1
right_child=1 4 3 -5 -6 -7 -8
leaf_value=-0.0073104312471411774 -0.033746166739404407 -0.00051865144175938316 0.0015089705246289183 0.026428284133364791 -0.042851837199882482 -0.0097597489925897452 0.02769718670099288
leaf_weight=20.522063720971346 39.631161786615849 1354.5451203733683 2148.1952148778364 37.797674462199211 12.108083337545393 323.71266432851553 63.397236598655581
leaf_count=921 180 6185 17156 224 84 1438 2246
internal_value=0 -0.00330529 0.0025756 0.00193985 -0.000893709 -0.012376 0.0191362
internal_weight=0 1730 2269.91 2185.99 1366.65 363.344 83.9193
internal_count=28434 7887 20547 17380 6269 1618 3167
is_linear=0
shrinkage=0.0534144


Tree=81
num_leaves=8
num_cat=0
split_feature=0 4 7 4 7 1 7
split_gain=10.8248 11.7377 9.95106 8.24283 15.4774 10.059 5.52252
threshold=0.78284250093932062 0.73064432842914562 0.70985704922107107 1.0383209530039272 -0.7687035912647151 -1.3410636454125069 0.45146781107792483
decision_type=2 2 2 2 2 2 2
left_child=3 6 -3 5 -5 -1 -2
right_child=1 2 -4 4 -6 -7 -8
leaf_value=0.021940073423590035 -0.015673247471265885 -0.0049456972373368505 0.0066994029370644071 -0.014167438143020201 0.018574188398181327 0.00054627698452643396 -0.0052702750389926308
leaf_weight=64.519890522584319 234.87221473455429 450.15425004065037 391.39901632070541 52.557945707812905 190.47887247242033 2227.9385752230883 383.01733059436083
leaf_count=2397 1101 2147 1810 361 1017 17865 1736
internal_value=0 -0.00363427 0.000470336 0.00214002 0.0114936 0.00114839 -0.00922465
internal_weight=0 1459.44 841.553 2535.5 243.037 2292.46 617.89
internal_count=28434 6794 3957 21640 1378 20262 2837
is_linear=0
shrinkage=0.0534144


Tree=82
num_leaves=8
num_cat=0
split_feature=0 7 4 1 0 8 6
split_gain=10.2346 13.2068 9.25225 7.64452 6.00045 6.32404 2.31805
threshold=0.090508088544483403 0.12848126339899088 0.95041334598256089 -1.2973502285117482 -1.2208680052913399 -1.0539089753775535 -0.5853537980343968
decision_type=2 2 2 2 2 2 2
left_child=4 3 -3 -2 6 -6 -1
right_child=1 2 -4 -5 5 -7 -8
leaf_value=0.015065172475365764 0.062456313606752821 -0.0018773936372259909 0.0059692316964077962 -0.0079266791617778019 -0.004983185242169375 0.0053167780998495473 0.042809298144330543
leaf_weight=23.052236898802221 4.4273073971271506 1365.6413269937038 624.94663486629725 796.212398044765 206.88960950355977 955.77450394257903 13.697379594668744
leaf_count=1331 25 5930 2901 3596 3143 10743 765
internal_value=0 -0.00174411 0.00058606 -0.00753748 0.00415564 0.00348396 0.025406
internal_weight=0 2791.23 1990.59 800.64 1199.41 1162.66 36.7496
internal_count=28434 12452 8831 3621 15982 13886 2096
is_linear=0
shrinkage=0.0534144


Tree=83
num_leaves=7
num_cat=0
split_feature=3 4 0 5 4 8
split_gain=10.3403 12.1804 10.7728 7.952 5.17964 4.48995
threshold=-0.71071710142677358 -0.47209156763590915 1.0688720817387078 1.2697157456578065 0.45493410640758797 -0.117377325105453
decision_type=2 2 2 2 2 2
left_child=4 3 -3 -2 5 -1
right_child=1 2 -4 -5 -6 -7
leaf_value=0.013650415643074693 -0.0060543670008465535 0.0022953001958277712 -0.0045335790824733808 -0.025869579764996643 -0.094435743265516764 -0.00013176471398335208
leaf_weight=228.69249875843525 363.63526474125683 2306.4376322645694 922.79412095993757 68.698774065822363 1.3715130994096387 95.646587220951915
leaf_count=5979 3131 13006 4546 327 23 1422
internal_value=0 -0.000783376 0.000343861 -0.00920305 0.00914807 0.00958609
internal_weight=0 3661.57 3229.23 432.334 325.711 324.339
internal_count=28434 21010 17552 3458 7424 7401
is_linear=0
shrinkage=0.0534144


Tree=84
num_leaves=8
num_cat=0
split_feature=3 4 3 6 8 4 3
split_gain=9.33624 10.8897 9.47478 6.32281 4.42642 8.70303 6.17284
threshold=-0.71071710142677358 -0.47209156763590915 0.13342800944243308 -0.041819758286144822 -0.05537247101847239 -0.7837639925298433 -0.88629928448756845
decision_type=2 2 2 2 2 2 2
left_child=4 3 -3 -2 5 -1 -6
right_child=1 2 -4 -5 6 -7 -8
leaf_value=0.0066629089934295309 -0.0010848879030744365 0.0050306938320711274 -0.0014550152119344336 -0.01416632614938191 0.012587157870947933 0.030504904221672385 -0.015415044903058393
leaf_weight=175.28350795246661 181.24524370208383 885.87457513809204 2340.5933117717505 251.9757259208709 45.134770919568837 58.181084237061441 44.708829218521714
leaf_count=4780 1951 5924 11628 1507 836 1352 456
internal_value=0 -0.000741931 0.000325732 -0.00869349 0.00872739 0.0126045 -0.00134757
internal_weight=0 3659.69 3226.47 433.221 323.308 233.465 89.8436
internal_count=28434 21010 17552 3458 7424 6132 1292
is_linear=0
shrinkage=0.0534144


Tree=85
num_leaves=8
num_cat=0
split_feature=1 7 5 5 6 5 5
split_gain=8.5494 8.60844 9.57036 6.77723 6.34973 5.70655 5.66205
threshold=-0.76186087147746562 1.3701851022535585 1.9301430551644507 -1.2881297070345938 -0.47664699008474637 -0.50190671952668431 -0.66963429019503828
decision_type=2 2 2 2 2 2 2
left_child=4 2 -2 -3 6 -6 -1
right_child=1 3 -4 -5 5 -7 -8
leaf_value=0.0069148045827308628 -0.0010172827290964145 -0.052057264426779062 -0.014224138603922031 0.0063555465152791814 0.044176432239304994 0.01310090425800476 -0.019879645346576467
leaf_weight=159.83371626958251 3010.4860640559345 5.730171423405408 165.13461143709719 514.0000749565661 21.597221238538623 76.862065725959837 26.187542663887143
leaf_count=3985 18378 28 872 2372 511 1673 615
internal_value=0 -0.00066109 -0.00170405 0.00571153 0.00894849 0.0199174 0.00314276
internal_weight=0 3695.35 3175.62 519.73 284.481 98.4593 186.021
internal_count=28434 21650 19250 2400 6784 2184 4600
is_linear=0
shrinkage=0.0534144


Tree=86
num_leaves=8
num_cat=0
split_feature=2 7 3 4 5 5 4
split_gain=9.5495 11.5999 10.6529 15.6599 8.3072 6.70168 6.03367
threshold=0.6392100545391961 1.3701851022535585 1.3422438082071373 1.2860605727914129 2.097870625832805 2.7687809085062209 1.2700773715148013
decision_type=2 2 2 2 2 2 2
left_child=2 5 4 -4 -1 -2 -3
right_child=1 6 3 -5 -6 -7 -8
leaf_value=0.0049956984962926734 -0.0039610231829759097 0.0033572635038408203 -0.025600842439363714 0.0012743542423419769 -0.022007199052976396 -0.035930032714391012 0.022716056575200774
leaf_weight=1588.5515009732917 1689.2731069941074 292.39921668358147 87.038347832858562 213.82997559756041 33.184054962359369 18.918144427239895 54.495875813066959
leaf_count=17352 7678 1309 452 1090 194 104 255
internal_value=0 -0.00250665 0.00273061 -0.00650038 0.00444316 -0.00431508 0.00639845
internal_weight=0 2055.09 1922.6 300.868 1621.74 1708.19 346.895
internal_count=28434 9346 19088 1542 17546 7782 1564
is_linear=0
shrinkage=0.0534144


Tree=87
num_leaves=8
num_cat=0
split_feature=0 6 7 7 3 0 0
split_gain=8.23945 9.34964 8.69411 7.25575 8.59017 5.84591 4.08231
threshold=1.2511642587264908 2.2681999106439279 0.45146781107792483 1.9372059304010201 -0.73772974497458754 -0.34624141590871998 1.4082738050788479
decision_type=2 2 2 2 2 2 2
left_child=3 2 -2 4 -1 -5 -3
right_child=1 6 -4 5 -6 -7 -8
leaf_value=0.0093232674940054872 -0.011832446119865945 0.006835402367665399 0.0010611743304918826 -0.046913951443604079 -0.00030071384793523242 0.014908382240446605 -0.040721681604824748
leaf_weight=291.42853700835258 242.72465963661671 6.2694080322980872 387.27275830507278 4.5073550436645737 2875.6092800758779 137.14475280791521 28.837927713990211
leaf_count=7082 1269 36 1924 71 17250 595 207
internal_value=0 -0.00540146 -0.00390646 0.00111388 0.000584878 0.0129412 -0.032229
internal_weight=0 665.105 629.997 3308.69 3167.04 141.652 35.1073
internal_count=28434 3436 3193 24998 24332 666 243
is_linear=0
shrinkage=0.0534144


Tree=88
num_leaves=8
num_cat=0
split_feature=1 0 7 0 3 4 6
split_gain=7.71392 6.92515 6.5265 3.90046 6.30396 0.973954 2.49231e-06
threshold=-1.3410636454125069 3.0864894138426635 1.3701851022535585 -1.3370087943412881 -1.5751216949568412 3.2519943298146923 -0.47664699008474637
decision_type=2 2 2 2 2 2 2
left_child=3 2 -2 6 -5 -3 -1
right_child=1 5 -4 4 -6 -7 -8
leaf_value=0.054105513799952723 -0.0010475646320308846 -0.051190236705246236 0.0053589871309757788 -0.12998222284275054 0.014817476942088291 -0.017058964899498416 0.054029936583705702
leaf_weight=5.6926486473530531 3358.4275428568944 8.3186549693346006 524.53645148314536 0.86890142876654763 67.247018553316593 3.3443026021122924 1.5933510810136784
leaf_count=456 23342 61 2458 57 1894 23 143
internal_value=0 -0.000305567 -0.000182125 0.0169436 0.0129704 -0.0414032 0.054089
internal_weight=0 3894.63 3882.96 75.4019 68.1159 11.663 7.286
internal_count=28434 25884 25800 2550 1951 84 599
is_linear=0
shrinkage=0.0534144


Tree=89
num_leaves=8
num_cat=0
split_feature=2 7 5 0 3 1 5
split_gain=8.74569 9.1619 23.6287 8.53603 7.28956 5.71837 5.43382
threshold=0.95565074045495668 2.1309978590083811 0.86087979215369259 2.5689299752608554 1.3422438082071373 -0.1280163264164772 2.097870625832805
decision_type=2 2 2 2 2 2 2
left_child=4 3 -3 -2 6 -6 -1
right_child=1 2 -4 -5 5 -7 -8
leaf_value=0.0034417287938409372 -0.0040029217896635503 0.045805887847545565 -0.025996450138411079 -0.058769149965284394 0.0088540120918038073 -0.0079569797560381881 -0.013444674637483953
leaf_weight=2161.7924135355279 1299.4711305759847 33.647937618196011 21.387739926576614 8.1708827540278417 70.509485431015491 318.5208703354001 55.77112827450037
leaf_count=19908 5899 152 97 57 365 1649 307
internal_value=0 -0.0034466 0.0179024 -0.00434513 0.00183393 -0.00491009 0.00301704
internal_weight=0 1362.68 55.0357 1307.64 2606.59 389.03 2217.56
internal_count=28434 6205 249 5956 22229 2014 20215
is_linear=0
shrinkage=0.0534144


Tree=90
num_leaves=8
num_cat=0
split_feature=2 7 5 3 3 1 5
split_gain=7.84378 8.22635 21.2229 6.54446 5.8953 5.13956 4.99278
threshold=0.95565074045495668 2.1309978590083811 0.86087979215369259 1.3422438082071373 -0.72422342320068112 -0.1280163264164772 2.7687809085062209
decision_type=2 2 2 2 2 2 2
left_child=3 4 -3 6 -2 -5 -1
right_child=1 2 -4 5 -6 -7 -8
leaf_value=0.0030593562165732134 0.011420076805120825 0.043447681066323435 -0.024718140924288375 0.0084042980783630306 -0.0049432482909519924 -0.007555090272201222 -0.029275381796361379
leaf_weight=2201.3179169204086 66.166594078764319 33.581172809004784 21.294906862080097 70.320021569728851 1240.9875170588493 317.57246019691229 13.709334963932632
leaf_count=20136 398 152 97 365 5558 1649 79
internal_value=0 -0.00326441 0.0169956 0.00173842 -0.00411496 -0.00466185 0.00285923
internal_weight=0 1362.03 54.8761 2602.92 1307.15 387.892 2215.03
internal_count=28434 6205 249 22229 5956 2014 20215
is_linear=0
shrinkage=0.0534144


Tree=91
num_leaves=8
num_cat=0
split_feature=3 2 0 5 6 5 8
split_gain=7.28043 6.64347 6.87214 5.89989 4.24167 7.41114 3.25936
threshold=-1.1631788808526682 0.95565074045495668 2.5689299752608554 2.097870625832805 -0.5853537980343968 -0.7639810486959876 -1.3225966764211354
decision_type=2 2 2 2 2 2 2
left_child=4 3 -3 -2 5 -1 -6
right_child=1 2 -4 -5 6 -7 -8
leaf_value=0.018327548357829248 0.0017384377261146322 -0.0030275356025397182 -0.051811930793410378 -0.014236620790236852 0.00016910227535023688 -0.035314221435556452 0.035452341921792349
leaf_weight=24.852411984466016 2461.5771546373144 1345.0899644084275 8.2892439514398557 67.775372102856636 9.6473298221826536 10.43343173433095 33.095190548337996
leaf_count=1305 18745 6079 60 383 379 382 1101
internal_value=0 -0.000305811 -0.00332633 0.00131038 0.0161732 0.00246658 0.0274886
internal_weight=0 3882.73 1353.38 2529.35 78.0284 35.2858 42.7425
internal_count=28434 25267 6139 19128 3167 1687 1480
is_linear=0
shrinkage=0.0534144


Tree=92
num_leaves=8
num_cat=0
split_feature=3 0 2 6 6 8 8
split_gain=6.63014 6.04295 6.15738 3.9538 5.82527 3.0878 1.16939
threshold=-1.1631788808526682 3.0864894138426635 0.93580629462989851 -0.5853537980343968 -0.76200236095257867 -1.3225966764211354 1.7117658704604708
decision_type=2 2 2 2 2 2 2
left_child=3 2 -2 4 -1 -5 -3
right_child=1 6 -4 5 -6 -7 -8
leaf_value=0.014075494699452485 0.001427900698010123 -0.027062945156176167 -0.0030057382423483133 0.00016009637083872066 -0.037943369794115528 0.034623668006192286 -0.063522144822213009
leaf_weight=27.262354521080852 2469.3227117704228 7.2962673380970937 1400.6130468174815 9.6458202553912979 7.928177246823906 32.10442671738565 3.8261067941784859
leaf_count=1352 18835 55 6348 379 335 1101 29
internal_value=0 -0.000289722 -0.000176729 0.0155448 0.00235601 0.0266613 -0.0396049
internal_weight=0 3881.06 3869.94 76.9408 35.1905 41.7502 11.1224
internal_count=28434 25267 25183 3167 1687 1480 84
is_linear=0
shrinkage=0.0534144


Tree=93
num_leaves=8
num_cat=0
split_feature=1 7 2 1 0 3 3
split_gain=6.48356 6.50493 9.17249 7.42445 3.79142 5.30097 1.73364e-06
threshold=-1.3410636454125069 0.12848126339899088 -0.76011157347340763 2.232508186224448 -1.3370087943412881 -1.5751216949568412 -1.1631788808526682
decision_type=2 2 2 2 2 2 2
left_child=4 2 -2 -3 6 -6 -1
right_child=1 3 -4 -5 5 -7 -8
leaf_value=0.054026261293137937 0.0017268459920541351 0.0018538271940191189 -0.0065205668995389193 -0.02569867771086564 -0.11291549354732325 0.013713536447658693 0.054113430582681615
leaf_weight=5.9736284026876092 680.07072534691542 2288.0760030299425 885.96349799353629 28.24800880998373 0.95693580340593953 65.72576380521059 0.73056164942681689
leaf_count=541 9636 11393 4686 169 57 1894 58
internal_value=0 -0.000279945 -0.00293902 0.00151782 0.0157459 0.0118963 0.0540358
internal_weight=0 3882.36 1566.03 2316.32 73.3869 66.6827 6.70419
internal_count=28434 25884 14322 11562 2550 1951 599
is_linear=0
shrinkage=0.0534144


Tree=94
num_leaves=8
num_cat=0
split_feature=3 7 0 4 5 8 7
split_gain=5.98696 5.8348 8.0162 7.04583 4.40607 13.9727 2.64345
threshold=-1.4805774425394902 0.12848126339899088 -0.34624141590871998 0.95041334598256089 0.5988054629843893 -1.1262479718123641 0.38687050154213715
decision_type=2 2 2 2 2 2 2
left_child=4 2 -2 -3 6 -6 -1
right_child=1 3 -4 -5 5 -7 -8
leaf_value=0.040381459192631197 0.0028603862744993676 -0.00023748182092659282 -0.0052178126457412951 0.0063486044779490899 -0.23085157272853585 0.057452232189070737 -0.046364076607683803
leaf_weight=18.671617035754032 517.01787317916751 1687.881567299366 1088.012603238225 638.84934819489717 0.74769832380116019 1.3377133510075498 1.0591447688639153
leaf_count=1071 9911 8757 5496 3046 37 50 66
internal_value=0 -0.000138161 -0.00261564 0.00157086 0.0279209 -0.0459155 0.035725
internal_weight=0 3931.76 1605.03 2326.73 21.8162 2.08541 19.7308
internal_count=28434 27210 15407 11803 1224 87 1137
is_linear=0
shrinkage=0.0534144


Tree=95
num_leaves=8
num_cat=0
split_feature=2 7 3 4 5 5 4
split_gain=5.74663 8.1685 7.50068 14.1825 6.12868 5.59657 5.20713
threshold=0.6392100545391961 1.3701851022535585 1.3422438082071373 1.2860605727914129 2.097870625832805 2.7687809085062209 1.2700773715148013
decision_type=2 2 2 2 2 2 2
left_child=2 5 4 -4 -1 -2 -3
right_child=1 6 3 -5 -6 -7 -8
leaf_value=0.0040518178674320005 -0.0031482486352368807 0.0026934527936820938 -0.023928307290633621 0.0017725055244316957 -0.019279894479410142 -0.032874123595271323 0.020646314212208385
leaf_weight=1572.3047494874336 1684.9729671757668 291.7265331633389 86.129145257174969 212.15668746083975 32.790975728072226 18.266347229480743 54.744225651025772
leaf_count=17352 7678 1309 452 1090 194 104 255
internal_value=0 -0.00194622 0.00212969 -0.00564853 0.00357517 -0.00346704 0.0055301
internal_weight=0 2049.71 1903.38 298.286 1605.1 1703.24 346.471
internal_count=28434 9346 19088 1542 17546 7782 1564
is_linear=0
shrinkage=0.0534144


Tree=96
num_leaves=8
num_cat=0
split_feature=1 7 6 1 8 8 1
split_gain=5.66952 5.54593 6.8217 5.63967 3.31088 7.14246 1.51544
threshold=-1.3410636454125069 0.6380822608479747 3.1786194272222503 2.232508186224448 -0.77230359639918411 -0.28401537046421305 -1.6142725010422432
decision_type=2 2 2 2 2 2 2
left_child=4 2 -2 -3 6 -6 -1
right_child=1 3 -4 -5 5 -7 -8
leaf_value=0.054827033797648986 -0.0016876461909601248 0.0027233712276903163 -0.060197892341649357 -0.02704484513577211 -0.022523031935730704 0.020653967169656486 0.023167715015116788
leaf_weight=6.4720686599612263 2417.6811869619414 1436.1730464845896 5.6985946241766205 18.390378914773464 15.509242443833498 37.029789961874485 12.935275918804107
leaf_count=414 18920 6815 39 110 607 956 573
internal_value=0 -0.000260284 -0.00182523 0.002347 0.0148725 0.00790835 0.0337256
internal_weight=0 3877.94 2423.38 1454.56 71.9464 52.539 19.4073
internal_count=28434 25884 18959 6925 2550 1563 987
is_linear=0
shrinkage=0.0534144


Tree=97
num_leaves=8
num_cat=0
split_feature=3 2 3 1 5 8 2
split_gain=5.42027 4.61758 6.28474 4.69274 3.9531 10.2236 1.29793
threshold=-1.4805774425394902 0.6392100545391961 1.3422438082071373 2.3363275513637469 0.5988054629843893 -1.1262479718123641 -0.99330439744255516
