{"learner":{"attributes":{"scikit_learn":"{\"_estimator_type\": \"classifier\"}"},"feature_names":[],"feature_types":[],"gradient_booster":{"model":{"gbtree_model_param":{"num_parallel_tree":"1","num_trees":"100"},"iteration_indptr":[0,1,2,3,4,5,6,7,8,9,10,11,12,13,14,15,16,17,18,19,20,21,22,23,24,25,26,27,28,29,30,31,32,33,34,35,36,37,38,39,40,41,42,43,44,45,46,47,48,49,50,51,52,53,54,55,56,57,58,59,60,61,62,63,64,65,66,67,68,69,70,71,72,73,74,75,76,77,78,79,80,81,82,83,84,85,86,87,88,89,90,91,92,93,94,95,96,97,98,99,100],"tree_info":[0,0,0,0,0,0,0,0,0,0,0,0,0,0,0,0,0,0,0,0,0,0,0,0,0,0,0,0,0,0,0,0,0,0,0,0,0,0,0,0,0,0,0,0,0,0,0,0,0,0,0,0,0,0,0,0,0,0,0,0,0,0,0,0,0,0,0,0,0,0,0,0,0,0,0,0,0,0,0,0,0,0,0,0,0,0,0,0,0,0,0,0,0,0,0,0,0,0,0,0],"trees":[{"base_weights":[4.770525E-2,1.0409375E0,-1.2320039E0,1.2483692E0,5.3312E-1,-5.958482E-1,-1.8038749E0,6.081065E-2,5.047982E-2,3.4494605E-2,6.593067E-3,-1.0226055E-2,-3.7371498E-2,-6.838247E-2,-9.5672615E-2],"categories":[],"categories_nodes":[],"categories_segments":[],"categories_sizes":[],"default_left":[0,0,0,0,0,0,0,0,0,0,0,0,0,0,0],"id":0,"left_children":[1,3,5,7,9,11,13,-1,-1,-1,-1,-1,-1,-1,-1],"loss_changes":[5.405144E3,2.5153516E2,6.749663E2,1.8831299E1,6.0118286E1,7.284848E1,8.422388E1,0E0,0E0,0E0,0E0,0E0,0E0,0E0,0E0],"parents":[2147483647,0,0,1,1,2,2,3,3,4,4,5,5,6,6],"right_children":[2,4,6,8,10,12,14,-1,-1,-1,-1,-1,-1,-1,-1],"split_conditions":[9.2011526E-2,-5.1462674E-1,8.121596E-1,-8.574112E-1,-8.037755E-2,3.8142386E-1,1.2714607E0,6.081065E-2,5.047982E-2,3.4494605E-2,6.593067E-3,-1.0226055E-2,-3.7371498E-2,-6.838247E-2,-9.5672615E-2],"split_indices":[0,0,0,0,2,0,0,0,0,0,0,0,0,0,0],"split_type":[0,0,0,0,0,0,0,0,0,0,0,0,0,0,0],"sum_hessian":[4.2504985E3,2.3932163E3,1.8572821E3,1.6981168E3,6.950995E2,8.801902E2,9.7709186E2,1.0633684E3,6.347485E2,4.4137012E2,2.5372939E2,3.306557E2,5.495345E2,4.804708E2,4.966211E2],"tree_param":{"num_deleted":"0","num_feature":"11","num_nodes":"15","size_leaf_vector":"1"}},{"base_weights":[3.906216E-2,1.009088E0,-1.1402777E0,1.1902646E0,4.4397506E-1,-5.2388394E-1,-1.6353464E0,5.9349414E-2,4.7996167E-2,3.0872576E-2,4.7494746E-3,-4.4689048E-2,-1.6829493E-2,-6.0532417E-2,-8.8265255E-2],"categories":[],"categories_nodes":[],"categories_segments":[],"categories_sizes":[],"default_left":[0,0,0,0,0,0,0,0,0,0,0,0,0,0,0],"id":1,"left_children":[1,3,5,7,9,11,13,-1,-1,-1,-1,-1,-1,-1,-1],"loss_changes":[4.8330034E3,2.3680371E2,5.809717E2,2.5409912E1,4.451085E1,5.972931E1,9.4947754E1,0E0,0E0,0E0,0E0,0E0,0E0,0E0,0E0],"parents":[2147483647,0,0,1,1,2,2,3,3,4,4,5,5,6,6],"right_children":[2,4,6,8,10,12,14,-1,-1,-1,-1,-1,-1,-1,-1],"split_conditions":[9.2011526E-2,-4.2968237E-1,7.843459E-1,-8.7996286E-1,1.0637433E-1,-1.3244854E-1,1.2496608E0,5.9349414E-2,4.7996167E-2,3.0872576E-2,4.7494746E-3,-4.4689048E-2,-1.6829493E-2,-6.0532417E-2,-8.8265255E-2],"split_indices":[0,0,0,0,2,4,0,0,0,0,0,0,0,0,0],"split_type":[0,0,0,0,0,0,0,0,0,0,0,0,0,0,0],"sum_hessian":[4.2226836E3,2.3170322E3,1.9056515E3,1.7536891E3,5.633431E2,8.497338E2,1.0559177E3,9.735158E2,7.8017334E2,3.340026E2,2.293405E2,2.1468164E2,6.350522E2,5.2128503E2,5.346327E2],"tree_param":{"num_deleted":"0","num_feature":"11","num_nodes":"15","size_leaf_vector":"1"}},{"base_weights":[3.769333E-2,9.956902E-1,-1.0752935E0,1.1618413E0,3.7393486E-1,-5.09607E-1,-1.534563E0,5.7785723E-2,4.3568898E-2,2.5654314E-2,6.841706E-4,-5.9522386E-3,-3.2173723E-2,-6.266855E-2,-8.999011E-2],"categories":[],"categories_nodes":[],"categories_segments":[],"categories_sizes":[],"default_left":[0,0,0,0,0,0,0,0,0,0,0,0,0,0,0],"id":2,"left_children":[1,3,5,7,9,11,13,-1,-1,-1,-1,-1,-1,-1,-1],"loss_changes":[4.4790557E3,2.3278491E2,5.0407275E2,3.7249268E1,3.2236473E1,6.449449E1,7.298877E1,0E0,0E0,0E0,0E0,0E0,0E0,0E0,0E0],"parents":[2147483647,0,0,1,1,2,2,3,3,4,4,5,5,6,6],"right_children":[2,4,6,8,10,12,14,-1,-1,-1,-1,-1,-1,-1,-1],"split_conditions":[7.62254E-2,-3.6728957E-1,7.843459E-1,-7.634462E-1,-8.689791E-2,3.3782408E-1,1.6300313E0,5.7785723E-2,4.3568898E-2,2.5654314E-2,6.841706E-4,-5.9522386E-3,-3.2173723E-2,-6.266855E-2,-8.999011E-2],"split_indices":[0,0,0,0,0,0,0,0,0,0,0,0,0,0,0],"split_type":[0,0,0,0,0,0,0,0,0,0,0,0,0,0,0],"sum_hessian":[4.198799E3,2.2565725E3,1.9422262E3,1.7800286E3,4.7654404E2,8.712315E2,1.0709946E3,1.181374E3,5.986546E2,3.1230713E2,1.6423691E2,2.9671024E2,5.745213E2,7.848979E2,2.8609674E2],"tree_param":{"num_deleted":"0","num_feature":"11","num_nodes":"15","size_leaf_vector":"1"}},{"base_weights":[5.4734E-2,1.0068105E0,-9.6291625E-1,1.1596597E0,4.7737092E-1,-4.3372756E-1,-1.4246672E0,5.679383E-2,4.419183E-2,3.1489767E-2,1.02966605E-2,-5.1109297E-3,-3.0576004E-2,-5.3564016E-2,-7.6611884E-2],"categories":[],"categories_nodes":[],"categories_segments":[],"categories_sizes":[],"default_left":[0,0,0,0,0,0,0,0,0,0,0,0,0,0,0],"id":3,"left_children":[1,3,5,7,9,11,13,-1,-1,-1,-1,-1,-1,-1,-1],"loss_changes":[4.0626934E3,1.7475781E2,4.9464233E2,2.6018555E1,2.5904823E1,7.179442E1,6.69939E1,0E0,0E0,0E0,0E0,0E0,0E0,0E0,0E0],"parents":[2147483647,0,0,1,1,2,2,3,3,4,4,5,5,6,6],"right_children":[2,4,6,8,10,12,14,-1,-1,-1,-1,-1,-1,-1,-1],"split_conditions":[1.3832617E-2,-4.2968237E-1,7.843459E-1,-7.634462E-1,-1.2976117E-1,3.6563772E-1,1.2714607E0,5.679383E-2,4.419183E-2,3.1489767E-2,1.02966605E-2,-5.1109297E-3,-3.0576004E-2,-5.3564016E-2,-7.6611884E-2],"split_indices":[0,0,0,0,5,0,0,0,0,0,0,0,0,0,0],"split_type":[0,0,0,0,0,0,0,0,0,0,0,0,0,0,0],"sum_hessian":[4.1911807E3,2.1653596E3,2.0258209E3,1.679343E3,4.8601663E2,9.4488116E2,1.0809398E3,1.1608926E3,5.184505E2,2.6261426E2,2.2340236E2,4.005707E2,5.443105E2,5.4610675E2,5.34833E2],"tree_param":{"num_deleted":"0","num_feature":"11","num_nodes":"15","size_leaf_vector":"1"}},{"base_weights":[4.215218E-2,9.69238E-1,-9.015984E-1,1.1523917E0,5.773237E-1,-3.5565388E-1,-1.2820914E0,5.721413E-2,4.7692135E-2,3.2680478E-2,1.0099663E-2,7.3490334E-3,-2.142085E-2,-4.3030396E-2,-6.846708E-2],"categories":[],"categories_nodes":[],"categories_segments":[],"categories_sizes":[],"default_left":[0,0,0,0,0,0,0,0,0,0,0,0,0,0,0],"id":4,"left_children":[1,3,5,7,9,11,13,-1,-1,-1,-1,-1,-1,-1,-1],"loss_changes":[3.6535771E3,1.5053943E2,4.2940247E2,1.4283325E1,3.306227E1,5.0058594E1,8.873938E1,0E0,0E0,0E0,0E0,0E0,0E0,0E0,0E0],"parents":[2147483647,0,0,1,1,2,2,3,3,4,4,5,5,6,6],"right_children":[2,4,6,8,10,12,14,-1,-1,-1,-1,-1,-1,-1,-1],"split_conditions":[1.3832617E-2,-5.807782E-1,7.054153E-1,-9.611486E-1,3.605418E-2,-7.8838736E-2,1.0895444E0,5.721413E-2,4.7692135E-2,3.2680478E-2,1.0099663E-2,7.3490334E-3,-2.142085E-2,-4.3030396E-2,-6.846708E-2],"split_indices":[0,0,0,0,2,1,0,0,0,0,0,0,0,0,0],"split_type":[0,0,0,0,0,0,0,0,0,0,0,0,0,0,0],"sum_hessian":[4.173815E3,2.1054834E3,2.0683318E3,1.4335844E3,6.71899E2,8.502698E2,1.2180619E3,7.3343823E2,7.001462E2,4.8285287E2,1.8904611E2,1.5322981E2,6.9704E2,4.7839746E2,7.396644E2],"tree_param":{"num_deleted":"0","num_feature":"11","num_nodes":"15","size_leaf_vector":"1"}},{"base_weights":[4.932182E-2,9.650051E-1,-8.531339E-1,1.1584882E0,6.158556E-1,-3.1051284E-1,-1.1828405E0,5.6582097E-2,4.844645E-2,3.4136157E-2,1.1135379E-2,-3.151518E-3,-2.6786119E-2,-4.4751696E-2,-6.6115856E-2],"categories":[],"categories_nodes":[],"categories_segments":[],"categories_sizes":[],"default_left":[0,0,0,0,0,0,0,0,0,0,0,0,0,0,0],"id":5,"left_children":[1,3,5,7,9,11,13,-1,-1,-1,-1,-1,-1,-1,-1],"loss_changes":[3.4182192E3,1.3798645E2,3.723479E2,9.083862E0,3.586499E1,5.2589943E1,6.82395E1,0E0,0E0,0E0,0E0,0E0,0E0,0E0,0E0],"parents":[2147483647,0,0,1,1,2,2,3,3,4,4,5,5,6,6],"right_children":[2,4,6,8,10,12,14,-1,-1,-1,-1,-1,-1,-1,-1],"split_conditions":[1.3832617E-2,-6.281365E-1,6.618155E-1,-9.611486E-1,1.0637433E-1,3.8142386E-1,1.2714607E0,5.6582097E-2,4.844645E-2,3.4136157E-2,1.1135379E-2,-3.151518E-3,-2.6786119E-2,-4.4751696E-2,-6.6115856E-2],"split_indices":[0,0,0,0,2,0,0,0,0,0,0,0,0,0,0],"split_type":[0,0,0,0,0,0,0,0,0,0,0,0,0,0,0],"sum_hessian":[4.1344624E3,2.052157E3,2.0823054E3,1.3189412E3,7.3321594E2,7.877659E2,1.2945396E3,7.121003E2,6.068408E2,5.4037946E2,1.9283652E2,4.2107004E2,3.6669586E2,7.3741656E2,5.57123E2],"tree_param":{"num_deleted":"0","num_feature":"11","num_nodes":"15","size_leaf_vector":"1"}},{"base_weights":[4.539962E-2,9.746949E-1,-7.722286E-1,1.132636E0,6.460674E-1,-2.586952E-1,-1.1221206E0,5.491133E-2,4.5335554E-2,3.317333E-2,1.1672893E-2,-2.7856974E-2,-3.8984376E-3,-3.9792407E-2,-5.9731144E-2],"categories":[],"categories_nodes":[],"categories_segments":[],"categories_sizes":[],"default_left":[0,0,0,0,0,0,0,0,0,0,0,0,0,0,0],"id":6,"left_children":[1,3,5,7,9,11,13,-1,-1,-1,-1,-1,-1,-1,-1],"loss_changes":[3.1307798E3,9.9364746E1,3.9356067E2,1.1572876E1,1.9608856E1,5.414771E1,5.9709106E1,0E0,0E0,0E0,0E0,0E0,0E0,0E0,0E0],"parents":[2147483647,0,0,1,1,2,2,3,3,4,4,5,5,6,6],"right_children":[2,4,6,8,10,12,14,-1,-1,-1,-1,-1,-1,-1,-1],"split_conditions":[-8.689791E-2,-6.2137103E-1,6.618155E-1,-8.7996286E-1,3.5829544E-1,3.4086704E-3,1.0895444E0,5.491133E-2,4.5335554E-2,3.317333E-2,1.1672893E-2,-2.7856974E-2,-3.8984376E-3,-3.9792407E-2,-5.9731144E-2],"split_indices":[0,0,0,0,1,4,0,0,0,0,0,0,0,0,0],"split_type":[0,0,0,0,0,0,0,0,0,0,0,0,0,0,0],"sum_hessian":[4.118443E3,1.9275018E3,2.1909414E3,1.3001788E3,6.2732294E2,8.8855554E2,1.3023857E3,8.5887006E2,4.4130878E2,5.1911993E2,1.08203E2,2.9251022E2,5.960453E2,5.5846454E2,7.439212E2],"tree_param":{"num_deleted":"0","num_feature":"11","num_nodes":"15","size_leaf_vector":"1"}},{"base_weights":[3.8062673E-2,9.4643235E-1,-7.297634E-1,1.1091673E0,6.188632E-1,-2.009223E-1,-1.06182E0,5.3366315E-2,4.3990493E-2,3.7037708E-2,2.0331869E-2,-3.7180744E-2,-4.64337E-3,-3.2279946E-2,-5.4516338E-2],"categories":[],"categories_nodes":[],"categories_segments":[],"categories_sizes":[],"default_left":[0,0,0,0,0,0,0,0,0,0,0,0,0,0,0],"id":7,"left_children":[1,3,5,7,9,11,13,-1,-1,-1,-1,-1,-1,-1,-1],"loss_changes":[2.8767773E3,1.0002942E2,3.9230627E2,9.876099E0,2.065718E1,5.2471527E1,6.3685913E1,0E0,0E0,0E0,0E0,0E0,0E0,0E0,0E0],"parents":[2147483647,0,0,1,1,2,2,3,3,4,4,5,5,6,6],"right_children":[2,4,6,8,10,12,14,-1,-1,-1,-1,-1,-1,-1,-1],"split_conditions":[-8.689791E-2,-6.281365E-1,6.3625705E-1,-8.483906E-1,-2.974058E-1,-3.9617136E-1,6.861461E-1,5.3366315E-2,4.3990493E-2,3.7037708E-2,2.0331869E-2,-3.7180744E-2,-4.64337E-3,-3.2279946E-2,-5.4516338E-2],"split_indices":[0,0,0,0,1,4,1,0,0,0,0,0,0,0,0],"split_type":[0,0,0,0,0,0,0,0,0,0,0,0,0,0,0],"sum_hessian":[4.1225996E3,1.8883599E3,2.2342397E3,1.2600076E3,6.283523E2,8.6238715E2,1.3718527E3,8.8692114E2,3.7308636E2,2.9598975E2,3.3236258E2,1.1899826E2,7.4338885E2,3.7498758E2,9.9686505E2],"tree_param":{"num_deleted":"0","num_feature":"11","num_nodes":"15","size_leaf_vector":"1"}},{"base_weights":[3.370691E-2,9.2056996E-1,-6.996812E-1,1.1186341E0,6.73278E-1,-2.0738462E-1,-1.0063791E0,5.1549114E-2,2.4226228E-2,3.4718275E-2,1.10388575E-2,-2.7937066E-2,-4.747316E-3,-3.510965E-2,-5.4426108E-2],"categories":[],"categories_nodes":[],"categories_segments":[],"categories_sizes":[],"default_left":[0,0,0,0,0,0,0,0,0,0,0,0,0,0,0],"id":8,"left_children":[1,3,5,7,9,11,13,-1,-1,-1,-1,-1,-1,-1,-1],"loss_changes":[2.640257E3,8.924194E1,3.3527588E2,5.826782E0,3.0704773E1,3.566999E1,5.9472412E1,0E0,0E0,0E0,0E0,0E0,0E0,0E0,0E0],"parents":[2147483647,0,0,1,1,2,2,3,3,4,4,5,5,6,6],"right_children":[2,4,6,8,10,12,14,-1,-1,-1,-1,-1,-1,-1,-1],"split_conditions":[-8.689791E-2,-7.566807E-1,6.3625705E-1,3.5829544E-1,3.605418E-2,-2.3633935E-1,1.0895444E0,5.1549114E-2,2.4226228E-2,3.4718275E-2,1.10388575E-2,-2.7937066E-2,-4.747316E-3,-3.510965E-2,-5.4426108E-2],"split_indices":[0,0,0,1,2,4,0,0,0,0,0,0,0,0,0],"split_type":[0,0,0,0,0,0,0,0,0,0,0,0,0,0,0],"sum_hessian":[4.0573528E3,1.8363987E3,2.220954E3,1.01773676E3,8.186619E2,8.531673E2,1.3677867E3,9.9858875E2,1.9148026E1,6.801883E2,1.3847363E2,1.7260022E2,6.805671E2,6.034698E2,7.6431696E2],"tree_param":{"num_deleted":"0","num_feature":"11","num_nodes":"15","size_leaf_vector":"1"}},{"base_weights":[3.485471E-2,8.6190456E-1,-6.9791114E-1,1.0451752E0,4.8968494E-1,-3.0614725E-1,-9.729193E-1,5.18179E-2,4.199848E-2,3.4048744E-2,1.3607957E-2,-3.8988835E-3,-2.738457E-2,-3.8656645E-2,-6.0653288E-2],"categories":[],"categories_nodes":[],"categories_segments":[],"categories_sizes":[],"default_left":[0,0,0,0,0,0,0,0,0,0,0,0,0,0,0],"id":9,"left_children":[1,3,5,7,9,11,13,-1,-1,-1,-1,-1,-1,-1,-1],"loss_changes":[2.4482686E3,1.289502E2,2.3048083E2,1.3269897E1,3.0606949E1,5.733828E1,5.5296997E1,0E0,0E0,0E0,0E0,0E0,0E0,0E0,0E0],"parents":[2147483647,0,0,1,1,2,2,3,3,4,4,5,5,6,6],"right_children":[2,4,6,8,10,12,14,-1,-1,-1,-1,-1,-1,-1,-1],"split_conditions":[1.3832617E-2,-5.7100576E-1,7.1819454E-1,-9.077765E-1,-2.974058E-1,5.516321E-1,1.5954522E0,5.18179E-2,4.199848E-2,3.4048744E-2,1.3607957E-2,-3.8988835E-3,-2.738457E-2,-3.8656645E-2,-6.0653288E-2],"split_indices":[0,0,0,0,1,5,0,0,0,0,0,0,0,0,0],"split_type":[0,0,0,0,0,0,0,0,0,0,0,0,0,0,0],"sum_hessian":[4.0378286E3,1.896797E3,2.1410315E3,1.2697831E3,6.2701385E2,8.839337E2,1.2570979E3,7.3340875E2,5.363744E2,2.6696268E2,3.6005118E2,5.0547626E2,3.7845746E2,9.308904E2,3.2620746E2],"tree_param":{"num_deleted":"0","num_feature":"11","num_nodes":"15","size_leaf_vector":"1"}},{"base_weights":[2.5624188E-2,8.9701176E-1,-6.494732E-1,1.0990518E0,6.647423E-1,-2.1654782E-1,-9.353356E-1,5.2665733E-2,4.6381634E-2,3.356606E-2,1.4144647E-2,9.204733E-3,-1.50772575E-2,-3.8066644E-2,-5.952528E-2],"categories":[],"categories_nodes":[],"categories_segments":[],"categories_sizes":[],"default_left":[0,0,0,0,0,0,0,0,0,0,0,0,0,0,0],"id":10,"left_children":[1,3,5,7,9,11,13,-1,-1,-1,-1,-1,-1,-1,-1],"loss_changes":[2.36814E3,8.173584E1,2.80515E2,3.0882568E0,2.0327698E1,4.305124E1,4.996411E1,0E0,0E0,0E0,0E0,0E0,0E0,0E0,0E0],"parents":[2147483647,0,0,1,1,2,2,3,3,4,4,5,5,6,6],"right_children":[2,4,6,8,10,12,14,-1,-1,-1,-1,-1,-1,-1,-1],"split_conditions":[-1.02684036E-1,-7.792323E-1,6.618155E-1,-7.3454E-1,3.605418E-2,1.9250417E-1,1.6713759E0,5.2665733E-2,4.6381634E-2,3.356606E-2,1.4144647E-2,9.204733E-3,-1.50772575E-2,-3.8066644E-2,-5.952528E-2],"split_indices":[0,0,0,1,2,2,0,0,0,0,0,0,0,0,0],"split_type":[0,0,0,0,0,0,0,0,0,0,0,0,0,0,0],"sum_hessian":[4.0236E3,1.7563054E3,2.2672947E3,9.372794E2,8.19026E2,9.024036E2,1.364891E3,5.5659143E2,3.8068802E2,6.8215765E2,1.3686832E2,1.9282744E2,7.095762E2,1.0732E3,2.9169104E2],"tree_param":{"num_deleted":"0","num_feature":"11","num_nodes":"15","size_leaf_vector":"1"}},{"base_weights":[3.377863E-2,8.280269E-1,-6.3623434E-1,9.974093E-1,3.9763796E-1,-2.3110922E-1,-8.800587E-1,4.687345E-2,2.1553218E-2,2.5439385E-2,6.6308444E-3,-2.4194298E-2,-2.1758608E-3,-3.2475214E-2,-5.158573E-2],"categories":[],"categories_nodes":[],"categories_segments":[],"categories_sizes":[],"default_left":[0,0,0,0,0,0,0,0,0,0,0,0,0,0,0],"id":11,"left_children":[1,3,5,7,9,11,13,-1,-1,-1,-1,-1,-1,-1,-1],"loss_changes":[2.1111294E3,1.3193555E2,2.1235846E2,1.9699463E1,2.0647331E1,4.4387375E1,5.582007E1,0E0,0E0,0E0,0E0,0E0,0E0,0E0,0E0],"parents":[2147483647,0,0,1,1,2,2,3,3,4,4,5,5,6,6],"right_children":[2,4,6,8,10,12,14,-1,-1,-1,-1,-1,-1,-1,-1],"split_conditions":[1.3832617E-2,-4.9583375E-1,6.618155E-1,2.4901189E-1,-1.9364218E-1,8.332468E-2,1.3097985E0,4.687345E-2,2.1553218E-2,2.5439385E-2,6.6308444E-3,-2.4194298E-2,-2.1758608E-3,-3.2475214E-2,-5.158573E-2],"split_indices":[0,0,0,1,0,4,0,0,0,0,0,0,0,0,0],"split_type":[0,0,0,0,0,0,0,0,0,0,0,0,0,0,0],"sum_hessian":[3.9651306E3,1.8142466E3,2.150884E3,1.3009368E3,5.133098E2,8.0886554E2,1.3420184E3,1.230807E3,7.012974E1,3.136309E2,1.9967894E2,3.068695E2,5.0199603E2,8.0397577E2,5.380427E2],"tree_param":{"num_deleted":"0","num_feature":"11","num_nodes":"15","size_leaf_vector":"1"}},{"base_weights":[2.6846733E-2,8.403452E-1,-5.6953275E-1,9.918531E-1,4.6830446E-1,-2.4508369E-1,-9.0288824E-1,4.9746566E-2,3.9379306E-2,2.5133938E-2,-1.2665574E-3,-2.4923076E-5,-2.076953E-2,-3.8446996E-2,-6.127824E-2],"categories":[],"categories_nodes":[],"categories_segments":[],"categories_sizes":[],"default_left":[0,0,0,0,0,0,0,0,0,0,0,0,0,0,0],"id":12,"left_children":[1,3,5,7,9,11,13,-1,-1,-1,-1,-1,-1,-1,-1],"loss_changes":[1.9078629E3,9.329846E1,2.4519434E2,1.4007935E1,1.9755066E1,5.910553E1,2.8661682E1,0E0,0E0,0E0,0E0,0E0,0E0,0E0,0E0],"parents":[2147483647,0,0,1,1,2,2,3,3,4,4,5,5,6,6],"right_children":[2,4,6,8,10,12,14,-1,-1,-1,-1,-1,-1,-1,-1],"split_conditions":[-1.02684036E-1,-5.6198514E-1,8.279457E-1,-9.077765E-1,4.3479392E-1,3.8142386E-1,1.8515208E0,4.9746566E-2,3.9379306E-2,2.5133938E-2,-1.2665574E-3,-2.4923076E-5,-2.076953E-2,-3.8446996E-2,-6.127824E-2],"split_indices":[0,0,0,0,1,0,5,0,0,0,0,0,0,0,0],"split_type":[0,0,0,0,0,0,0,0,0,0,0,0,0,0,0],"sum_hessian":[3.9305046E3,1.6624335E3,2.268071E3,1.1801638E3,4.822696E2,1.1502694E3,1.1178016E3,6.666259E2,5.1353796E2,4.135174E2,6.87522E1,5.31823E2,6.184465E2,9.850038E2,1.327979E2],"tree_param":{"num_deleted":"0","num_feature":"11","num_nodes":"15","size_leaf_vector":"1"}},{"base_weights":[3.404551E-2,7.8798926E-1,-5.6440353E-1,9.807651E-1,4.303052E-1,-2.6276562E-1,-8.5286194E-1,4.96567E-2,3.8953084E-2,2.5398387E-2,7.0165964E-3,-3.258413E-2,-7.7205934E-3,-3.5805237E-2,-6.118598E-2],"categories":[],"categories_nodes":[],"categories_segments":[],"categories_sizes":[],"default_left":[0,0,0,0,0,0,0,0,0,0,0,0,0,0,0],"id":13,"left_children":[1,3,5,7,9,11,13,-1,-1,-1,-1,-1,-1,-1,-1],"loss_changes":[1.770072E3,1.1927869E2,1.9007501E2,1.4453247E1,2.1186241E1,4.5091362E1,3.623468E1,0E0,0E0,0E0,0E0,0E0,0E0,0E0,0E0],"parents":[2147483647,0,0,1,1,2,2,3,3,4,4,5,5,6,6],"right_children":[2,4,6,8,10,12,14,-1,-1,-1,-1,-1,-1,-1,-1],"split_conditions":[1.3832617E-2,-5.807782E-1,8.4072495E-1,-9.3934876E-1,-8.037755E-2,-2.3633935E-1,1.8515208E0,4.96567E-2,3.8953084E-2,2.5398387E-2,7.0165964E-3,-3.258413E-2,-7.7205934E-3,-3.5805237E-2,-6.118598E-2],"split_indices":[0,0,0,0,2,4,5,0,0,0,0,0,0,0,0],"split_type":[0,0,0,0,0,0,0,0,0,0,0,0,0,0,0],"sum_hessian":[3.921073E3,1.7349789E3,2.1860942E3,1.1262422E3,6.087366E2,1.0695684E3,1.1165258E3,6.075849E2,5.186573E2,4.1737863E2,1.9135796E2,1.8268289E2,8.868855E2,9.8142474E2,1.3510101E2],"tree_param":{"num_deleted":"0","num_feature":"11","num_nodes":"15","size_leaf_vector":"1"}},{"base_weights":[4.7704168E-2,-5.024163E-1,8.0872774E-1,-2.052181E-1,-8.086998E-1,9.6306676E-1,4.3220192E-1,7.900653E-4,-1.6912011E-2,-3.02761E-2,-4.485115E-2,4.9481776E-2,3.9113864E-2,2.8288767E-2,6.7207683E-3],"categories":[],"categories_nodes":[],"categories_segments":[],"categories_sizes":[],"default_left":[0,0,0,0,0,0,0,0,0,0,0,0,0,0,0],"id":14,"left_children":[1,3,5,7,9,11,13,-1,-1,-1,-1,-1,-1,-1,-1],"loss_changes":[1.6304574E3,2.0560364E2,9.4540405E1,4.2256824E1,2.7491028E1,1.3945557E1,2.5396523E1,0E0,0E0,0E0,0E0,0E0,0E0,0E0,0E0],"parents":[2147483647,0,0,1,1,2,2,3,3,4,4,5,5,6,6],"right_children":[2,4,6,8,10,12,14,-1,-1,-1,-1,-1,-1,-1,-1],"split_conditions":[1E0,8.279457E-1,-5.1462674E-1,3.1226557E-1,1.2325637E0,-9.679141E-1,-7.8838736E-2,7.900653E-4,-1.6912011E-2,-3.02761E-2,-4.485115E-2,4.9481776E-2,3.9113864E-2,2.8288767E-2,6.7207683E-3],"split_indices":[9,0,0,0,1,0,1,0,0,0,0,0,0,0,0],"split_type":[0,0,0,0,0,0,0,0,0,0,0,0,0,0,0],"sum_hessian":[3.8925457E3,2.2595361E3,1.6330093E3,1.147624E3,1.1119122E3,1.1571376E3,4.7587177E2,4.8952078E2,6.581033E2,6.0824493E2,5.0366724E2,5.364004E2,6.207371E2,2.8627103E2,1.8960075E2],"tree_param":{"num_deleted":"0","num_feature":"11","num_nodes":"15","size_leaf_vector":"1"}},{"base_weights":[3.3279195E-2,8.2465476E-1,-4.5909742E-1,1.0013894E0,6.055967E-1,-8.0631554E-2,-6.763094E-1,4.6294175E-2,2.3155449E-2,3.390558E-2,1.8213773E-2,-1.6682258E-2,3.7848295E-3,-2.6245285E-2,-4.8905607E-2],"categories":[],"categories_nodes":[],"categories_segments":[],"categories_sizes":[],"default_left":[0,0,0,0,0,0,0,0,0,0,0,0,0,0,0],"id":15,"left_children":[1,3,5,7,9,11,13,-1,-1,-1,-1,-1,-1,-1,-1],"loss_changes":[1.5083987E3,5.6875183E1,1.9612592E2,4.6918335E0,1.8567566E1,4.062392E1,6.0077637E1,0E0,0E0,0E0,0E0,0E0,0E0,0E0,0E0],"parents":[2147483647,0,0,1,1,2,2,3,3,4,4,5,5,6,6],"right_children":[2,4,6,8,10,12,14,-1,-1,-1,-1,-1,-1,-1,-1],"split_conditions":[-1.9364218E-1,-7.6945996E-1,5.580781E-1,2.4901189E-1,-2.2090733E-1,3.4086704E-3,1.6300313E0,4.6294175E-2,2.3155449E-2,3.390558E-2,1.8213773E-2,-1.6682258E-2,3.7848295E-3,-2.6245285E-2,-4.8905607E-2],"split_indices":[0,0,0,1,1,4,0,0,0,0,0,0,0,0,0],"split_type":[0,0,0,0,0,0,0,0,0,0,0,0,0,0,0],"sum_hessian":[3.8691436E3,1.4837316E3,2.385412E3,8.1921924E2,6.645123E2,8.703327E2,1.5150795E3,7.9743207E2,2.1787212E1,3.9770728E2,2.6680502E2,3.169965E2,5.533362E2,1.2078424E3,3.0723706E2],"tree_param":{"num_deleted":"0","num_feature":"11","num_nodes":"15","size_leaf_vector":"1"}},{"base_weights":[2.2176474E-2,7.8995764E-1,-4.6040785E-1,9.8019123E-1,5.626723E-1,-8.8983856E-2,-6.4196634E-1,4.5324408E-2,2.282273E-2,3.351619E-2,1.7560039E-2,-1.4674965E-2,7.4584815E-3,-2.0550966E-2,-3.5546377E-2],"categories":[],"categories_nodes":[],"categories_segments":[],"categories_sizes":[],"default_left":[0,0,0,0,0,0,0,0,0,0,0,0,0,0,0],"id":16,"left_children":[1,3,5,7,9,11,13,-1,-1,-1,-1,-1,-1,-1,-1],"loss_changes":[1.4058463E3,6.276526E1,1.5705856E2,4.3945312E0,2.0166672E1,4.5013042E1,4.069037E1,0E0,0E0,0E0,0E0,0E0,0E0,0E0,0E0],"parents":[2147483647,0,0,1,1,2,2,3,3,4,4,5,5,6,6],"right_children":[2,4,6,8,10,12,14,-1,-1,-1,-1,-1,-1,-1,-1],"split_conditions":[-1.4703554E-1,-7.634462E-1,5.197404E-1,2.4901189E-1,-2.974058E-1,2.4315669E-1,8.06358E-1,4.5324408E-2,2.282273E-2,3.351619E-2,1.7560039E-2,-1.4674965E-2,7.4584815E-3,-2.0550966E-2,-3.5546377E-2],"split_indices":[0,0,0,1,1,4,1,0,0,0,0,0,0,0,0],"split_type":[0,0,0,0,0,0,0,0,0,0,0,0,0,0,0],"sum_hessian":[3.7922788E3,1.4634016E3,2.3288772E3,7.948307E2,6.685709E2,7.6512006E2,1.5637572E3,7.731545E2,2.167626E1,3.3875717E2,3.2981378E2,3.9808975E2,3.6703027E2,6.529504E2,9.1080676E2],"tree_param":{"num_deleted":"0","num_feature":"11","num_nodes":"15","size_leaf_vector":"1"}},{"base_weights":[3.042512E-2,8.121595E-1,-4.3132642E-1,9.892797E-1,5.897341E-1,-5.1409826E-2,-6.246882E-1,4.805128E-2,3.964343E-2,3.0013928E-2,6.221901E-3,-1.2683439E-2,6.90092E-3,-2.3235459E-2,-4.063815E-2],"categories":[],"categories_nodes":[],"categories_segments":[],"categories_sizes":[],"default_left":[0,0,0,0,0,0,0,0,0,0,0,0,0,0,0],"id":17,"left_children":[1,3,5,7,9,11,13,-1,-1,-1,-1,-1,-1,-1,-1],"loss_changes":[1.3651188E3,5.474121E1,1.7462567E2,5.064209E0,1.913208E1,3.688565E1,4.7941162E1,0E0,0E0,0E0,0E0,0E0,0E0,0E0,0E0],"parents":[2147483647,0,0,1,1,2,2,3,3,4,4,5,5,6,6],"right_children":[2,4,6,8,10,12,14,-1,-1,-1,-1,-1,-1,-1,-1],"split_conditions":[-1.9364218E-1,-7.634462E-1,5.197404E-1,-6.908266E-1,3.5829544E-1,1.6324069E-1,1.1491616E0,4.805128E-2,3.964343E-2,3.0013928E-2,6.221901E-3,-1.2683439E-2,6.90092E-3,-2.3235459E-2,-4.063815E-2],"split_indices":[0,0,0,1,1,4,5,0,0,0,0,0,0,0,0],"split_type":[0,0,0,0,0,0,0,0,0,0,0,0,0,0,0],"sum_hessian":[3.779867E3,1.4033203E3,2.3765466E3,7.793033E2,6.2401697E2,8.020154E2,1.5745314E3,5.057984E2,2.735049E2,5.4242633E2,8.1590645E1,3.7852612E2,4.2348923E2,1.0990259E3,4.7550546E2],"tree_param":{"num_deleted":"0","num_feature":"11","num_nodes":"15","size_leaf_vector":"1"}},{"base_weights":[2.4359923E-2,7.3630786E-1,-4.3819138E-1,9.664276E-1,5.03036E-1,-2.0885375E-1,-7.234239E-1,4.7796655E-2,3.907717E-2,2.6724167E-2,1.1372671E-2,-7.126565E-4,-1.7714242E-2,-2.9434945E-2,-4.828953E-2],"categories":[],"categories_nodes":[],"categories_segments":[],"categories_sizes":[],"default_left":[0,0,0,0,0,0,0,0,0,0,0,0,0,0,0],"id":18,"left_children":[1,3,5,7,9,11,13,-1,-1,-1,-1,-1,-1,-1,-1],"loss_changes":[1.2407153E3,7.9163574E1,1.4924533E2,5.744873E0,1.5321594E1,4.3890728E1,2.6053406E1,0E0,0E0,0E0,0E0,0E0,0E0,0E0,0E0],"parents":[2147483647,0,0,1,1,2,2,3,3,4,4,5,5,6,6],"right_children":[2,4,6,8,10,12,14,-1,-1,-1,-1,-1,-1,-1,-1],"split_conditions":[-8.689791E-2,-7.6945996E-1,9.008626E-1,-1.008507E0,1.3972835E-1,3.8390452E-1,1.8878714E0,4.7796655E-2,3.907717E-2,2.6724167E-2,1.1372671E-2,-7.126565E-4,-1.7714242E-2,-2.9434945E-2,-4.828953E-2],"split_indices":[0,0,0,0,1,5,0,0,0,0,0,0,0,0,0],"split_type":[0,0,0,0,0,0,0,0,0,0,0,0,0,0,0],"sum_hessian":[3.7656138E3,1.4827731E3,2.2828408E3,7.448473E2,7.379257E2,1.2663667E3,1.016474E3,4.251852E2,3.1966208E2,5.5603784E2,1.8188791E2,6.099049E2,6.564618E2,8.2555835E2,1.909157E2],"tree_param":{"num_deleted":"0","num_feature":"11","num_nodes":"15","size_leaf_vector":"1"}},{"base_weights":[3.541281E-2,7.665395E-1,-3.7708676E-1,8.977342E-1,4.3309888E-1,-1.22899614E-1,-6.395797E-1,4.253895E-2,1.142066E-2,2.7270306E-2,1.1298268E-2,2.9081984E-3,-1.5865907E-2,-2.4483258E-2,-4.501127E-2],"categories":[],"categories_nodes":[],"categories_segments":[],"categories_sizes":[],"default_left":[0,0,0,0,0,0,0,0,0,0,0,0,0,0,0],"id":19,"left_children":[1,3,5,7,9,11,13,-1,-1,-1,-1,-1,-1,-1,-1],"loss_changes":[1.1296151E3,5.8710632E1,1.5969485E2,2.1235718E1,1.1545319E1,5.1086235E1,4.158954E1,0E0,0E0,0E0,0E0,0E0,0E0,0E0,0E0],"parents":[2147483647,0,0,1,1,2,2,3,3,4,4,5,5,6,6],"right_children":[2,4,6,8,10,12,14,-1,-1,-1,-1,-1,-1,-1,-1],"split_conditions":[-1.9364218E-1,-5.807782E-1,7.843459E-1,2.4901189E-1,-2.2090733E-1,4.572853E-1,1.708962E0,4.253895E-2,1.142066E-2,2.7270306E-2,1.1298268E-2,2.9081984E-3,-1.5865907E-2,-2.4483258E-2,-4.501127E-2],"split_indices":[0,0,0,1,1,5,0,0,0,0,0,0,0,0,0],"split_type":[0,0,0,0,0,0,0,0,0,0,0,0,0,0,0],"sum_hessian":[3.7435808E3,1.349979E3,2.3936018E3,9.675836E2,3.8239536E2,1.2167858E3,1.176816E3,9.185843E2,4.8999367E1,2.0161394E2,1.8078142E2,6.651175E2,5.516683E2,9.0877045E2,2.6804556E2],"tree_param":{"num_deleted":"0","num_feature":"11","num_nodes":"15","size_leaf_vector":"1"}},{"base_weights":[3.61861E-2,7.3039484E-1,-3.8404697E-1,8.8832605E-1,4.5469016E-1,-1.1025599E-1,-5.903425E-1,4.5545842E-2,3.51112E-2,2.384856E-2,1.348031E-3,7.8915525E-3,-1.0758288E-2,-1.8370392E-2,-3.2216016E-2],"categories":[],"categories_nodes":[],"categories_segments":[],"categories_sizes":[],"default_left":[0,0,0,0,0,0,0,0,0,0,0,0,0,0,0],"id":20,"left_children":[1,3,5,7,9,11,13,-1,-1,-1,-1,-1,-1,-1,-1],"loss_changes":[1.0795664E3,6.0354797E1,1.3013803E2,1.0789795E1,1.4692146E1,3.5267986E1,2.8229065E1,0E0,0E0,0E0,0E0,0E0,0E0,0E0,0E0],"parents":[2147483647,0,0,1,1,2,2,3,3,4,4,5,5,6,6],"right_children":[2,4,6,8,10,12,14,-1,-1,-1,-1,-1,-1,-1,-1],"split_conditions":[-1.02684036E-1,-6.2137103E-1,6.861461E-1,-9.611486E-1,4.3479392E-1,2.5588655E-1,9.008626E-1,4.5545842E-2,3.51112E-2,2.384856E-2,1.348031E-3,7.8915525E-3,-1.0758288E-2,-1.8370392E-2,-3.2216016E-2],"split_indices":[0,0,1,0,1,0,0,0,0,0,0,0,0,0,0],"split_type":[0,0,0,0,0,0,0,0,0,0,0,0,0,0,0],"sum_hessian":[3.6986125E3,1.3943923E3,2.3042202E3,8.851385E2,5.0925385E2,9.907942E2,1.313426E3,4.5726462E2,4.2787387E2,4.3901828E2,7.0235565E1,3.0406952E2,6.867247E2,5.0165085E2,8.1177515E2],"tree_param":{"num_deleted":"0","num_feature":"11","num_nodes":"15","size_leaf_vector":"1"}},{"base_weights":[2.892191E-2,7.129851E-1,-3.48531E-1,9.584071E-1,5.100844E-1,-1.0460918E-1,-5.4552966E-1,4.8256252E-2,4.0576834E-2,2.8621022E-2,1.598995E-2,6.6269404E-4,-1.4833331E-2,-1.8918598E-2,-3.509813E-2],"categories":[],"categories_nodes":[],"categories_segments":[],"categories_sizes":[],"default_left":[0,0,0,0,0,0,0,0,0,0,0,0,0,0,0],"id":21,"left_children":[1,3,5,7,9,11,13,-1,-1,-1,-1,-1,-1,-1,-1],"loss_changes":[9.4025793E2,6.398987E1,1.1270969E2,3.072815E0,1.3065811E1,2.7562363E1,3.7686035E1,0E0,0E0,0E0,0E0,0E0,0E0,0E0,0E0],"parents":[2147483647,0,0,1,1,2,2,3,3,4,4,5,5,6,6],"right_children":[2,4,6,8,10,12,14,-1,-1,-1,-1,-1,-1,-1,-1],"split_conditions":[-1.7785606E-1,-8.483906E-1,6.861461E-1,-1.0623906E0,-5.056061E-1,4.677683E-1,1.2714607E0,4.8256252E-2,4.0576834E-2,2.8621022E-2,1.598995E-2,6.6269404E-4,-1.4833331E-2,-1.8918598E-2,-3.509813E-2],"split_indices":[0,0,1,1,0,5,0,0,0,0,0,0,0,0,0],"split_type":[0,0,0,0,0,0,0,0,0,0,0,0,0,0,0],"sum_hessian":[3.639602E3,1.2938502E3,2.3457517E3,5.8388214E2,7.099681E2,1.0487413E3,1.2970104E3,2.3507803E2,3.4880408E2,4.082103E2,3.0175778E2,6.813472E2,3.6739417E2,8.192907E2,4.777197E2],"tree_param":{"num_deleted":"0","num_feature":"11","num_nodes":"15","size_leaf_vector":"1"}},{"base_weights":[1.6898125E-2,6.8546027E-1,-3.5078508E-1,9.1238385E-1,4.481493E-1,-1.4848824E-1,-6.146305E-1,4.4886854E-2,3.548557E-2,3.0049155E-2,1.2912528E-2,-1.0208182E-2,1.2808318E-2,-2.608618E-2,-5.366104E-2],"categories":[],"categories_nodes":[],"categories_segments":[],"categories_sizes":[],"default_left":[0,0,0,0,0,0,0,0,0,0,0,0,0,0,0],"id":22,"left_children":[1,3,5,7,9,11,13,-1,-1,-1,-1,-1,-1,-1,-1],"loss_changes":[8.8691016E2,6.853082E1,1.2415622E2,5.498108E0,2.1617363E1,4.2597767E1,2.3758942E1,0E0,0E0,0E0,0E0,0E0,0E0,0E0,0E0],"parents":[2147483647,0,0,1,1,2,2,3,3,4,4,5,5,6,6],"right_children":[2,4,6,8,10,12,14,-1,-1,-1,-1,-1,-1,-1,-1],"split_conditions":[-1.4703554E-1,-7.6945996E-1,9.008626E-1,-9.611486E-1,-4.0668935E-1,1.0423168E0,2.1798756E0,4.4886854E-2,3.548557E-2,3.0049155E-2,1.2912528E-2,-1.0208182E-2,1.2808318E-2,-2.608618E-2,-5.366104E-2],"split_indices":[0,0,0,0,1,4,6,0,0,0,0,0,0,0,0],"split_type":[0,0,0,0,0,0,0,0,0,0,0,0,0,0,0],"sum_hessian":[3.606001E3,1.2791837E3,2.3268174E3,6.5244885E2,6.267349E2,1.3179076E3,1.00890967E3,4.2335742E2,2.290914E2,2.745541E2,3.5218082E2,1.1218854E3,1.9602223E2,9.387704E2,7.013929E1],"tree_param":{"num_deleted":"0","num_feature":"11","num_nodes":"15","size_leaf_vector":"1"}},{"base_weights":[3.7833083E-2,-3.3720434E-1,6.586838E-1,-1.2694201E-1,-5.641335E-1,8.0498123E-1,2.7203208E-1,-2.9410915E-3,-2.0178244E-2,-2.1685174E-2,-3.72152E-2,4.362795E-2,3.0226627E-2,1.5637085E-2,-2.1922512E-2],"categories":[],"categories_nodes":[],"categories_segments":[],"categories_sizes":[],"default_left":[0,0,0,0,0,0,0,0,0,0,0,0,0,0,0],"id":23,"left_children":[1,3,5,7,9,11,13,-1,-1,-1,-1,-1,-1,-1,-1],"loss_changes":[8.3839325E2,1.07037735E2,7.648187E1,2.2948778E1,2.375418E1,2.05401E1,2.000141E1,0E0,0E0,0E0,0E0,0E0,0E0,0E0,0E0],"parents":[2147483647,0,0,1,1,2,2,3,3,4,4,5,5,6,6],"right_children":[2,4,6,8,10,12,14,-1,-1,-1,-1,-1,-1,-1,-1],"split_conditions":[1E0,8.279457E-1,-4.2968237E-1,1.2749572E0,1.6713759E0,-9.077765E-1,2.0614555E0,-2.9410915E-3,-2.0178244E-2,-2.1685174E-2,-3.72152E-2,4.362795E-2,3.0226627E-2,1.5637085E-2,-2.1922512E-2],"split_indices":[9,0,0,5,0,0,3,0,0,0,0,0,0,0,0],"split_type":[0,0,0,0,0,0,0,0,0,0,0,0,0,0,0],"sum_hessian":[3.5987385E3,2.243789E3,1.3549493E3,1.1654734E3,1.0783157E3,9.822234E2,3.7272592E2,9.735693E2,1.9190419E2,7.982458E2,2.8006982E2,4.7482462E2,5.0739877E2,3.4126642E2,3.1459518E1],"tree_param":{"num_deleted":"0","num_feature":"11","num_nodes":"15","size_leaf_vector":"1"}},{"base_weights":[3.8208935E-2,6.960003E-1,-2.9780775E-1,8.430671E-1,3.890594E-1,-2.6083887E-2,-4.554873E-1,3.9914906E-2,9.749369E-3,1.9281073E-2,-1.2915882E-2,-1.2250054E-2,5.1827035E-3,-1.8920565E-2,-4.3044616E-2],"categories":[],"categories_nodes":[],"categories_segments":[],"categories_sizes":[],"default_left":[0,0,0,0,0,0,0,0,0,0,0,0,0,0,0],"id":24,"left_children":[1,3,5,7,9,11,13,-1,-1,-1,-1,-1,-1,-1,-1],"loss_changes":[7.949451E2,5.4564026E1,1.01986115E2,1.6050476E1,8.9921E0,2.9641157E1,2.9696198E1,0E0,0E0,0E0,0E0,0E0,0E0,0E0,0E0],"parents":[2147483647,0,0,1,1,2,2,3,3,4,4,5,5,6,6],"right_children":[2,4,6,8,10,12,14,-1,-1,-1,-1,-1,-1,-1,-1],"split_conditions":[-1.9364218E-1,-6.093435E-1,5.580781E-1,2.4901189E-1,7.1893114E-1,3.4086704E-3,2.0297313E0,3.9914906E-2,9.749369E-3,1.9281073E-2,-1.2915882E-2,-1.2250054E-2,5.1827035E-3,-1.8920565E-2,-4.3044616E-2],"split_indices":[0,0,0,1,1,4,5,0,0,0,0,0,0,0,0],"split_type":[0,0,0,0,0,0,0,0,0,0,0,0,0,0,0],"sum_hessian":[3.5946294E3,1.2150188E3,2.3796106E3,8.2025665E2,3.9476212E2,8.742356E2,1.505375E3,7.8090234E2,3.935429E1,3.7644635E2,1.8315788E1,3.192769E2,5.549587E2,1.3903997E3,1.1497533E2],"tree_param":{"num_deleted":"0","num_feature":"11","num_nodes":"15","size_leaf_vector":"1"}},{"base_weights":[2.6180357E-2,5.525753E-1,-3.695778E-1,8.7994725E-1,3.2895267E-1,-2.5831443E-1,-6.5841E-1,4.4043604E-2,3.4703307E-2,2.0884832E-2,3.6438834E-3,-4.608317E-3,-1.8036552E-2,-2.7431633E-2,-5.3991478E-2],"categories":[],"categories_nodes":[],"categories_segments":[],"categories_sizes":[],"default_left":[0,0,0,0,0,0,0,0,0,0,0,0,0,0,0],"id":25,"left_children":[1,3,5,7,9,11,13,-1,-1,-1,-1,-1,-1,-1,-1],"loss_changes":[7.419465E2,1.11605225E2,6.516498E1,5.567871E0,2.9108849E1,3.1597702E1,1.6296844E1,0E0,0E0,0E0,0E0,0E0,0E0,0E0,0E0],"parents":[2147483647,0,0,1,1,2,2,3,3,4,4,5,5,6,6],"right_children":[2,4,6,8,10,12,14,-1,-1,-1,-1,-1,-1,-1,-1],"split_conditions":[1.649284E-1,-7.634462E-1,1.2714607E0,-7.3454E-1,1.0637433E-1,4.4680235E-1,2.4448962E0,4.4043604E-2,3.4703307E-2,2.0884832E-2,3.6438834E-3,-4.608317E-3,-1.8036552E-2,-2.7431633E-2,-5.3991478E-2],"split_indices":[0,0,0,1,2,5,0,0,0,0,0,0,0,0,0],"split_type":[0,0,0,0,0,0,0,0,0,0,0,0,0,0,0],"sum_hessian":[3.559504E3,1.5274534E3,2.0320507E3,6.187299E2,9.087235E2,1.4683212E3,5.637294E2,3.5764426E2,2.6108563E2,5.987801E2,3.0994342E2,6.837773E2,7.8454395E2,5.1003162E2,5.369777E1],"tree_param":{"num_deleted":"0","num_feature":"11","num_nodes":"15","size_leaf_vector":"1"}},{"base_weights":[2.5941364E-2,6.5148443E-1,-2.7641398E-1,8.7830555E-1,4.740513E-1,-1.3870814E-1,-5.760341E-1,4.533912E-2,3.6526497E-2,2.726736E-2,1.3041952E-2,2.507769E-3,-1.1480647E-2,-1.887519E-2,-3.3355147E-2],"categories":[],"categories_nodes":[],"categories_segments":[],"categories_sizes":[],"default_left":[0,0,0,0,0,0,0,0,0,0,0,0,0,0,0],"id":26,"left_children":[1,3,5,7,9,11,13,-1,-1,-1,-1,-1,-1,-1,-1],"loss_changes":[6.562416E2,4.5084503E1,9.6431885E1,3.6496887E0,1.4613739E1,3.505395E1,1.8209915E1,0E0,0E0,0E0,0E0,0E0,0E0,0E0,0E0],"parents":[2147483647,0,0,1,1,2,2,3,3,4,4,5,5,6,6],"right_children":[2,4,6,8,10,12,14,-1,-1,-1,-1,-1,-1,-1,-1],"split_conditions":[-1.9364218E-1,-8.483906E-1,1.0895444E0,-1.0623906E0,-2.2090733E-1,3.5829544E-1,1.2325637E0,4.533912E-2,3.6526497E-2,2.726736E-2,1.3041952E-2,2.507769E-3,-1.1480647E-2,-1.887519E-2,-3.3355147E-2],"split_indices":[0,0,0,1,1,1,1,0,0,0,0,0,0,0,0],"split_type":[0,0,0,0,0,0,0,0,0,0,0,0,0,0,0],"sum_hessian":[3.4677236E3,1.1295802E3,2.3381433E3,4.940556E2,6.3552454E2,1.6029077E3,7.3523566E2,1.9502063E2,2.9903497E2,3.8270828E2,2.5281627E2,5.9024963E2,1.0126581E3,3.603942E2,3.7484146E2],"tree_param":{"num_deleted":"0","num_feature":"11","num_nodes":"15","size_leaf_vector":"1"}},{"base_weights":[2.6705673E-2,6.6358745E-1,-2.5198475E-1,8.552253E-1,4.621066E-1,-4.788207E-2,-4.261042E-1,4.241162E-2,3.2828853E-2,2.8645638E-2,1.0299537E-2,1.5278875E-2,-4.855678E-3,-1.706496E-2,-4.06054E-2],"categories":[],"categories_nodes":[],"categories_segments":[],"categories_sizes":[],"default_left":[0,0,0,0,0,0,0,0,0,0,0,0,0,0,0],"id":27,"left_children":[1,3,5,7,9,11,13,-1,-1,-1,-1,-1,-1,-1,-1],"loss_changes":[6.184668E2,4.0556854E1,8.6120636E1,4.7866516E0,2.0174194E1,2.5037064E1,3.1333588E1,0E0,0E0,0E0,0E0,0E0,0E0,0E0,0E0],"parents":[2147483647,0,0,1,1,2,2,3,3,4,4,5,5,6,6],"right_children":[2,4,6,8,10,12,14,-1,-1,-1,-1,-1,-1,-1,-1],"split_conditions":[-2.5377983E-1,-7.8825295E-1,6.861461E-1,-6.908266E-1,-2.2090733E-1,-4.0668935E-1,1.9825882E0,4.241162E-2,3.2828853E-2,2.8645638E-2,1.0299537E-2,1.5278875E-2,-4.855678E-3,-1.706496E-2,-4.06054E-2],"split_indices":[0,0,1,1,1,1,0,0,0,0,0,0,0,0,0],"split_type":[0,0,0,0,0,0,0,0,0,0,0,0,0,0,0],"sum_hessian":[3.4825183E3,1.0596211E3,2.4228972E3,5.414131E2,5.18208E2,1.1159989E3,1.3068982E3,3.4692923E2,1.9448386E2,3.03889E2,2.14319E2,1.4737129E2,9.686276E2,1.1761527E3,1.3074557E2],"tree_param":{"num_deleted":"0","num_feature":"11","num_nodes":"15","size_leaf_vector":"1"}},{"base_weights":[2.6167486E-2,5.846969E-1,-2.7899513E-1,8.342805E-1,3.7356922E-1,2.5364727E-2,-3.6875078E-1,4.128811E-2,3.0579168E-2,2.7531203E-2,9.23592E-3,-8.5599935E-3,5.0609647E-3,-1.4845072E-2,-3.39847E-2],"categories":[],"categories_nodes":[],"categories_segments":[],"categories_sizes":[],"default_left":[0,0,0,0,0,0,0,0,0,0,0,0,0,0,0],"id":28,"left_children":[1,3,5,7,9,11,13,-1,-1,-1,-1,-1,-1,-1,-1],"loss_changes":[5.885529E2,6.3977325E1,6.101297E1,5.8420715E0,2.5932549E1,9.296696E0,2.7961777E1,0E0,0E0,0E0,0E0,0E0,0E0,0E0,0E0],"parents":[2147483647,0,0,1,1,2,2,3,3,4,4,5,5,6,6],"right_children":[2,4,6,8,10,12,14,-1,-1,-1,-1,-1,-1,-1,-1],"split_conditions":[-3.372849E-1,-7.566807E-1,3.3782408E-1,-7.6136583E-1,-4.0668935E-1,3.8762778E-2,1.8878714E0,4.128811E-2,3.0579168E-2,2.7531203E-2,9.23592E-3,-8.5599935E-3,5.0609647E-3,-1.4845072E-2,-3.39847E-2],"split_indices":[2,0,0,3,1,7,0,0,0,0,0,0,0,0,0],"split_type":[0,0,0,0,0,0,0,0,0,0,0,0,0,0,0],"sum_hessian":[3.451135E3,1.2190432E3,2.2320918E3,5.5729175E2,6.6175146E2,5.0849863E2,1.7235931E3,3.8719745E2,1.700943E2,2.816104E2,3.8014102E2,1.4537297E2,3.6312567E2,1.5463895E3,1.7720363E2],"tree_param":{"num_deleted":"0","num_feature":"11","num_nodes":"15","size_leaf_vector":"1"}},{"base_weights":[2.0711608E-2,6.1452866E-1,-2.5304842E-1,8.2200706E-1,4.0193918E-1,5.6899086E-2,-3.5223967E-1,4.1732267E-2,3.171014E-2,2.1405071E-2,1.0411779E-3,-2.1231906E-2,6.1861686E-3,-1.3107188E-2,-2.8829264E-2],"categories":[],"categories_nodes":[],"categories_segments":[],"categories_sizes":[],"default_left":[0,0,0,0,0,0,0,0,0,0,0,0,0,0,0],"id":29,"left_children":[1,3,5,7,9,11,13,-1,-1,-1,-1,-1,-1,-1,-1],"loss_changes":[5.542999E2,4.7126007E1,7.177278E1,5.7496033E0,1.3540634E1,2.332525E1,3.1966705E1,0E0,0E0,0E0,0E0,0E0,0E0,0E0,0E0],"parents":[2147483647,0,0,1,1,2,2,3,3,4,4,5,5,6,6],"right_children":[2,4,6,8,10,12,14,-1,-1,-1,-1,-1,-1,-1,-1],"split_conditions":[-1.9364218E-1,-7.634462E-1,3.3782408E-1,-7.3454E-1,3.605418E-2,-5.560034E-1,1.5293008E0,4.1732267E-2,3.171014E-2,2.1405071E-2,1.0411779E-3,-2.1231906E-2,6.1861686E-3,-1.3107188E-2,-2.8829264E-2],"split_indices":[0,0,0,1,2,4,0,0,0,0,0,0,0,0,0],"split_type":[0,0,0,0,0,0,0,0,0,0,0,0,0,0,0],"sum_hessian":[3.4077903E3,1.07492E3,2.3328704E3,5.4254865E2,5.3237134E2,5.656825E2,1.7671877E3,3.1093228E2,2.316164E2,4.5220374E2,8.01676E1,7.340477E1,4.9227774E2,1.4349357E3,3.3225204E2],"tree_param":{"num_deleted":"0","num_feature":"11","num_nodes":"15","size_leaf_vector":"1"}},{"base_weights":[2.320257E-2,6.108576E-1,-2.2054385E-1,7.516339E-1,3.2285652E-1,-1.9146771E-4,-3.5671476E-1,3.8682427E-2,2.619184E-2,3.0448623E-2,1.00142425E-2,-1.9900594E-2,2.372873E-3,-1.4348271E-2,-3.853902E-2],"categories":[],"categories_nodes":[],"categories_segments":[],"categories_sizes":[],"default_left":[0,0,0,0,0,0,0,0,0,0,0,0,0,0,0],"id":30,"left_children":[1,3,5,7,9,11,13,-1,-1,-1,-1,-1,-1,-1,-1],"loss_changes":[4.8801492E2,4.0253967E1,7.226006E1,1.0933929E1,1.1595142E1,2.096077E1,3.048265E1,0E0,0E0,0E0,0E0,0E0,0E0,0E0,0E0],"parents":[2147483647,0,0,1,1,2,2,3,3,4,4,5,5,6,6],"right_children":[2,4,6,8,10,12,14,-1,-1,-1,-1,-1,-1,-1,-1],"split_conditions":[-2.5377983E-1,-2.974058E-1,5.580781E-1,-7.566807E-1,-8.25839E-1,-5.560034E-1,2.0297313E0,3.8682427E-2,2.619184E-2,3.0448623E-2,1.00142425E-2,-1.9900594E-2,2.372873E-3,-1.4348271E-2,-3.853902E-2],"split_indices":[0,1,0,0,0,4,5,0,0,0,0,0,0,0,0],"split_type":[0,0,0,0,0,0,0,0,0,0,0,0,0,0,0],"sum_hessian":[3.4050613E3,9.978385E2,2.407223E3,6.6914667E2,3.286918E2,9.1979987E2,1.487423E3,4.3234427E2,2.368024E2,7.470093E1,2.5399088E2,9.756397E1,8.222359E2,1.3700355E3,1.1738753E2],"tree_param":{"num_deleted":"0","num_feature":"11","num_nodes":"15","size_leaf_vector":"1"}},{"base_weights":[1.880881E-2,6.5621257E-1,-1.9927843E-1,8.320456E-1,4.940477E-1,1.0008918E-1,-3.2538185E-1,4.0990498E-2,3.1057755E-2,2.4563543E-2,4.472977E-4,-1.1547904E-2,6.657246E-3,-1.2112183E-2,-3.1559937E-2],"categories":[],"categories_nodes":[],"categories_segments":[],"categories_sizes":[],"default_left":[0,0,0,0,0,0,0,0,0,0,0,0,0,0,0],"id":31,"left_children":[1,3,5,7,9,11,13,-1,-1,-1,-1,-1,-1,-1,-1],"loss_changes":[4.6836362E2,2.4079926E1,9.480467E1,3.4976807E0,9.590012E0,1.2071457E1,3.8630783E1,0E0,0E0,0E0,0E0,0E0,0E0,0E0,0E0],"parents":[2147483647,0,0,1,1,2,2,3,3,4,4,5,5,6,6],"right_children":[2,4,6,8,10,12,14,-1,-1,-1,-1,-1,-1,-1,-1],"split_conditions":[-3.9209634E-1,-8.671836E-1,3.3782408E-1,-6.252564E-1,-6.529845E-1,-6.359194E-1,1.6418613E0,4.0990498E-2,3.1057755E-2,2.4563543E-2,4.472977E-4,-1.1547904E-2,6.657246E-3,-1.2112183E-2,-3.1559937E-2],"split_indices":[0,0,0,1,2,4,5,0,0,0,0,0,0,0,0],"split_type":[0,0,0,0,0,0,0,0,0,0,0,0,0,0,0],"sum_hessian":[3.3673484E3,8.579139E2,2.5094346E3,4.0962857E2,4.4828534E2,7.43821E2,1.7656136E3,2.8197028E2,1.2765829E2,4.1076364E2,3.752168E1,8.482153E1,6.5899945E2,1.5183683E3,2.4724536E2],"tree_param":{"num_deleted":"0","num_feature":"11","num_nodes":"15","size_leaf_vector":"1"}},{"base_weights":[1.8369107E-2,4.206198E-1,-2.9388902E-1,6.816926E-1,1.7827757E-1,-1.7537203E-1,-4.73124E-1,3.2402445E-2,-9.1715455E-3,-1.0898505E-2,1.0224287E-2,-2.0822363E-2,-3.0417258E-3,-2.8992027E-2,-1.633816E-2],"categories":[],"categories_nodes":[],"categories_segments":[],"categories_sizes":[],"default_left":[0,0,0,0,0,0,0,0,0,0,0,0,0,0,0],"id":32,"left_children":[1,3,5,7,9,11,13,-1,-1,-1,-1,-1,-1,-1,-1],"loss_changes":[4.2246005E2,9.287494E1,4.014012E1,1.7743652E1,1.4614328E1,3.4821335E1,1.3829132E1,0E0,0E0,0E0,0E0,0E0,0E0,0E0,0E0],"parents":[2147483647,0,0,1,1,2,2,3,3,4,4,5,5,6,6],"right_children":[2,4,6,8,10,12,14,-1,-1,-1,-1,-1,-1,-1,-1],"split_conditions":[2.5588655E-1,-5.492059E-1,1.0737582E0,4.3479392E-1,-7.957514E-1,8.332468E-2,4.5505655E-1,3.2402445E-2,-9.1715455E-3,-1.0898505E-2,1.0224287E-2,-2.0822363E-2,-3.0417258E-3,-2.8992027E-2,-1.633816E-2],"split_indices":[0,0,0,1,4,4,7,0,0,0,0,0,0,0,0],"split_type":[0,0,0,0,0,0,0,0,0,0,0,0,0,0,0],"sum_hessian":[3.3613892E3,1.468859E3,1.8925302E3,7.0623083E2,7.626282E2,1.1404197E3,7.5211053E2,6.8455743E2,2.1673431E1,7.493012E1,6.8769806E2,3.1742755E2,8.2299207E2,3.1060254E2,4.41508E2],"tree_param":{"num_deleted":"0","num_feature":"11","num_nodes":"15","size_leaf_vector":"1"}},{"base_weights":[-8.5325446E-4,5.583233E-1,-2.2153732E-1,7.8423864E-1,3.2937473E-1,2.3175323E-2,-3.1528664E-1,3.884532E-2,2.8257923E-2,2.1592839E-2,5.6499704E-3,-1.5245998E-2,3.4031917E-3,-9.345436E-3,-2.1613533E-2],"categories":[],"categories_nodes":[],"categories_segments":[],"categories_sizes":[],"default_left":[0,0,0,0,0,0,0,0,0,0,0,0,0,0,0],"id":33,"left_children":[1,3,5,7,9,11,13,-1,-1,-1,-1,-1,-1,-1,-1],"loss_changes":[4.1069202E2,4.845346E1,5.4753304E1,4.6950073E0,1.3810688E1,1.2173441E1,3.0082962E1,0E0,0E0,0E0,0E0,0E0,0E0,0E0,0E0],"parents":[2147483647,0,0,1,1,2,2,3,3,4,4,5,5,6,6],"right_children":[2,4,6,8,10,12,14,-1,-1,-1,-1,-1,-1,-1,-1],"split_conditions":[-2.5377983E-1,-7.792323E-1,3.6563772E-1,-7.6136583E-1,-2.2090733E-1,-5.560034E-1,8.3467233E-1,3.884532E-2,2.8257923E-2,2.1592839E-2,5.6499704E-3,-1.5245998E-2,3.4031917E-3,-9.345436E-3,-2.1613533E-2],"split_indices":[0,0,0,3,1,4,5,0,0,0,0,0,0,0,0],"split_type":[0,0,0,0,0,0,0,0,0,0,0,0,0,0,0],"sum_hessian":[3.3260972E3,9.407822E2,2.385315E3,4.7230713E2,4.6847513E2,6.609081E2,1.724407E3,3.3332224E2,1.389849E2,2.7498328E2,1.9349182E2,8.2425705E1,5.7848236E2,1.01654346E3,7.0786346E2],"tree_param":{"num_deleted":"0","num_feature":"11","num_nodes":"15","size_leaf_vector":"1"}},{"base_weights":[6.838902E-3,5.8681E-1,-1.8642914E-1,8.138089E-1,3.8569072E-1,-3.3634084E-3,-3.5527486E-1,4.2685527E-2,3.3484396E-2,2.2503853E-2,-3.4814284E-3,1.3028441E-2,-2.4220964E-3,-1.4613299E-2,-4.1356523E-2],"categories":[],"categories_nodes":[],"categories_segments":[],"categories_sizes":[],"default_left":[0,0,0,0,0,0,0,0,0,0,0,0,0,0,0],"id":34,"left_children":[1,3,5,7,9,11,13,-1,-1,-1,-1,-1,-1,-1,-1],"loss_changes":[3.7098505E2,3.7453094E1,7.6732185E1,3.088623E0,2.1881142E1,1.7125969E1,2.4689484E1,0E0,0E0,0E0,0E0,0E0,0E0,0E0,0E0],"parents":[2147483647,0,0,1,1,2,2,3,3,4,4,5,5,6,6],"right_children":[2,4,6,8,10,12,14,-1,-1,-1,-1,-1,-1,-1,-1],"split_conditions":[-3.6728957E-1,-8.574112E-1,6.861461E-1,-1.0623906E0,1.3972835E-1,-4.0668935E-1,2.2614057E0,4.2685527E-2,3.3484396E-2,2.2503853E-2,-3.4814284E-3,1.3028441E-2,-2.4220964E-3,-1.4613299E-2,-4.1356523E-2],"split_indices":[0,0,1,1,1,1,6,0,0,0,0,0,0,0,0],"split_type":[0,0,0,0,0,0,0,0,0,0,0,0,0,0,0],"sum_hessian":[3.3077344E3,8.2624615E2,2.4814883E3,3.8671872E2,4.3952744E2,1.1910975E3,1.2903907E3,1.4964513E2,2.370736E2,3.5660468E2,8.292275E1,1.7419041E2,1.01690717E3,1.2145309E3,7.585986E1],"tree_param":{"num_deleted":"0","num_feature":"11","num_nodes":"15","size_leaf_vector":"1"}},{"base_weights":[1.2763065E-2,-2.1098952E-1,4.743599E-1,-1.10045746E-1,-4.2301998E-1,7.8640676E-1,3.050413E-1,-1.3316235E-2,-1.993994E-3,-2.7411798E-2,-1.39995795E-2,3.9600194E-2,2.7946047E-2,2.3086565E-2,7.0141586E-3],"categories":[],"categories_nodes":[],"categories_segments":[],"categories_sizes":[],"default_left":[0,0,0,0,0,0,0,0,0,0,0,0,0,0,0],"id":35,"left_children":[1,3,5,7,9,11,13,-1,-1,-1,-1,-1,-1,-1,-1],"loss_changes":[3.4208813E2,4.7700127E1,5.689276E1,1.8225807E1,1.4665512E1,4.836792E0,2.1273232E1,0E0,0E0,0E0,0E0,0E0,0E0,0E0,0E0],"parents":[2147483647,0,0,1,1,2,2,3,3,4,4,5,5,6,6],"right_children":[2,4,6,8,10,12,14,-1,-1,-1,-1,-1,-1,-1,-1],"split_conditions":[1E0,1.0895444E0,-8.483906E-1,8.900513E-2,4.5505655E-1,-9.994864E-1,-4.0668935E-1,-1.3316235E-2,-1.993994E-3,-2.7411798E-2,-1.39995795E-2,3.9600194E-2,2.7946047E-2,2.3086565E-2,7.0141586E-3],"split_indices":[9,0,0,7,7,0,1,0,0,0,0,0,0,0,0],"split_type":[0,0,0,0,0,0,0,0,0,0,0,0,0,0,0],"sum_hessian":[3.3101592E3,2.2298254E3,1.0803337E3,1.5116675E3,7.1815796E2,3.7872162E2,7.0161206E2,4.034991E2,1.1081685E3,2.826172E2,4.3554074E2,2.5560016E2,1.2312146E2,3.006047E2,4.010074E2],"tree_param":{"num_deleted":"0","num_feature":"11","num_nodes":"15","size_leaf_vector":"1"}},{"base_weights":[1.5624197E-2,5.573504E-1,-1.7084801E-1,7.73768E-1,3.8817993E-1,-6.7844525E-2,-4.0669498E-1,3.7021745E-2,1.5210998E-2,2.0376436E-2,-1.7945737E-3,-1.0142337E-2,3.2686004E-3,-2.5864055E-2,-1.38279945E-2],"categories":[],"categories_nodes":[],"categories_segments":[],"categories_sizes":[],"default_left":[0,0,0,0,0,0,0,0,0,0,0,0,0,0,0],"id":36,"left_children":[1,3,5,7,9,11,13,-1,-1,-1,-1,-1,-1,-1,-1],"loss_changes":[3.2897058E2,3.0230621E1,5.882788E1,5.728592E0,1.1720253E1,3.634051E1,1.204557E1,0E0,0E0,0E0,0E0,0E0,0E0,0E0,0E0],"parents":[2147483647,0,0,1,1,2,2,3,3,4,4,5,5,6,6],"right_children":[2,4,6,8,10,12,14,-1,-1,-1,-1,-1,-1,-1,-1],"split_conditions":[-3.1015885E-1,-8.483906E-1,1.0737582E0,-7.8838736E-2,3.5829544E-1,3.230727E-1,4.5505655E-1,3.7021745E-2,1.5210998E-2,2.0376436E-2,-1.7945737E-3,-1.0142337E-2,3.2686004E-3,-2.5864055E-2,-1.38279945E-2],"split_indices":[0,0,0,1,1,4,7,0,0,0,0,0,0,0,0],"split_type":[0,0,0,0,0,0,0,0,0,0,0,0,0,0,0],"sum_hessian":[3.254647E3,8.3291907E2,2.4217278E3,3.6386166E2,4.690574E2,1.6864691E3,7.352587E2,3.346656E2,2.919609E1,4.1278043E2,5.6276978E1,8.001782E2,8.8629095E2,2.8751678E2,4.4774194E2],"tree_param":{"num_deleted":"0","num_feature":"11","num_nodes":"15","size_leaf_vector":"1"}},{"base_weights":[1.0133692E-2,5.2457315E-1,-1.5282692E-1,7.3824066E-1,3.671787E-1,8.382785E-3,-3.01211E-1,3.6785103E-2,2.515943E-2,1.9491572E-2,-1.002639E-2,4.5399363E-3,-6.8045515E-3,-1.1986866E-2,-4.288528E-2],"categories":[],"categories_nodes":[],"categories_segments":[],"categories_sizes":[],"default_left":[0,0,0,0,0,0,0,0,0,0,0,0,0,0,0],"id":37,"left_children":[1,3,5,7,9,11,13,-1,-1,-1,-1,-1,-1,-1,-1],"loss_changes":[2.7081015E2,2.5863205E1,5.868712E1,3.7150269E0,1.58810425E1,1.689187E1,3.1227547E1,0E0,0E0,0E0,0E0,0E0,0E0,0E0,0E0],"parents":[2147483647,0,0,1,1,2,2,3,3,4,4,5,5,6,6],"right_children":[2,4,6,8,10,12,14,-1,-1,-1,-1,-1,-1,-1,-1],"split_conditions":[-3.6728957E-1,-7.3454E-1,6.861461E-1,-7.6945996E-1,4.3479392E-1,3.8390452E-1,2.2614057E0,3.6785103E-2,2.515943E-2,1.9491572E-2,-1.002639E-2,4.5399363E-3,-6.8045515E-3,-1.1986866E-2,-4.288528E-2],"split_indices":[0,1,1,0,1,5,6,0,0,0,0,0,0,0,0],"split_type":[0,0,0,0,0,0,0,0,0,0,0,0,0,0,0],"sum_hessian":[3.228382E3,7.761108E2,2.4522712E3,3.2763983E2,4.4847098E2,1.1757924E3,1.2764789E3,2.381663E2,8.947352E1,4.0721136E2,4.125959E1,7.45144E2,4.3064838E2,1.2050295E3,7.144936E1],"tree_param":{"num_deleted":"0","num_feature":"11","num_nodes":"15","size_leaf_vector":"1"}},{"base_weights":[1.1499938E-2,5.586698E-1,-1.480604E-1,8.043935E-1,4.194876E-1,-6.519617E-2,-4.352978E-1,4.1245807E-2,3.284998E-2,2.1126708E-2,-1.1670087E-2,-3.3384704E-4,-1.321265E-2,-2.6448743E-2,-1.1671355E-2],"categories":[],"categories_nodes":[],"categories_segments":[],"categories_sizes":[],"default_left":[0,0,0,0,0,0,0,0,0,0,0,0,0,0,0],"id":38,"left_children":[1,3,5,7,9,11,13,-1,-1,-1,-1,-1,-1,-1,-1],"loss_changes":[2.8282965E2,2.4676239E1,5.9670242E1,1.5635376E0,1.3850754E1,2.5282726E1,1.438604E1,0E0,0E0,0E0,0E0,0E0,0E0,0E0,0E0],"parents":[2147483647,0,0,1,1,2,2,3,3,4,4,5,5,6,6],"right_children":[2,4,6,8,10,12,14,-1,-1,-1,-1,-1,-1,-1,-1],"split_conditions":[-4.048756E-1,-9.611486E-1,1.2308679E0,-1.0623906E0,3.605418E-2,1.1491616E0,7.6368815E-1,4.1245807E-2,3.284998E-2,2.1126708E-2,-1.1670087E-2,-3.3384704E-4,-1.321265E-2,-2.6448743E-2,-1.1671355E-2],"split_indices":[0,0,0,1,2,5,7,0,0,0,0,0,0,0,0],"split_type":[0,0,0,0,0,0,0,0,0,0,0,0,0,0,0],"sum_hessian":[3.2375515E3,7.303858E2,2.5071655E3,2.6237973E2,4.6800607E2,1.9467738E3,5.6039185E2,1.1636648E2,1.4601324E2,4.4005484E2,2.7951223E1,1.5482284E3,3.9854535E2,3.0963388E2,2.5075793E2],"tree_param":{"num_deleted":"0","num_feature":"11","num_nodes":"15","size_leaf_vector":"1"}},{"base_weights":[1.1220007E-2,4.6717218E-1,-1.7579685E-1,6.918379E-1,3.045029E-1,-2.2215523E-2,-2.9734325E-1,3.5730682E-2,2.2886055E-2,1.7221252E-3,1.6614757E-2,2.1381231E-3,-1.0985737E-2,-1.8907133E-2,-7.1841367E-3],"categories":[],"categories_nodes":[],"categories_segments":[],"categories_sizes":[],"default_left":[0,0,0,0,0,0,0,0,0,0,0,0,0,0,0],"id":39,"left_children":[1,3,5,7,9,11,13,-1,-1,-1,-1,-1,-1,-1,-1],"loss_changes":[2.741823E2,3.3969116E1,4.255887E1,6.3982697E0,8.625534E0,1.5225549E1,2.075473E1,0E0,0E0,0E0,0E0,0E0,0E0,0E0,0E0],"parents":[2147483647,0,0,1,1,2,2,3,3,4,4,5,5,6,6],"right_children":[2,4,6,8,10,12,14,-1,-1,-1,-1,-1,-1,-1,-1],"split_conditions":[-1.312494E-1,-7.792323E-1,6.861461E-1,-7.951316E-1,-1.0739313E0,1.2016889E0,6.632034E-1,3.5730682E-2,2.2886055E-2,1.7221252E-3,1.6614757E-2,2.1381231E-3,-1.0985737E-2,-1.8907133E-2,-7.1841367E-3],"split_indices":[0,0,1,3,8,2,7,0,0,0,0,0,0,0,0],"split_type":[0,0,0,0,0,0,0,0,0,0,0,0,0,0,0],"sum_hessian":[3.213469E3,9.3424835E2,2.2792207E3,3.909905E2,5.432578E2,1.0074405E3,1.2717802E3,2.6249304E2,1.2849748E2,9.937001E1,4.4388782E2,7.6606665E2,2.4137384E2,6.9192993E2,5.798503E2],"tree_param":{"num_deleted":"0","num_feature":"11","num_nodes":"15","size_leaf_vector":"1"}},{"base_weights":[1.5847139E-2,5.2963114E-1,-1.3631336E-1,7.609445E-1,3.8225827E-1,-5.917674E-2,-4.2711455E-1,4.2069767E-2,2.95654E-2,7.5596524E-3,2.2276053E-2,2.7380474E-3,-8.7173395E-3,-1.7493043E-2,-4.5851182E-2],"categories":[],"categories_nodes":[],"categories_segments":[],"categories_sizes":[],"default_left":[0,0,0,0,0,0,0,0,0,0,0,0,0,0,0],"id":40,"left_children":[1,3,5,7,9,11,13,-1,-1,-1,-1,-1,-1,-1,-1],"loss_changes":[2.5090924E2,2.4707535E1,5.5520115E1,4.5779724E0,1.0229774E1,3.076903E1,1.2760597E1,0E0,0E0,0E0,0E0,0E0,0E0,0E0,0E0],"parents":[2147483647,0,0,1,1,2,2,3,3,4,4,5,5,6,6],"right_children":[2,4,6,8,10,12,14,-1,-1,-1,-1,-1,-1,-1,-1],"split_conditions":[-3.6728957E-1,-9.077765E-1,1.2714607E0,-1.0623906E0,-7.158354E-1,4.572853E-1,2.2614057E0,4.2069767E-2,2.95654E-2,7.5596524E-3,2.2276053E-2,2.7380474E-3,-8.7173395E-3,-1.7493043E-2,-4.5851182E-2],"split_indices":[0,0,0,1,4,5,6,0,0,0,0,0,0,0,0],"split_type":[0,0,0,0,0,0,0,0,0,0,0,0,0,0,0],"sum_hessian":[3.2075527E3,7.323213E2,2.4752314E3,2.833764E2,4.489449E2,1.9572606E3,5.179707E2,1.14154076E2,1.6922232E2,1.4813042E2,3.0081445E2,1.02822E3,9.2904065E2,4.8294382E2,3.5026917E1],"tree_param":{"num_deleted":"0","num_feature":"11","num_nodes":"15","size_leaf_vector":"1"}},{"base_weights":[1.617824E-2,4.879831E-1,-1.1682214E-1,7.46672E-1,3.6002332E-1,8.8556506E-2,-2.0309223E-1,3.9803773E-2,2.9267421E-2,1.8195314E-2,-1.214029E-2,-1.2007162E-2,6.2119137E-3,-6.821794E-3,-2.0896114E-2],"categories":[],"categories_nodes":[],"categories_segments":[],"categories_sizes":[],"default_left":[0,0,0,0,0,0,0,0,0,0,0,0,0,0,0],"id":41,"left_children":[1,3,5,7,9,11,13,-1,-1,-1,-1,-1,-1,-1,-1],"loss_changes":[2.0090001E2,2.3036179E1,4.427113E1,2.5093231E0,1.1537376E1,1.2396423E1,2.3964653E1,0E0,0E0,0E0,0E0,0E0,0E0,0E0,0E0],"parents":[2147483647,0,0,1,1,2,2,3,3,4,4,5,5,6,6],"right_children":[2,4,6,8,10,12,14,-1,-1,-1,-1,-1,-1,-1,-1],"split_conditions":[-3.9209634E-1,-9.679141E-1,3.3782408E-1,-1.0623906E0,2.5722507E-1,-6.359194E-1,1.4868697E0,3.9803773E-2,2.9267421E-2,1.8195314E-2,-1.214029E-2,-1.2007162E-2,6.2119137E-3,-6.821794E-3,-2.0896114E-2],"split_indices":[0,0,0,1,2,4,6,0,0,0,0,0,0,0,0],"split_type":[0,0,0,0,0,0,0,0,0,0,0,0,0,0,0],"sum_hessian":[3.1996738E3,7.0304095E2,2.4966328E3,2.3106831E2,4.7197263E2,7.384995E2,1.7581333E3,1.02251724E2,1.2881659E2,4.448965E2,2.7076094E1,8.741198E1,6.510875E2,1.4536176E3,3.0451566E2],"tree_param":{"num_deleted":"0","num_feature":"11","num_nodes":"15","size_leaf_vector":"1"}},{"base_weights":[1.3531707E-2,3.8600272E-1,-1.579924E-1,5.855217E-1,1.6458991E-1,-1.12280086E-1,-4.935783E-1,3.7464507E-2,2.0945797E-2,1.1385752E-2,-9.223208E-3,-3.8430183E-3,-2.7724374E-2,-3.1485304E-2,-1.0462395E-2],"categories":[],"categories_nodes":[],"categories_segments":[],"categories_sizes":[],"default_left":[0,0,0,0,0,0,0,0,0,0,0,0,0,0,0],"id":42,"left_children":[1,3,5,7,9,11,13,-1,-1,-1,-1,-1,-1,-1,-1],"loss_changes":[2.0356584E2,4.4284912E1,3.341281E1,1.53554535E1,1.490938E1,2.666763E1,1.3394207E1,0E0,0E0,0E0,0E0,0E0,0E0,0E0,0E0],"parents":[2147483647,0,0,1,1,2,2,3,3,4,4,5,5,6,6],"right_children":[2,4,6,8,10,12,14,-1,-1,-1,-1,-1,-1,-1,-1],"split_conditions":[-1.6700144E-1,-4.0668935E-1,1.6418613E0,-9.837002E-1,9.809497E-1,1.9825882E0,7.278007E-1,3.7464507E-2,2.0945797E-2,1.1385752E-2,-9.223208E-3,-3.8430183E-3,-2.7724374E-2,-3.1485304E-2,-1.0462395E-2],"split_indices":[2,1,5,0,3,0,7,0,0,0,0,0,0,0,0],"split_type":[0,0,0,0,0,0,0,0,0,0,0,0,0,0,0],"sum_hessian":[3.18435E3,1.00364557E3,2.1807046E3,5.27059E2,4.7658655E2,1.9204432E3,2.6026123E2,1.8250208E2,3.4455692E2,3.8727872E2,8.930782E1,1.8184624E3,1.0198083E2,1.4846034E2,1.1180089E2],"tree_param":{"num_deleted":"0","num_feature":"11","num_nodes":"15","size_leaf_vector":"1"}},{"base_weights":[-5.7821195E-3,4.881484E-1,-1.2030682E-1,6.982202E-1,2.9346755E-1,6.754272E-2,-2.1456817E-1,3.8789693E-2,2.591607E-2,1.8529134E-2,-2.4935682E-3,2.2528166E-2,1.2165783E-3,-1.6492907E-2,-4.721326E-3],"categories":[],"categories_nodes":[],"categories_segments":[],"categories_sizes":[],"default_left":[0,0,0,0,0,0,0,0,0,0,0,0,0,0,0],"id":43,"left_children":[1,3,5,7,9,11,13,-1,-1,-1,-1,-1,-1,-1,-1],"loss_changes":[1.7821655E2,2.4047012E1,4.529978E1,5.143463E0,1.2140165E1,1.4885568E1,2.7742348E1,0E0,0E0,0E0,0E0,0E0,0E0,0E0,0E0],"parents":[2147483647,0,0,1,1,2,2,3,3,4,4,5,5,6,6],"right_children":[2,4,6,8,10,12,14,-1,-1,-1,-1,-1,-1,-1,-1],"split_conditions":[-4.0668935E-1,-7.566807E-1,3.498516E-1,-1.0623906E0,-2.010313E-2,-8.25839E-1,4.5505655E-1,3.8789693E-2,2.591607E-2,1.8529134E-2,-2.4935682E-3,2.2528166E-2,1.2165783E-3,-1.6492907E-2,-4.721326E-3],"split_indices":[1,0,0,1,2,0,7,0,0,0,0,0,0,0,0],"split_type":[0,0,0,0,0,0,0,0,0,0,0,0,0,0,0],"sum_hessian":[3.1484875E3,5.920008E2,2.5564868E3,2.8350073E2,3.0850006E2,8.542904E2,1.7021964E3,1.2856169E2,1.5493904E2,2.3303506E2,7.5465E1,7.3845116E1,7.804453E2,7.325246E2,9.6967175E2],"tree_param":{"num_deleted":"0","num_feature":"11","num_nodes":"15","size_leaf_vector":"1"}},{"base_weights":[-8.800803E-3,5.094553E-1,-1.2559898E-1,6.915869E-1,3.4505138E-1,-3.5878673E-2,-3.616879E-1,3.885713E-2,2.6867045E-2,-1.8797427E-3,1.9503484E-2,-3.8231756E-3,1.016074E-2,-1.4769208E-2,-4.0015317E-2],"categories":[],"categories_nodes":[],"categories_segments":[],"categories_sizes":[],"default_left":[0,0,0,0,0,0,0,0,0,0,0,0,0,0,0],"id":44,"left_children":[1,3,5,7,9,11,13,-1,-1,-1,-1,-1,-1,-1,-1],"loss_changes":[1.9125621E2,1.716182E1,5.4603638E1,4.0165405E0,9.7824745E0,2.3156948E1,1.3652046E1,0E0,0E0,0E0,0E0,0E0,0E0,0E0,0E0],"parents":[2147483647,0,0,1,1,2,2,3,3,4,4,5,5,6,6],"right_children":[2,4,6,8,10,12,14,-1,-1,-1,-1,-1,-1,-1,-1],"split_conditions":[-5.056061E-1,-8.7996286E-1,1.0895444E0,-1.0623906E0,-1.22636E0,1.0423168E0,2.4448962E0,3.885713E-2,2.6867045E-2,-1.8797427E-3,1.9503484E-2,-3.8231756E-3,1.016074E-2,-1.4769208E-2,-4.0015317E-2],"split_indices":[0,0,0,1,8,4,0,0,0,0,0,0,0,0,0],"split_type":[0,0,0,0,0,0,0,0,0,0,0,0,0,0,0],"sum_hessian":[3.1575642E3,5.801159E2,2.5774482E3,2.7369818E2,3.0641772E2,1.8685135E3,7.089348E2,1.04438255E2,1.6925993E2,5.387939E1,2.5253835E2,1.5770579E3,2.9145566E2,6.615955E2,4.7339287E1],"tree_param":{"num_deleted":"0","num_feature":"11","num_nodes":"15","size_leaf_vector":"1"}},{"base_weights":[2.5995076E-2,4.310053E-1,-1.0819633E-1,6.639229E-1,2.8897035E-1,9.703513E-3,-2.3228355E-1,3.8575877E-2,2.5362989E-2,1.4275982E-2,-2.324621E-2,-5.9650996E-4,2.421461E-2,-1.3157421E-2,3.7923653E-3],"categories":[],"categories_nodes":[],"categories_segments":[],"categories_sizes":[],"default_left":[0,0,0,0,0,0,0,0,0,0,0,0,0,0,0],"id":45,"left_children":[1,3,5,7,9,11,13,-1,-1,-1,-1,-1,-1,-1,-1],"loss_changes":[1.6960974E2,2.5501694E1,3.4298286E1,5.2869415E0,9.356937E0,1.427491E1,2.0187168E1,0E0,0E0,0E0,0E0,0E0,0E0,0E0,0E0],"parents":[2147483647,0,0,1,1,2,2,3,3,4,4,5,5,6,6],"right_children":[2,4,6,8,10,12,14,-1,-1,-1,-1,-1,-1,-1,-1],"split_conditions":[-2.4100058E-1,-8.483906E-1,5.4114914E-1,-1.0623906E0,8.06358E-1,2.1345866E0,1.4455487E0,3.8575877E-2,2.5362989E-2,1.4275982E-2,-2.324621E-2,-5.9650996E-4,2.421461E-2,-1.3157421E-2,3.7923653E-3],"split_indices":[0,0,5,1,1,7,7,0,0,0,0,0,0,0,0],"split_type":[0,0,0,0,0,0,0,0,0,0,0,0,0,0,0],"sum_hessian":[3.1189001E3,7.75652E2,2.3432483E3,2.924311E2,4.8322086E2,1.2020541E3,1.1411942E3,1.0681769E2,1.8561342E2,4.6982416E2,1.3396702E1,1.15263E3,4.9423992E1,9.692452E2,1.71949E2],"tree_param":{"num_deleted":"0","num_feature":"11","num_nodes":"15","size_leaf_vector":"1"}},{"base_weights":[7.3514963E-3,2.8357223E-1,-1.7725939E-1,5.491917E-1,1.1836724E-1,-1.1369487E-1,-3.539245E-1,3.5882384E-2,2.0543694E-2,1.5578382E-2,3.1319938E-3,4.5673642E-4,-8.882878E-3,-1.4124204E-2,-4.0994104E-2],"categories":[],"categories_nodes":[],"categories_segments":[],"categories_sizes":[],"default_left":[0,0,0,0,0,0,0,0,0,0,0,0,0,0,0],"id":46,"left_children":[1,3,5,7,9,11,13,-1,-1,-1,-1,-1,-1,-1,-1],"loss_changes":[1.588135E2,5.4683014E1,2.092303E1,1.0874374E1,8.521905E0,1.375791E1,1.1668186E1,0E0,0E0,0E0,0E0,0E0,0E0,0E0,0E0],"parents":[2147483647,0,0,1,1,2,2,3,3,4,4,5,5,6,6],"right_children":[2,4,6,8,10,12,14,-1,-1,-1,-1,-1,-1,-1,-1],"split_conditions":[2.4901189E-1,-5.6198514E-1,1.3418473E0,-1.0806721E0,-6.908266E-1,6.6350096E-1,2.3701127E0,3.5882384E-2,2.0543694E-2,1.5578382E-2,3.1319938E-3,4.5673642E-4,-8.882878E-3,-1.4124204E-2,-4.0994104E-2],"split_indices":[1,0,1,0,1,2,6,0,0,0,0,0,0,0,0],"split_type":[0,0,0,0,0,0,0,0,0,0,0,0,0,0,0],"sum_hessian":[3.1124104E3,1.2466287E3,1.8657819E3,4.7714395E2,7.694847E2,1.3733065E3,4.924753E2,1.3867874E2,3.384652E2,1.3932082E2,6.301639E2,5.434203E2,8.298862E2,4.5671097E2,3.5764347E1],"tree_param":{"num_deleted":"0","num_feature":"11","num_nodes":"15","size_leaf_vector":"1"}},{"base_weights":[2.5695525E-2,3.992613E-1,-1.0466059E-1,6.8877333E-1,2.801203E-1,-7.037519E-2,-5.6778353E-1,3.4565844E-2,1.6777439E-2,4.3606368E-4,1.4764178E-2,-1.3440447E-2,-7.773763E-4,-2.3372535E-2,-4.577687E-2],"categories":[],"categories_nodes":[],"categories_segments":[],"categories_sizes":[],"default_left":[0,0,0,0,0,0,0,0,0,0,0,0,0,0,0],"id":47,"left_children":[1,3,5,7,9,11,13,-1,-1,-1,-1,-1,-1,-1,-1],"loss_changes":[1.5183096E2,2.7626617E1,3.6662964E1,4.8812256E0,6.7171516E0,2.57349E1,3.3463326E0,0E0,0E0,0E0,0E0,0E0,0E0,0E0,0E0],"parents":[2147483647,0,0,1,1,2,2,3,3,4,4,5,5,6,6],"right_children":[2,4,6,8,10,12,14,-1,-1,-1,-1,-1,-1,-1,-1],"split_conditions":[-1.7785606E-1,-9.077765E-1,1.8878714E0,-7.6136583E-1,-1.22636E0,-1.3244854E-1,2.9891417E0,3.4565844E-2,1.6777439E-2,4.3606368E-4,1.4764178E-2,-1.3440447E-2,-7.773763E-4,-2.3372535E-2,-4.577687E-2],"split_indices":[0,0,0,3,8,4,0,0,0,0,0,0,0,0,0],"split_type":[0,0,0,0,0,0,0,0,0,0,0,0,0,0,0],"sum_hessian":[3.1160393E3,8.055333E2,2.3105059E3,2.334558E2,5.720776E2,2.1523198E3,1.5818622E2,1.9129501E2,4.2160778E1,7.9154526E1,4.9292303E2,4.1297873E2,1.739341E3,1.4215689E2,1.6029331E1],"tree_param":{"num_deleted":"0","num_feature":"11","num_nodes":"15","size_leaf_vector":"1"}},{"base_weights":[7.1300287E-3,-1.2932652E-1,3.367202E-1,-6.751049E-2,-3.775667E-1,5.279065E-1,1.3174964E-1,-6.081161E-3,5.1922E-3,-2.308582E-2,-1.0318457E-2,3.5040323E-2,2.0865874E-2,9.040786E-3,-1.2473565E-2],"categories":[],"categories_nodes":[],"categories_segments":[],"categories_sizes":[],"default_left":[0,0,0,0,0,0,0,0,0,0,0,0,0,0,0],"id":48,"left_children":[1,3,5,7,9,11,13,-1,-1,-1,-1,-1,-1,-1,-1],"loss_changes":[1.3803244E2,3.32817E1,3.5145042E1,2.0730911E1,8.287071E0,7.532547E0,1.1739113E1,0E0,0E0,0E0,0E0,0E0,0E0,0E0,0E0],"parents":[2147483647,0,0,1,1,2,2,3,3,4,4,5,5,6,6],"right_children":[2,4,6,8,10,12,14,-1,-1,-1,-1,-1,-1,-1,-1],"split_conditions":[1E0,1.3346052E0,-4.0668935E-1,8.0256873E-1,1.3619808E0,-1.0787643E0,1.799628E-1,-6.081161E-3,5.1922E-3,-2.308582E-2,-1.0318457E-2,3.5040323E-2,2.0865874E-2,9.040786E-3,-1.2473565E-2],"split_indices":[9,0,1,4,4,3,0,0,0,0,0,0,0,0,0],"split_type":[0,0,0,0,0,0,0,0,0,0,0,0,0,0,0],"sum_hessian":[3.067142E3,2.1695251E3,8.976168E2,1.7380045E3,4.3152078E2,4.6360953E2,4.340073E2,1.2757397E3,4.6226477E2,2.3246304E2,1.9905775E2,1.0340331E2,3.602062E2,3.7337976E2,6.062753E1],"tree_param":{"num_deleted":"0","num_feature":"11","num_nodes":"15","size_leaf_vector":"1"}},{"base_weights":[9.824402E-3,2.6273435E-1,-1.5233444E-1,6.080904E-1,1.3906877E-1,-2.114862E-1,5.1010493E-2,3.5338778E-2,2.2412797E-2,9.090757E-3,-1.0527928E-2,-6.2019597E-3,-1.847762E-2,1.8846452E-2,-1.4642843E-3],"categories":[],"categories_nodes":[],"categories_segments":[],"categories_sizes":[],"default_left":[0,0,0,0,0,0,0,0,0,0,0,0,0,0,0],"id":49,"left_children":[1,3,5,7,9,11,13,-1,-1,-1,-1,-1,-1,-1,-1],"loss_changes":[1.24958664E2,5.075374E1,2.2342182E1,5.7176437E0,1.9549374E1,2.0971466E1,1.2617589E1,0E0,0E0,0E0,0E0,0E0,0E0,0E0,0E0],"parents":[2147483647,0,0,1,1,2,2,3,3,4,4,5,5,6,6],"right_children":[2,4,6,8,10,12,14,-1,-1,-1,-1,-1,-1,-1,-1],"split_conditions":[2.4901189E-1,-7.566807E-1,1.1440945E0,-9.5310706E-1,1.2431893E0,1.1491616E0,5.039543E-1,3.5338778E-2,2.2412797E-2,9.090757E-3,-1.0527928E-2,-6.2019597E-3,-1.847762E-2,1.8846452E-2,-1.4642843E-3],"split_indices":[1,0,7,1,2,5,0,0,0,0,0,0,0,0,0],"split_type":[0,0,0,0,0,0,0,0,0,0,0,0,0,0,0],"sum_hessian":[3.0449353E3,1.1893512E3,1.8555841E3,3.1256E2,8.767912E2,1.4374104E3,4.1817374E2,1.26879654E2,1.8568034E2,7.545965E2,1.221947E2,1.0345193E3,4.0289105E2,7.7344444E1,3.408293E2],"tree_param":{"num_deleted":"0","num_feature":"11","num_nodes":"15","size_leaf_vector":"1"}},{"base_weights":[1.3274056E-2,4.3349427E-1,-8.986132E-2,5.0411206E-1,-2.194238E-2,5.0847277E-2,-1.8011203E-1,3.3952348E-2,1.9083925E-2,3.6455825E-2,-5.423427E-3,1.2303924E-2,-4.6972846E-4,-1.2273447E-2,-3.0916966E-3],"categories":[],"categories_nodes":[],"categories_segments":[],"categories_sizes":[],"default_left":[0,0,0,0,0,0,0,0,0,0,0,0,0,0,0],"id":50,"left_children":[1,3,5,7,9,11,13,-1,-1,-1,-1,-1,-1,-1,-1],"loss_changes":[1.3256494E2,1.9397285E1,3.1199085E1,1.0450394E1,6.603952E0,1.2846762E1,1.4912872E1,0E0,0E0,0E0,0E0,0E0,0E0,0E0,0E0],"parents":[2147483647,0,0,1,1,2,2,3,3,4,4,5,5,6,6],"right_children":[2,4,6,8,10,12,14,-1,-1,-1,-1,-1,-1,-1,-1],"split_conditions":[-3.9209634E-1,1.3972835E-1,5.197404E-1,-1.0623906E0,-1.105777E0,-8.061408E-1,8.8248473E-1,3.3952348E-2,1.9083925E-2,3.6455825E-2,-5.423427E-3,1.2303924E-2,-4.6972846E-4,-1.2273447E-2,-3.0916966E-3],"split_indices":[0,1,0,1,3,2,4,0,0,0,0,0,0,0,0],"split_type":[0,0,0,0,0,0,0,0,0,0,0,0,0,0,0],"sum_hessian":[3.056852E3,6.017691E2,2.455083E3,5.208948E2,8.0874306E1,9.595301E2,1.4955529E3,1.3552078E2,3.8537402E2,7.7743173E0,7.309998E1,2.0888078E2,7.506493E2,8.347154E2,6.6083746E2],"tree_param":{"num_deleted":"0","num_feature":"11","num_nodes":"15","size_leaf_vector":"1"}},{"base_weights":[1.2044604E-2,4.3774006E-1,-7.78776E-2,6.8191993E-1,3.0686352E-1,1.022636E-1,-1.6138202E-1,4.0287465E-2,2.764863E-2,1.4627939E-4,1.7342156E-2,3.6381022E-3,2.8334834E-2,-5.9549874E-3,-2.3157123E-2],"categories":[],"categories_nodes":[],"categories_segments":[],"categories_sizes":[],"default_left":[0,0,0,0,0,0,0,0,0,0,0,0,0,0,0],"id":51,"left_children":[1,3,5,7,9,11,13,-1,-1,-1,-1,-1,-1,-1,-1],"loss_changes":[1.1677006E2,1.6791687E1,3.790252E1,2.291359E0,7.7248116E0,9.288229E0,1.8344353E1,0E0,0E0,0E0,0E0,0E0,0E0,0E0,0E0],"parents":[2147483647,0,0,1,1,2,2,3,3,4,4,5,5,6,6],"right_children":[2,4,6,8,10,12,14,-1,-1,-1,-1,-1,-1,-1,-1],"split_conditions":[-4.0668935E-1,-7.2084683E-1,3.1226557E-1,-1.2633402E0,1E0,1.646518E0,1.9144186E0,4.0287465E-2,2.764863E-2,1.4627939E-4,1.7342156E-2,3.6381022E-3,2.8334834E-2,-5.9549874E-3,-2.3157123E-2],"split_indices":[1,3,0,0,9,7,5,0,0,0,0,0,0,0,0],"split_type":[0,0,0,0,0,0,0,0,0,0,0,0,0,0,0],"sum_hessian":[3.0485708E3,5.3098724E2,2.5175837E3,1.8381961E2,3.471676E2,7.973226E2,1.7202611E3,4.7659615E1,1.3616E2,6.754424E1,2.7962338E2,7.651863E2,3.2136307E1,1.5804021E3,1.3985893E2],"tree_param":{"num_deleted":"0","num_feature":"11","num_nodes":"15","size_leaf_vector":"1"}},{"base_weights":[2.8070197E-2,2.3768568E-1,-1.3503486E-1,6.156916E-1,1.5323046E-1,-1.041508E-1,-5.550105E-1,2.913578E-2,-1.3786236E-2,-5.066609E-3,9.994243E-3,-3.1796433E-3,-1.695998E-2,-3.4082733E-2,-1.4089661E-2],"categories":[],"categories_nodes":[],"categories_segments":[],"categories_sizes":[],"default_left":[0,0,0,0,0,0,0,0,0,0,0,0,0,0,0],"id":52,"left_children":[1,3,5,7,9,11,13,-1,-1,-1,-1,-1,-1,-1,-1],"loss_changes":[1.0418617E2,4.2476547E1,2.21725E1,5.243416E0,1.8977438E1,1.4710175E1,5.3022346E0,0E0,0E0,0E0,0E0,0E0,0E0,0E0,0E0],"parents":[2147483647,0,0,1,1,2,2,3,3,4,4,5,5,6,6],"right_children":[2,4,6,8,10,12,14,-1,-1,-1,-1,-1,-1,-1,-1],"split_conditions":[3.498516E-1,-8.483906E-1,2.0297313E0,3.5829544E-1,-6.359194E-1,1.7465479E0,7.278007E-1,2.913578E-2,-1.3786236E-2,-5.066609E-3,9.994243E-3,-3.1796433E-3,-1.695998E-2,-3.4082733E-2,-1.4089661E-2],"split_indices":[0,0,5,1,4,0,7,0,0,0,0,0,0,0,0],"split_type":[0,0,0,0,0,0,0,0,0,0,0,0,0,0,0],"sum_hessian":[3.04539E3,1.3324833E3,1.7129065E3,2.4219101E2,1.0902922E3,1.5967344E3,1.1617221E2,2.3665974E2,5.5312667E0,2.1705013E2,8.732422E2,1.4154413E3,1.8129303E2,6.418903E1,5.1983173E1],"tree_param":{"num_deleted":"0","num_feature":"11","num_nodes":"15","size_leaf_vector":"1"}},{"base_weights":[1.7520847E-2,4.3925455E-1,-6.9168665E-2,-4.0377546E-2,5.241775E-1,6.5516605E-4,-2.541814E-1,-6.00602E-3,3.646198E-2,3.0983988E-2,1.9637942E-2,1.4117688E-2,-1.1558668E-3,-2.1046648E-2,-6.7267152E-3],"categories":[],"categories_nodes":[],"categories_segments":[],"categories_sizes":[],"default_left":[0,0,0,0,0,0,0,0,0,0,0,0,0,0,0],"id":53,"left_children":[1,3,5,7,9,11,13,-1,-1,-1,-1,-1,-1,-1,-1],"loss_changes":[1.10142654E2,2.0944E1,3.228505E1,6.0903606E0,6.048355E0,1.4563827E1,1.5065804E1,0E0,0E0,0E0,0E0,0E0,0E0,0E0,0E0],"parents":[2147483647,0,0,1,1,2,2,3,3,4,4,5,5,6,6],"right_children":[2,4,6,8,10,12,14,-1,-1,-1,-1,-1,-1,-1,-1],"split_conditions":[-4.0668935E-1,1E0,1.0737582E0,1.8474874E0,-7.0734054E-1,-6.2137103E-1,8.0256873E-1,-6.00602E-3,3.646198E-2,3.0983988E-2,1.9637942E-2,1.4117688E-2,-1.1558668E-3,-2.1046648E-2,-6.7267152E-3],"split_indices":[1,9,0,7,3,0,4,0,0,0,0,0,0,0,0],"split_type":[0,0,0,0,0,0,0,0,0,0,0,0,0,0,0],"sum_hessian":[3.0108328E3,5.126734E2,2.4981594E3,7.7197586E1,4.354758E2,1.8144009E3,6.837586E2,7.0390686E1,6.8069043E0,1.6221858E2,2.7325723E2,1.400154E2,1.6743855E3,2.3165689E2,4.521017E2],"tree_param":{"num_deleted":"0","num_feature":"11","num_nodes":"15","size_leaf_vector":"1"}},{"base_weights":[1.916422E-2,2.8710887E-1,-8.600618E-2,6.651425E-1,2.1200536E-1,-1.8897757E-1,3.9724052E-2,3.1726446E-2,-5.639888E-3,1.3227893E-2,3.1604182E-3,-5.8723046E-3,-2.005293E-2,2.859941E-3,-3.249205E-2],"categories":[],"categories_nodes":[],"categories_segments":[],"categories_sizes":[],"default_left":[0,0,0,0,0,0,0,0,0,0,0,0,0,0,0],"id":54,"left_children":[1,3,5,7,9,11,13,-1,-1,-1,-1,-1,-1,-1,-1],"loss_changes":[8.556825E1,2.415902E1,2.824073E1,3.4242325E0,7.9268875E0,1.8051888E1,1.6982166E1,0E0,0E0,0E0,0E0,0E0,0E0,0E0,0E0],"parents":[2147483647,0,0,1,1,2,2,3,3,4,4,5,5,6,6],"right_children":[2,4,6,8,10,12,14,-1,-1,-1,-1,-1,-1,-1,-1],"split_conditions":[-3.372849E-1,-1.0145208E0,6.847359E-1,6.632034E-1,-2.1362495E-1,1.2714607E0,2.3095865E0,3.1726446E-2,-5.639888E-3,1.3227893E-2,3.1604182E-3,-5.8723046E-3,-2.005293E-2,2.859941E-3,-3.249205E-2],"split_indices":[2,0,7,7,5,0,0,0,0,0,0,0,0,0,0],"split_type":[0,0,0,0,0,0,0,0,0,0,0,0,0,0,0],"sum_hessian":[3.0346287E3,8.548869E2,2.1797417E3,1.403879E2,7.14499E2,1.1980509E3,9.8169073E2,1.3536844E2,5.019455E0,4.6181116E2,2.5268785E2,9.66645E2,2.3140591E2,9.535127E2,2.8178087E1],"tree_param":{"num_deleted":"0","num_feature":"11","num_nodes":"15","size_leaf_vector":"1"}},{"base_weights":[-7.847593E-4,3.7602773E-1,-7.616584E-2,6.561739E-1,2.7814183E-1,5.152455E-2,-1.7719598E-1,3.354719E-2,8.130817E-3,1.7561626E-2,6.9859363E-3,6.596404E-3,-2.5862418E-3,-1.682601E-2,-5.309555E-3],"categories":[],"categories_nodes":[],"categories_segments":[],"categories_sizes":[],"default_left":[0,0,0,0,0,0,0,0,0,0,0,0,0,0,0],"id":55,"left_children":[1,3,5,7,9,11,13,-1,-1,-1,-1,-1,-1,-1,-1],"loss_changes":[8.526676E1,1.3540047E1,3.2279255E1,4.7220955E0,4.9096107E0,1.1132145E1,1.6233368E1,0E0,0E0,0E0,0E0,0E0,0E0,0E0,0E0],"parents":[2147483647,0,0,1,1,2,2,3,3,4,4,5,5,6,6],"right_children":[2,4,6,8,10,12,14,-1,-1,-1,-1,-1,-1,-1,-1],"split_conditions":[-4.0668935E-1,-9.837002E-1,5.580781E-1,-6.252564E-1,-3.9209634E-1,6.972612E-1,3.230727E-1,3.354719E-2,8.130817E-3,1.7561626E-2,6.9859363E-3,6.596404E-3,-2.5862418E-3,-1.682601E-2,-5.309555E-3],"split_indices":[1,0,0,1,0,2,4,0,0,0,0,0,0,0,0],"split_type":[0,0,0,0,0,0,0,0,0,0,0,0,0,0,0],"sum_hessian":[2.999863E3,4.9941504E2,2.500448E3,1.27839424E2,3.7157562E2,1.1047112E3,1.3957369E3,1.09288055E2,1.8551367E1,1.9948793E2,1.7208769E2,5.938874E2,5.1082382E2,3.355136E2,1.0602233E3],"tree_param":{"num_deleted":"0","num_feature":"11","num_nodes":"15","size_leaf_vector":"1"}},{"base_weights":[1.3454505E-2,2.7906027E-1,-8.1323415E-2,5.384294E-1,1.9021773E-1,-4.334359E-2,-3.4160584E-1,3.3394795E-2,1.3531045E-2,2.1264803E-2,6.3312263E-3,-1.2655327E-2,5.844124E-4,-1.2880429E-2,-4.7521897E-2],"categories":[],"categories_nodes":[],"categories_segments":[],"categories_sizes":[],"default_left":[0,0,0,0,0,0,0,0,0,0,0,0,0,0,0],"id":56,"left_children":[1,3,5,7,9,11,13,-1,-1,-1,-1,-1,-1,-1,-1],"loss_changes":[7.566708E1,1.8112923E1,2.1885698E1,9.186718E0,8.318024E0,2.5410213E1,1.1425114E1,0E0,0E0,0E0,0E0,0E0,0E0,0E0,0E0],"parents":[2147483647,0,0,1,1,2,2,3,3,4,4,5,5,6,6],"right_children":[2,4,6,8,10,12,14,-1,-1,-1,-1,-1,-1,-1,-1],"split_conditions":[-8.689791E-2,-8.4382355E-1,1.56388E0,-3.6862615E-1,-9.7746694E-1,-1.3244854E-1,2.2614057E0,3.3394795E-2,1.3531045E-2,2.1264803E-2,6.3312263E-3,-1.2655327E-2,5.844124E-4,-1.2880429E-2,-4.7521897E-2],"split_indices":[0,1,0,8,3,4,6,0,0,0,0,0,0,0,0],"split_type":[0,0,0,0,0,0,0,0,0,0,0,0,0,0,0],"sum_hessian":[3.003914E3,7.894931E2,2.214421E3,2.0013976E2,5.8935333E2,1.933461E3,2.8095978E2,1.1016239E2,8.997737E1,9.152119E1,4.9783215E2,3.734958E2,1.5599653E3,2.6025803E2,2.0701769E1],"tree_param":{"num_deleted":"0","num_feature":"11","num_nodes":"15","size_leaf_vector":"1"}},{"base_weights":[1.8840397E-2,4.0294752E-1,-5.1811766E-2,7.922459E-1,3.479946E-1,1.5885913E-3,-2.7898958E-1,1.9485887E-2,4.027514E-2,-5.035053E-4,1.8873313E-2,-1.0627822E-2,1.6874961E-3,-1.1009191E-2,-3.6989786E-2],"categories":[],"categories_nodes":[],"categories_segments":[],"categories_sizes":[],"default_left":[0,0,0,0,0,0,0,0,0,0,0,0,0,0,0],"id":57,"left_children":[1,3,5,7,9,11,13,-1,-1,-1,-1,-1,-1,-1,-1],"loss_changes":[8.067737E1,9.604958E0,3.0465054E1,1.4785881E0,9.563E0,1.6881968E1,9.403706E0,0E0,0E0,0E0,0E0,0E0,0E0,0E0,0E0],"parents":[2147483647,0,0,1,1,2,2,3,3,4,4,5,5,6,6],"right_children":[2,4,6,8,10,12,14,-1,-1,-1,-1,-1,-1,-1,-1],"split_conditions":[-5.1462674E-1,-1.2189887E0,1.2714607E0,-1.3034258E0,-1.135682E0,-3.9617136E-1,2.2614057E0,1.9485887E-2,4.027514E-2,-5.035053E-4,1.8873313E-2,-1.0627822E-2,1.6874961E-3,-1.1009191E-2,-3.6989786E-2],"split_indices":[0,0,0,7,6,4,6,0,0,0,0,0,0,0,0],"split_type":[0,0,0,0,0,0,0,0,0,0,0,0,0,0,0],"sum_hessian":[2.9710867E3,4.6086227E2,2.5102244E3,5.534805E1,4.0551422E2,2.0332761E3,4.7694833E2,1.2086928E1,4.326112E1,6.2688248E1,3.42826E2,2.6590457E2,1.7673716E3,4.4663632E2,3.0312008E1],"tree_param":{"num_deleted":"0","num_feature":"11","num_nodes":"15","size_leaf_vector":"1"}},{"base_weights":[1.4137648E-3,3.533588E-1,-5.7617236E-2,8.4344673E-1,3.0013224E-1,-3.2394107E-2,-3.266962E-1,2.0998139E-2,4.0891536E-2,-1.288304E-3,1.6433029E-2,-4.027734E-3,5.483182E-3,-7.1872408E-3,-2.3495702E-2],"categories":[],"categories_nodes":[],"categories_segments":[],"categories_sizes":[],"default_left":[0,0,0,0,0,0,0,0,0,0,0,0,0,0,0],"id":58,"left_children":[1,3,5,7,9,11,13,-1,-1,-1,-1,-1,-1,-1,-1],"loss_changes":[6.13811E1,1.0816792E1,1.7161388E1,4.1241646E-1,7.568569E0,1.9724573E1,6.8167515E0,0E0,0E0,0E0,0E0,0E0,0E0,0E0,0E0],"parents":[2147483647,0,0,1,1,2,2,3,3,4,4,5,5,6,6],"right_children":[2,4,6,8,10,12,14,-1,-1,-1,-1,-1,-1,-1,-1],"split_conditions":[-5.6198514E-1,-1.2633402E0,1.708962E0,-1.366752E0,-1.1628587E0,8.8248473E-1,8.556383E-1,2.0998139E-2,4.0891536E-2,-1.288304E-3,1.6433029E-2,-4.027734E-3,5.483182E-3,-7.1872408E-3,-2.3495702E-2],"split_indices":[0,0,0,5,6,4,5,0,0,0,0,0,0,0,0],"split_type":[0,0,0,0,0,0,0,0,0,0,0,0,0,0,0],"sum_hessian":[2.9524902E3,4.2336804E2,2.5291223E3,4.0021404E1,3.8334665E2,2.3133884E3,2.157338E2,5.989938E0,3.4031467E1,5.9216404E1,3.2413025E2,1.6936602E3,6.197283E2,1.1451728E2,1.0121652E2],"tree_param":{"num_deleted":"0","num_feature":"11","num_nodes":"15","size_leaf_vector":"1"}},{"base_weights":[1.3641936E-2,2.787953E-1,-7.712686E-2,5.757702E-1,1.7585027E-1,5.030666E-2,-1.5812252E-1,2.7772192E-2,1.8433231E-4,3.8697273E-3,1.3055832E-2,-1.0931123E-3,1.0756641E-2,-1.5002437E-2,-4.5735803E-3],"categories":[],"categories_nodes":[],"categories_segments":[],"categories_sizes":[],"default_left":[0,0,0,0,0,0,0,0,0,0,0,0,0,0,0],"id":59,"left_children":[1,3,5,7,9,11,13,-1,-1,-1,-1,-1,-1,-1,-1],"loss_changes":[7.1098E1,2.2930344E1,2.2724094E1,3.6123123E0,5.6037674E0,1.1787369E1,1.3262741E1,0E0,0E0,0E0,0E0,0E0,0E0,0E0,0E0],"parents":[2147483647,0,0,1,1,2,2,3,3,4,4,5,5,6,6],"right_children":[2,4,6,8,10,12,14,-1,-1,-1,-1,-1,-1,-1,-1],"split_conditions":[-7.8838736E-2,-8.483906E-1,5.580781E-1,-4.0344828E-1,-1.1914176E-1,7.062683E-1,1.3207E-1,2.7772192E-2,1.8433231E-4,3.8697273E-3,1.3055832E-2,-1.0931123E-3,1.0756641E-2,-1.5002437E-2,-4.5735803E-3],"split_indices":[1,0,0,3,7,7,7,0,0,0,0,0,0,0,0],"split_type":[0,0,0,0,0,0,0,0,0,0,0,0,0,0,0],"sum_hessian":[2.9521965E3,7.523535E2,2.199843E3,1.9248407E2,5.5986945E2,8.5500714E2,1.3448358E3,1.8201675E2,1.0467327E1,3.0748907E2,2.5238034E2,6.110753E2,2.4393184E2,3.3974457E2,1.0050912E3],"tree_param":{"num_deleted":"0","num_feature":"11","num_nodes":"15","size_leaf_vector":"1"}},{"base_weights":[-8.3179347E-4,3.4943137E-1,-6.644728E-2,7.016384E-1,2.769635E-1,-2.6002169E-2,-3.0122787E-1,3.3819232E-2,5.3102216E-3,1.4075359E-2,-1.5844217E-2,-3.342726E-3,8.210002E-3,3.379611E-2,-1.4869572E-2],"categories":[],"categories_nodes":[],"categories_segments":[],"categories_sizes":[],"default_left":[0,0,0,0,0,0,0,0,0,0,0,0,0,0,0],"id":60,"left_children":[1,3,5,7,9,11,13,-1,-1,-1,-1,-1,-1,-1,-1],"loss_changes":[6.8100395E1,1.1738197E1,2.3689693E1,1.7334137E0,7.7391357E0,2.0724253E1,9.614185E0,0E0,0E0,0E0,0E0,0E0,0E0,0E0,0E0],"parents":[2147483647,0,0,1,1,2,2,3,3,4,4,5,5,6,6],"right_children":[2,4,6,8,10,12,14,-1,-1,-1,-1,-1,-1,-1,-1],"split_conditions":[-4.0668935E-1,-1.0855175E0,1.3388672E0,-8.574112E-1,1.3212496E0,8.8248473E-1,1.799628E-1,3.3819232E-2,5.3102216E-3,1.4075359E-2,-1.5844217E-2,-3.342726E-3,8.210002E-3,3.379611E-2,-1.4869572E-2],"split_indices":[1,3,3,0,2,4,0,0,0,0,0,0,0,0,0],"split_type":[0,0,0,0,0,0,0,0,0,0,0,0,0,0,0],"sum_hessian":[2.961107E3,4.6650787E2,2.494599E3,7.812485E1,3.8838303E2,2.128959E3,3.6564014E2,7.2961136E1,5.163712E0,3.7025607E2,1.8126959E1,1.7321945E3,3.9676447E2,7.7451067E0,3.5789502E2],"tree_param":{"num_deleted":"0","num_feature":"11","num_nodes":"15","size_leaf_vector":"1"}},{"base_weights":[-7.810173E-3,3.3712882E-1,-6.1180234E-2,6.947373E-1,2.6828277E-1,6.33286E-2,-1.2312545E-1,3.611108E-2,1.5542467E-2,1.4043633E-2,-1.0258152E-2,-1.5818698E-3,7.6597733E-3,-1.2553366E-2,-2.8375234E-3],"categories":[],"categories_nodes":[],"categories_segments":[],"categories_sizes":[],"default_left":[0,0,0,0,0,0,0,0,0,0,0,0,0,0,0],"id":61,"left_children":[1,3,5,7,9,11,13,-1,-1,-1,-1,-1,-1,-1,-1],"loss_changes":[5.390701E1,9.473537E0,1.956533E1,1.8721466E0,6.4907875E0,8.637561E0,1.5665615E1,0E0,0E0,0E0,0E0,0E0,0E0,0E0,0E0],"parents":[2147483647,0,0,1,1,2,2,3,3,4,4,5,5,6,6],"right_children":[2,4,6,8,10,12,14,-1,-1,-1,-1,-1,-1,-1,-1],"split_conditions":[-5.807782E-1,-1.2809577E0,3.3782408E-1,-4.3046093E-1,3.5829544E-1,8.182765E-2,3.230727E-1,3.611108E-2,1.5542467E-2,1.4043633E-2,-1.0258152E-2,-1.5818698E-3,7.6597733E-3,-1.2553366E-2,-2.8375234E-3],"split_indices":[0,1,0,3,1,7,4,0,0,0,0,0,0,0,0],"split_type":[0,0,0,0,0,0,0,0,0,0,0,0,0,0,0],"sum_hessian":[2.9261104E3,3.9136176E2,2.5347485E3,6.1713078E1,3.2964868E2,8.421064E2,1.6926421E3,4.7541245E1,1.4171831E1,3.0560678E2,2.4041874E1,4.349166E2,4.0718982E2,4.837395E2,1.2089026E3],"tree_param":{"num_deleted":"0","num_feature":"11","num_nodes":"15","size_leaf_vector":"1"}},{"base_weights":[-1.28499735E-2,4.0519506E-1,-5.4884527E-2,5.717696E-1,2.471335E-1,-3.242337E-2,-3.9612508E-1,4.2553183E-2,2.2854295E-2,1.406563E-2,-1.8577758E-2,2.0647012E-3,-4.3298276E-3,-1.5196626E-2,-4.4392195E-2],"categories":[],"categories_nodes":[],"categories_segments":[],"categories_sizes":[],"default_left":[0,0,0,0,0,0,0,0,0,0,0,0,0,0,0],"id":62,"left_children":[1,3,5,7,9,11,13,-1,-1,-1,-1,-1,-1,-1,-1],"loss_changes":[5.1514587E1,6.910736E0,2.0401701E1,2.8547707E0,5.681817E0,1.2126368E1,5.664442E0,0E0,0E0,0E0,0E0,0E0,0E0,0E0,0E0],"parents":[2147483647,0,0,1,1,2,2,3,3,4,4,5,5,6,6],"right_children":[2,4,6,8,10,12,14,-1,-1,-1,-1,-1,-1,-1,-1],"split_conditions":[-7.8918177E-1,-7.634462E-1,1.8344992E0,-1.3512915E0,4.405667E-1,6.1788344E-1,2.9891417E0,4.2553183E-2,2.2854295E-2,1.406563E-2,-1.8577758E-2,2.0647012E-3,-4.3298276E-3,-1.5196626E-2,-4.4392195E-2],"split_indices":[1,0,0,0,6,2,0,0,0,0,0,0,0,0,0],"split_type":[0,0,0,0,0,0,0,0,0,0,0,0,0,0,0],"sum_hessian":[2.9293074E3,2.668429E2,2.6624644E3,1.2864835E2,1.3819455E2,2.4990657E3,1.6339865E2,1.9188658E1,1.0945969E2,1.26886536E2,1.1308009E1,1.1138948E3,1.385171E3,1.4867812E2,1.4720546E1],"tree_param":{"num_deleted":"0","num_feature":"11","num_nodes":"15","size_leaf_vector":"1"}},{"base_weights":[6.4820503E-3,3.165319E-1,-5.7853878E-2,6.333967E-1,2.1564372E-1,4.5675397E-2,-1.2807965E-1,3.0335393E-2,1.0951957E-3,4.077361E-4,1.5605165E-2,-1.1353276E-4,1.4251061E-2,-4.5401365E-3,-2.284906E-2],"categories":[],"categories_nodes":[],"categories_segments":[],"categories_sizes":[],"default_left":[0,0,0,0,0,0,0,0,0,0,0,0,0,0,0],"id":63,"left_children":[1,3,5,7,9,11,13,-1,-1,-1,-1,-1,-1,-1,-1],"loss_changes":[5.8330013E1,1.5927372E1,1.7613203E1,2.2821007E0,9.98279E0,1.2575563E1,1.5332628E1,0E0,0E0,0E0,0E0,0E0,0E0,0E0,0E0],"parents":[2147483647,0,0,1,1,2,2,3,3,4,4,5,5,6,6],"right_children":[2,4,6,8,10,12,14,-1,-1,-1,-1,-1,-1,-1,-1],"split_conditions":[-4.048756E-1,-1.008507E0,5.197404E-1,4.9094394E-1,-7.158354E-1,1.165627E0,2.0297313E0,3.0335393E-2,1.0951957E-3,4.077361E-4,1.5605165E-2,-1.1353276E-4,1.4251061E-2,-4.5401365E-3,-2.284906E-2],"split_indices":[0,0,0,7,4,7,5,0,0,0,0,0,0,0,0],"split_type":[0,0,0,0,0,0,0,0,0,0,0,0,0,0,0],"sum_hessian":[2.9222812E3,5.0150272E2,2.4207786E3,1.1983921E2,3.8166348E2,9.785361E2,1.4422424E3,1.139152E2,5.92401E0,1.451172E2,2.365463E2,8.2962E2,1.4891609E2,1.3405438E3,1.0169863E2],"tree_param":{"num_deleted":"0","num_feature":"11","num_nodes":"15","size_leaf_vector":"1"}},{"base_weights":[5.306487E-3,3.9156225E-1,-4.6311434E-2,5.318701E-1,1.966487E-1,1.5877502E-2,-1.6066332E-1,2.6014756E-2,4.9982355E-3,-8.659081E-3,1.5994335E-2,1.696297E-4,2.7631264E-2,-1.6059013E-2,-2.577138E-3],"categories":[],"categories_nodes":[],"categories_segments":[],"categories_sizes":[],"default_left":[0,0,0,0,0,0,0,0,0,0,0,0,0,0,0],"id":64,"left_children":[1,3,5,7,9,11,13,-1,-1,-1,-1,-1,-1,-1,-1],"loss_changes":[5.853032E1,9.359505E0,1.8418896E1,3.164009E0,8.765644E0,1.2029445E1,1.815387E1,0E0,0E0,0E0,0E0,0E0,0E0,0E0,0E0],"parents":[2147483647,0,0,1,1,2,2,3,3,4,4,5,5,6,6],"right_children":[2,4,6,8,10,12,14,-1,-1,-1,-1,-1,-1,-1,-1],"split_conditions":[-6.281365E-1,-7.0734054E-1,9.008626E-1,3.4021688E-1,-6.359194E-1,1.8414768E0,7.2265273E-1,2.6014756E-2,4.9982355E-3,-8.659081E-3,1.5994335E-2,1.696297E-4,2.7631264E-2,-1.6059013E-2,-2.577138E-3],"split_indices":[0,3,0,7,4,4,4,0,0,0,0,0,0,0,0],"split_type":[0,0,0,0,0,0,0,0,0,0,0,0,0,0,0],"sum_hessian":[2.933748E3,3.4506308E2,2.588685E3,1.9963078E2,1.454323E2,1.6773429E3,9.1134216E2,1.8280252E2,1.6828255E1,4.1335686E1,1.0409662E2,1.6444243E3,3.291858E1,3.2067175E2,5.906704E2],"tree_param":{"num_deleted":"0","num_feature":"11","num_nodes":"15","size_leaf_vector":"1"}},{"base_weights":[5.6811133E-3,2.2252315E-1,-7.613948E-2,4.7527638E-1,1.3990445E-1,-4.4008415E-2,-3.150733E-1,-1.8123027E-2,2.2867301E-2,-1.2036699E-2,9.418411E-3,-8.434448E-3,3.774372E-4,-1.8347861E-2,1.7395994E-4],"categories":[],"categories_nodes":[],"categories_segments":[],"categories_sizes":[],"default_left":[0,0,0,0,0,0,0,0,0,0,0,0,0,0,0],"id":65,"left_children":[1,3,5,7,9,11,13,-1,-1,-1,-1,-1,-1,-1,-1],"loss_changes":[5.2060036E1,1.6719673E1,1.6342026E1,4.631218E0,1.6337856E1,1.3830619E1,6.9951553E0,0E0,0E0,0E0,0E0,0E0,0E0,0E0,0E0],"parents":[2147483647,0,0,1,1,2,2,3,3,4,4,5,5,6,6],"right_children":[2,4,6,8,10,12,14,-1,-1,-1,-1,-1,-1,-1,-1],"split_conditions":[-1.6700144E-1,-7.0734054E-1,1.5954522E0,-9.9355143E-1,-7.158354E-1,1.17715046E-1,1.3881288E0,-1.8123027E-2,2.2867301E-2,-1.2036699E-2,9.418411E-3,-8.434448E-3,3.774372E-4,-1.8347861E-2,1.7395994E-4],"split_indices":[2,3,0,2,4,7,7,0,0,0,0,0,0,0,0],"split_type":[0,0,0,0,0,0,0,0,0,0,0,0,0,0,0],"sum_hessian":[2.9323035E3,8.0285266E2,2.1294507E3,1.9661153E2,6.0624115E2,1.8780771E3,2.5137363E2,5.2157865E0,1.9139574E2,8.526917E1,5.20972E2,5.078787E2,1.3701984E3,1.9733595E2,5.403768E1],"tree_param":{"num_deleted":"0","num_feature":"11","num_nodes":"15","size_leaf_vector":"1"}},{"base_weights":[2.6882275E-3,2.6538447E-1,-4.439432E-2,7.6581377E-1,2.131934E-1,-3.4104086E-2,-5.9471166E-1,4.231828E-2,2.6924543E-2,-1.7009404E-2,1.0963792E-2,-5.6434507E-3,7.902467E-4,-3.602686E-2,-1.8808985E-2],"categories":[],"categories_nodes":[],"categories_segments":[],"categories_sizes":[],"default_left":[0,0,0,0,0,0,0,0,0,0,0,0,0,0,0],"id":66,"left_children":[1,3,5,7,9,11,13,-1,-1,-1,-1,-1,-1,-1,-1],"loss_changes":[3.6140926E1,1.143602E1,1.4012208E1,6.325741E-1,6.474495E0,1.1205381E1,1.2889957E0,0E0,0E0,0E0,0E0,0E0,0E0,0E0,0E0],"parents":[2147483647,0,0,1,1,2,2,3,3,4,4,5,5,6,6],"right_children":[2,4,6,8,10,12,14,-1,-1,-1,-1,-1,-1,-1,-1],"split_conditions":[-4.0668935E-1,-1.2189887E0,2.4448962E0,-1.2809577E0,-1.6812412E0,1.3207E-1,6.85157E-1,4.231828E-2,2.6924543E-2,-1.7009404E-2,1.0963792E-2,-5.6434507E-3,7.902467E-4,-3.602686E-2,-1.8808985E-2],"split_indices":[1,0,0,1,5,7,6,0,0,0,0,0,0,0,0],"split_type":[0,0,0,0,0,0,0,0,0,0,0,0,0,0,0],"sum_hessian":[2.9200828E3,4.4311182E2,2.476971E3,4.055742E1,4.025544E2,2.4325474E3,4.442358E1,1.893043E1,2.1626987E1,1.7175667E1,3.8537872E2,8.868405E2,1.5457068E3,1.9899979E1,2.4523602E1],"tree_param":{"num_deleted":"0","num_feature":"11","num_nodes":"15","size_leaf_vector":"1"}},{"base_weights":[1.6127419E-4,1.8876815E-1,-6.1626054E-2,5.1098025E-1,1.2637135E-1,-1.8739497E-2,-2.2216724E-1,2.0346655E-2,3.7592918E-2,8.655152E-3,-3.3991067E-3,-6.4588403E-3,2.1864595E-3,-5.781804E-4,-1.5418571E-2],"categories":[],"categories_nodes":[],"categories_segments":[],"categories_sizes":[],"default_left":[0,0,0,0,0,0,0,0,0,0,0,0,0,0,0],"id":67,"left_children":[1,3,5,7,9,11,13,-1,-1,-1,-1,-1,-1,-1,-1],"loss_changes":[3.3931602E1,1.4380728E1,1.5096248E1,2.0026722E0,7.6774225E0,1.4176061E1,1.1194302E1,0E0,0E0,0E0,0E0,0E0,0E0,0E0,0E0],"parents":[2147483647,0,0,1,1,2,2,3,3,4,4,5,5,6,6],"right_children":[2,4,6,8,10,12,14,-1,-1,-1,-1,-1,-1,-1,-1],"split_conditions":[-7.8838736E-2,-9.679141E-1,1.3418473E0,-2.1437231E-2,5.6683135E-1,1.3207E-1,7.508086E-1,2.0346655E-2,3.7592918E-2,8.655152E-3,-3.3991067E-3,-6.4588403E-3,2.1864595E-3,-5.781804E-4,-1.5418571E-2],"split_indices":[1,0,1,6,2,7,5,0,0,0,0,0,0,0,0],"split_type":[0,0,0,0,0,0,0,0,0,0,0,0,0,0,0],"sum_hessian":[2.9097075E3,7.17493E2,2.1922146E3,1.15235695E2,6.0225726E2,1.7309341E3,4.6128052E2,9.735313E1,1.7882565E1,4.5805826E2,1.4419902E2,6.086266E2,1.1223075E3,1.6444604E2,2.9683447E2],"tree_param":{"num_deleted":"0","num_feature":"11","num_nodes":"15","size_leaf_vector":"1"}},{"base_weights":[1.0364599E-2,3.1674168E-1,-3.5863962E-2,4.553052E-1,1.8706697E-1,4.3640914E-3,-1.832475E-1,3.266242E-2,1.7235018E-2,-3.0438077E-2,1.1739201E-2,-1.5999304E-2,1.2149939E-3,-6.4356094E-3,-2.8172165E-2],"categories":[],"categories_nodes":[],"categories_segments":[],"categories_sizes":[],"default_left":[0,0,0,0,0,0,0,0,0,0,0,0,0,0,0],"id":68,"left_children":[1,3,5,7,9,11,13,-1,-1,-1,-1,-1,-1,-1,-1],"loss_changes":[4.124815E1,6.775383E0,1.5005157E1,3.449192E0,1.20831785E1,1.5718377E1,9.863274E0,0E0,0E0,0E0,0E0,0E0,0E0,0E0,0E0],"parents":[2147483647,0,0,1,1,2,2,3,3,4,4,5,5,6,6],"right_children":[2,4,6,8,10,12,14,-1,-1,-1,-1,-1,-1,-1,-1],"split_conditions":[-5.492059E-1,-8.483906E-1,1.1992955E0,-1.2809577E0,-1.4254429E0,-7.158354E-1,2.0297313E0,3.266242E-2,1.7235018E-2,-3.0438077E-2,1.1739201E-2,-1.5999304E-2,1.2149939E-3,-6.4356094E-3,-2.8172165E-2],"split_indices":[0,0,0,1,7,4,5,0,0,0,0,0,0,0,0],"split_type":[0,0,0,0,0,0,0,0,0,0,0,0,0,0,0],"sum_hessian":[2.9105095E3,3.8081683E2,2.5296929E3,1.8288474E2,1.9793208E2,1.9880333E3,5.416595E2,4.0161926E1,1.4272281E2,1.4374412E1,1.8355768E2,1.1644135E2,1.8715919E3,4.9480734E2,4.685214E1],"tree_param":{"num_deleted":"0","num_feature":"11","num_nodes":"15","size_leaf_vector":"1"}},{"base_weights":[1.3572511E-2,3.7564507E-1,-1.7473722E-2,6.937201E-1,2.4114601E-1,5.849345E-2,-9.6908495E-2,1.9898966E-2,3.646304E-2,1.29839815E-2,-2.5694465E-2,2.9734785E-3,-4.3404154E-2,-1.8835441E-3,-9.965874E-3],"categories":[],"categories_nodes":[],"categories_segments":[],"categories_sizes":[],"default_left":[0,0,0,0,0,0,0,0,0,0,0,0,0,0,0],"id":69,"left_children":[1,3,5,7,9,11,13,-1,-1,-1,-1,-1,-1,-1,-1],"loss_changes":[3.2608673E1,9.633465E0,1.6130861E1,1.4822769E0,5.821044E0,9.236378E0,8.819647E0,0E0,0E0,0E0,0E0,0E0,0E0,0E0,0E0],"parents":[2147483647,0,0,1,1,2,2,3,3,4,4,5,5,6,6],"right_children":[2,4,6,8,10,12,14,-1,-1,-1,-1,-1,-1,-1,-1],"split_conditions":[-7.6945996E-1,-1.0623906E0,4.1535345E-1,-9.3278295E-1,-2.8189138E-1,2.6335778E0,1.0895444E0,1.9898966E-2,3.646304E-2,1.29839815E-2,-2.5694465E-2,2.9734785E-3,-4.3404154E-2,-1.8835441E-3,-9.965874E-3],"split_indices":[0,1,5,2,3,0,0,0,0,0,0,0,0,0,0],"split_type":[0,0,0,0,0,0,0,0,0,0,0,0,0,0,0],"sum_hessian":[2.8992883E3,2.2809235E2,2.671196E3,6.65504E1,1.6154195E2,1.3655349E3,1.3056611E3,2.0770756E1,4.577964E1,1.5389803E2,7.643928E0,1.3575256E3,8.00928E0,8.9629047E2,4.0937067E2],"tree_param":{"num_deleted":"0","num_feature":"11","num_nodes":"15","size_leaf_vector":"1"}},{"base_weights":[9.842241E-3,1.257209E-1,-8.2591094E-2,7.233967E-1,1.0190856E-1,-1.8616042E-1,3.6638483E-2,3.6326516E-2,8.64387E-3,-2.1748242E-3,6.451051E-3,1.1366837E-2,-1.00083435E-2,2.4674004E-3,-2.9421197E-2],"categories":[],"categories_nodes":[],"categories_segments":[],"categories_sizes":[],"default_left":[0,0,0,0,0,0,0,0,0,0,0,0,0,0,0],"id":70,"left_children":[1,3,5,7,9,11,13,-1,-1,-1,-1,-1,-1,-1,-1],"loss_changes":[3.0924644E1,1.8158667E1,1.984009E1,1.742363E0,7.2776003E0,1.2440834E1,8.903933E0,0E0,0E0,0E0,0E0,0E0,0E0,0E0,0E0],"parents":[2147483647,0,0,1,1,2,2,3,3,4,4,5,5,6,6],"right_children":[2,4,6,8,10,12,14,-1,-1,-1,-1,-1,-1,-1,-1],"split_conditions":[3.9720997E-1,-1.1881682E0,6.632034E-1,-1.065258E0,-7.158354E-1,-7.377736E-1,2.4448962E0,3.6326516E-2,8.64387E-3,-2.1748242E-3,6.451051E-3,1.1366837E-2,-1.00083435E-2,2.4674004E-3,-2.9421197E-2],"split_indices":[0,0,7,3,4,5,0,0,0,0,0,0,0,0,0],"split_type":[0,0,0,0,0,0,0,0,0,0,0,0,0,0,0],"sum_hessian":[2.8852024E3,1.2800779E3,1.6051245E3,4.7920593E1,1.2321572E3,8.586729E2,7.464516E2,4.176329E1,6.157303E0,2.5700482E2,9.751524E2,6.0244877E1,7.9842804E2,7.287384E2,1.7713161E1],"tree_param":{"num_deleted":"0","num_feature":"11","num_nodes":"15","size_leaf_vector":"1"}},{"base_weights":[-8.651986E-3,3.3099878E-1,-3.9514698E-2,2.0154709E-1,5.377942E-1,-6.0124407E-3,-2.5143853E-1,1.1264854E-2,-2.8621648E-2,2.9704629E-2,1.994718E-3,3.7633107E-4,-1.16250245E-2,-9.264216E-3,-2.9824281E-2],"categories":[],"categories_nodes":[],"categories_segments":[],"categories_sizes":[],"default_left":[0,0,0,0,0,0,0,0,0,0,0,0,0,0,0],"id":71,"left_children":[1,3,5,7,9,11,13,-1,-1,-1,-1,-1,-1,-1,-1],"loss_changes":[3.0156189E1,6.3065624E0,1.8720434E1,5.740386E0,5.088516E0,8.078541E0,6.8805504E0,0E0,0E0,0E0,0E0,0E0,0E0,0E0,0E0],"parents":[2147483647,0,0,1,1,2,2,3,3,4,4,5,5,6,6],"right_children":[2,4,6,8,10,12,14,-1,-1,-1,-1,-1,-1,-1,-1],"split_conditions":[-7.8918177E-1,-5.377946E-1,1.4511309E0,-4.9666524E-1,4.949201E-1,1.8344057E0,2.2614057E0,1.1264854E-2,-2.8621648E-2,2.9704629E-2,1.994718E-3,3.7633107E-4,-1.16250245E-2,-9.264216E-3,-2.9824281E-2],"split_indices":[1,6,1,5,6,2,6,0,0,0,0,0,0,0,0],"split_type":[0,0,0,0,0,0,0,0,0,0,0,0,0,0,0],"sum_hessian":[2.874553E3,2.3863199E2,2.6359211E3,1.4797551E2,9.065646E1,2.2769888E3,3.5893237E2,1.4097899E2,6.9965353E0,7.352541E1,1.7131054E1,2.154435E3,1.2255369E2,3.2164948E2,3.7282894E1],"tree_param":{"num_deleted":"0","num_feature":"11","num_nodes":"15","size_leaf_vector":"1"}},{"base_weights":[1.2676558E-2,1.3987458E-1,-7.753049E-2,6.1355966E-1,1.1679929E-1,-1.5652339E-1,3.7394997E-2,2.2099428E-2,3.812416E-2,7.185464E-3,-5.6847413E-3,-5.0443765E-3,-2.0756353E-2,2.2786478E-2,3.22024E-4],"categories":[],"categories_nodes":[],"categories_segments":[],"categories_sizes":[],"default_left":[0,0,0,0,0,0,0,0,0,0,0,0,0,0,0],"id":72,"left_children":[1,3,5,7,9,11,13,-1,-1,-1,-1,-1,-1,-1,-1],"loss_changes":[3.2956516E1,1.2954458E1,1.5262494E1,1.1767731E0,1.1172977E1,1.3617842E1,9.599884E0,0E0,0E0,0E0,0E0,0E0,0E0,0E0,0E0],"parents":[2147483647,0,0,1,1,2,2,3,3,4,4,5,5,6,6],"right_children":[2,4,6,8,10,12,14,-1,-1,-1,-1,-1,-1,-1,-1],"split_conditions":[3.5829544E-1,-1.3902413E0,7.278007E-1,-7.587396E-1,1.1852205E0,1.6418613E0,-3.696825E-1,2.2099428E-2,3.812416E-2,7.185464E-3,-5.6847413E-3,-5.0443765E-3,-2.0756353E-2,2.2786478E-2,3.22024E-4],"split_indices":[1,1,7,5,2,5,3,0,0,0,0,0,0,0,0],"split_type":[0,0,0,0,0,0,0,0,0,0,0,0,0,0,0],"sum_hessian":[2.8702932E3,1.1907312E3,1.6795619E3,5.412264E1,1.1366086E3,9.951757E2,6.8438617E2,3.61856E1,1.793704E1,9.7315283E2,1.6345573E2,8.633498E2,1.3182594E2,4.123707E1,6.4314905E2],"tree_param":{"num_deleted":"0","num_feature":"11","num_nodes":"15","size_leaf_vector":"1"}},{"base_weights":[-4.719933E-3,1.2407727E-1,-7.8602865E-2,5.5863965E-1,9.369056E-2,-6.259063E-2,-4.9557388E-1,3.0671421E-2,-8.714174E-3,8.02615E-3,-2.5350377E-3,-3.5768372E-3,1.1458549E-2,-8.282827E-5,-3.5139732E-2],"categories":[],"categories_nodes":[],"categories_segments":[],"categories_sizes":[],"default_left":[0,0,0,0,0,0,0,0,0,0,0,0,0,0,0],"id":73,"left_children":[1,3,5,7,9,11,13,-1,-1,-1,-1,-1,-1,-1,-1],"loss_changes":[2.7320908E1,1.3768017E1,1.2150128E1,5.9213905E0,1.2016578E1,8.716646E0,9.116562E0,0E0,0E0,0E0,0E0,0E0,0E0,0E0,0E0],"parents":[2147483647,0,0,1,1,2,2,3,3,4,4,5,5,6,6],"right_children":[2,4,6,8,10,12,14,-1,-1,-1,-1,-1,-1,-1,-1],"split_conditions":[2.4901189E-1,-1.2809577E0,2.2614057E0,7.243296E-1,3.4959674E-1,2.048457E0,1.2325637E0,3.0671421E-2,-8.714174E-3,8.02615E-3,-2.5350377E-3,-3.5768372E-3,1.1458549E-2,-8.282827E-5,-3.5139732E-2],"split_indices":[1,1,6,3,8,7,1,0,0,0,0,0,0,0,0],"split_type":[0,0,0,0,0,0,0,0,0,0,0,0,0,0,0],"sum_hessian":[2.86905E3,1.0456063E3,1.8234437E3,6.719936E1,9.78407E2,1.7571183E3,6.632553E1,5.8463715E1,8.735649E0,6.309128E2,3.474942E2,1.6736978E3,8.342055E1,2.4045767E1,4.2279762E1],"tree_param":{"num_deleted":"0","num_feature":"11","num_nodes":"15","size_leaf_vector":"1"}},{"base_weights":[3.003197E-3,1.3877612E-1,-7.529713E-2,6.805671E-1,1.2321067E-1,-1.12666726E-1,1.0734403E-1,1.9019756E-2,3.866344E-2,6.7566913E-3,-7.918114E-3,-5.120084E-4,-7.880771E-3,1.1236526E-2,-3.1438814E-3],"categories":[],"categories_nodes":[],"categories_segments":[],"categories_sizes":[],"default_left":[0,0,0,0,0,0,0,0,0,0,0,0,0,0,0],"id":74,"left_children":[1,3,5,7,9,11,13,-1,-1,-1,-1,-1,-1,-1,-1],"loss_changes":[3.0384293E1,8.731989E0,1.2384268E1,9.1990566E-1,7.5170174E0,9.159157E0,7.562193E0,0E0,0E0,0E0,0E0,0E0,0E0,0E0,0E0],"parents":[2147483647,0,0,1,1,2,2,3,3,4,4,5,5,6,6],"right_children":[2,4,6,8,10,12,14,-1,-1,-1,-1,-1,-1,-1,-1],"split_conditions":[2.4901189E-1,-1.2633402E0,1.3594189E0,-9.046801E-1,1.510896E0,6.404452E-1,8.2418936E-1,1.9019756E-2,3.866344E-2,6.7566913E-3,-7.918114E-3,-5.120084E-4,-7.880771E-3,1.1236526E-2,-3.1438814E-3],"split_indices":[1,0,7,6,8,2,5,0,0,0,0,0,0,0,0],"split_type":[0,0,0,0,0,0,0,0,0,0,0,0,0,0,0],"sum_hessian":[2.8560837E3,1.0443707E3,1.8117131E3,2.7973307E1,1.0163974E3,1.5043054E3,3.0740768E2,1.2176902E1,1.5796406E1,9.383991E2,7.799826E1,5.594283E2,9.4487714E2,1.7172325E2,1.3568445E2],"tree_param":{"num_deleted":"0","num_feature":"11","num_nodes":"15","size_leaf_vector":"1"}},{"base_weights":[9.496699E-3,3.547729E-1,-2.0949738E-2,5.340204E-1,1.7550758E-1,-5.406412E-2,1.1741696E-1,1.5320351E-2,3.0832816E-2,-1.4540457E-2,1.3469425E-2,5.0640116E-3,-4.4370038E-3,1.6183417E-2,1.551816E-3],"categories":[],"categories_nodes":[],"categories_segments":[],"categories_sizes":[],"default_left":[0,0,0,0,0,0,0,0,0,0,0,0,0,0,0],"id":75,"left_children":[1,3,5,7,9,11,13,-1,-1,-1,-1,-1,-1,-1,-1],"loss_changes":[2.9899374E1,7.3121243E0,1.1983553E1,2.9939728E0,6.9904222E0,1.5031551E1,9.979757E0,0E0,0E0,0E0,0E0,0E0,0E0,0E0,0E0],"parents":[2147483647,0,0,1,1,2,2,3,3,4,4,5,5,6,6],"right_children":[2,4,6,8,10,12,14,-1,-1,-1,-1,-1,-1,-1,-1],"split_conditions":[-7.3454E-1,-3.58292E-1,1.165627E0,-7.158354E-1,-9.398644E-1,-1.6282167E-1,4.6336135E-1,1.5320351E-2,3.0832816E-2,-1.4540457E-2,1.3469425E-2,5.0640116E-3,-4.4370038E-3,1.6183417E-2,1.551816E-3],"split_indices":[1,8,7,4,2,0,0,0,0,0,0,0,0,0,0],"split_type":[0,0,0,0,0,0,0,0,0,0,0,0,0,0,0],"sum_hessian":[2.8424858E3,2.2947577E2,2.61301E3,1.1375404E2,1.1572172E2,2.1089082E3,5.0410175E2,4.87594E1,6.4994644E1,2.222731E1,9.349441E1,4.3678903E2,1.6721191E3,1.303374E2,3.7376434E2],"tree_param":{"num_deleted":"0","num_feature":"11","num_nodes":"15","size_leaf_vector":"1"}},{"base_weights":[9.641213E-3,1.2182931E-1,-5.754155E-2,1.4958788E-1,-2.895938E-1,-1.0825487E-1,7.069838E-2,2.9281802E-2,5.9797396E-3,-4.6952922E-2,-5.5083367E-3,-1.5892255E-3,-1.5767349E-2,8.251199E-3,-1.2108185E-2],"categories":[],"categories_nodes":[],"categories_segments":[],"categories_sizes":[],"default_left":[0,0,0,0,0,0,0,0,0,0,0,0,0,0,0],"id":76,"left_children":[1,3,5,7,9,11,13,-1,-1,-1,-1,-1,-1,-1,-1],"loss_changes":[2.1622107E1,1.231415E1,1.1677287E1,9.122248E0,8.396435E0,2.239228E1,1.8875479E1,0E0,0E0,0E0,0E0,0E0,0E0,0E0,0E0],"parents":[2147483647,0,0,1,1,2,2,3,3,4,4,5,5,6,6],"right_children":[2,4,6,8,10,12,14,-1,-1,-1,-1,-1,-1,-1,-1],"split_conditions":[3.805735E-1,2.0614555E0,8.8248473E-1,-1.2189887E0,-9.301969E-1,5.284879E-1,1.6713759E0,2.9281802E-2,5.9797396E-3,-4.6952922E-2,-5.5083367E-3,-1.5892255E-3,-1.5767349E-2,8.251199E-3,-1.2108185E-2],"split_indices":[2,3,4,0,7,3,0,0,0,0,0,0,0,0,0],"split_type":[0,0,0,0,0,0,0,0,0,0,0,0,0,0,0],"sum_hessian":[2.8668242E3,1.073455E3,1.7933693E3,1.0062031E3,6.725176E1,1.2852604E3,5.0810883E2,3.540162E1,9.708015E2,1.1564049E1,5.568771E1,9.822742E2,3.0298624E2,3.830675E2,1.25041336E2],"tree_param":{"num_deleted":"0","num_feature":"11","num_nodes":"15","size_leaf_vector":"1"}},{"base_weights":[-5.721625E-3,3.387348E-1,-3.5857577E-2,5.3057396E-1,1.6018632E-1,2.08223E-2,-1.5075272E-1,1.0679712E-2,3.193258E-2,-1.3105539E-2,1.4208588E-2,2.5494362E-3,-5.8911205E-3,-1.5975151E-2,-2.147099E-3],"categories":[],"categories_nodes":[],"categories_segments":[],"categories_sizes":[],"default_left":[0,0,0,0,0,0,0,0,0,0,0,0,0,0,0],"id":77,"left_children":[1,3,5,7,9,11,13,-1,-1,-1,-1,-1,-1,-1,-1],"loss_changes":[2.9622396E1,7.7786446E0,1.7090635E1,5.3626537E0,8.223137E0,9.238129E0,1.7897476E1,0E0,0E0,0E0,0E0,0E0,0E0,0E0,0E0],"parents":[2147483647,0,0,1,1,2,2,3,3,4,4,5,5,6,6],"right_children":[2,4,6,8,10,12,14,-1,-1,-1,-1,-1,-1,-1,-1],"split_conditions":[-7.8918177E-1,-3.6862615E-1,9.1664875E-1,-9.732617E-1,-8.153572E-1,1.3364006E0,7.2265273E-1,1.0679712E-2,3.193258E-2,-1.3105539E-2,1.4208588E-2,2.5494362E-3,-5.8911205E-3,-1.5975151E-2,-2.147099E-3],"split_indices":[1,8,0,7,7,2,4,0,0,0,0,0,0,0,0],"split_type":[0,0,0,0,0,0,0,0,0,0,0,0,0,0,0],"sum_hessian":[2.8514814E3,2.2857782E2,2.6229038E3,1.0923744E2,1.1934037E2,1.7569747E3,8.6592896E2,4.0519115E1,6.871833E1,2.990688E1,8.9433495E1,1.4246344E3,3.323404E2,2.956303E2,5.7029865E2],"tree_param":{"num_deleted":"0","num_feature":"11","num_nodes":"15","size_leaf_vector":"1"}},{"base_weights":[4.0820786E-3,2.0801912E-1,-2.9697377E-2,7.378597E-1,1.6291703E-1,-5.6345914E-2,1.1878479E-1,1.7704591E-2,3.878544E-2,-5.217436E-3,1.0544784E-2,-2.0759935E-3,-2.3260834E-2,2.2238929E-2,3.1492012E-3],"categories":[],"categories_nodes":[],"categories_segments":[],"categories_sizes":[],"default_left":[0,0,0,0,0,0,0,0,0,0,0,0,0,0,0],"id":78,"left_children":[1,3,5,7,9,11,13,-1,-1,-1,-1,-1,-1,-1,-1],"loss_changes":[1.9645037E1,9.563387E0,9.687406E0,9.0390396E-1,7.1010475E0,1.0194555E1,6.8016505E0,0E0,0E0,0E0,0E0,0E0,0E0,0E0,0E0],"parents":[2147483647,0,0,1,1,2,2,3,3,4,4,5,5,6,6],"right_children":[2,4,6,8,10,12,14,-1,-1,-1,-1,-1,-1,-1,-1],"split_conditions":[-4.0668935E-1,-1.2189887E0,1.3594189E0,-1.0949169E0,1E0,2.2691636E0,2.4310732E-1,1.7704591E-2,3.878544E-2,-5.217436E-3,1.0544784E-2,-2.0759935E-3,-2.3260834E-2,2.2238929E-2,3.1492012E-3],"split_indices":[1,0,7,6,9,8,0,0,0,0,0,0,0,0,0],"split_type":[0,0,0,0,0,0,0,0,0,0,0,0,0,0,0],"sum_hessian":[2.8498047E3,4.0422354E2,2.445581E3,3.0504908E1,3.7371866E2,2.0739785E3,3.7160257E2,8.471109E0,2.2033796E1,7.356899E1,3.0014966E2,2.0265068E3,4.7471645E1,4.319382E1,3.2840875E2],"tree_param":{"num_deleted":"0","num_feature":"11","num_nodes":"15","size_leaf_vector":"1"}},{"base_weights":[4.594538E-3,2.774763E-1,-1.9272141E-2,3.8186556E-1,3.656874E-2,3.4757327E-2,-1.1951465E-1,3.462219E-2,1.4553655E-2,-4.6319537E-2,6.1383876E-3,2.8178352E-3,-8.213488E-3,-2.4015667E-2,-4.2538387E-3],"categories":[],"categories_nodes":[],"categories_segments":[],"categories_sizes":[],"default_left":[0,0,0,0,0,0,0,0,0,0,0,0,0,0,0],"id":79,"left_children":[1,3,5,7,9,11,13,-1,-1,-1,-1,-1,-1,-1,-1],"loss_changes":[1.8477217E1,5.724264E0,1.4135017E1,3.534212E0,7.351523E0,9.835019E0,9.732675E0,0E0,0E0,0E0,0E0,0E0,0E0,0E0,0E0],"parents":[2147483647,0,0,1,1,2,2,3,3,4,4,5,5,6,6],"right_children":[2,4,6,8,10,12,14,-1,-1,-1,-1,-1,-1,-1,-1],"split_conditions":[-7.4110633E-1,-6.281365E-1,9.5367455E-1,-1.4839541E0,-8.8008404E-1,1.4511309E0,-5.560034E-1,3.462219E-2,1.4553655E-2,-4.6319537E-2,6.1383876E-3,2.8178352E-3,-8.213488E-3,-2.4015667E-2,