tree
version=v4
num_class=1
num_tree_per_iteration=1
label_index=0
max_feature_idx=14
objective=binary sigmoid:1
feature_names=Column_0 Column_1 Column_2 Column_3 Column_4 Column_5 Column_6 Column_7 Column_8 Column_9 Column_10 Column_11 Column_12 Column_13 Column_14
feature_infos=[-2.2211327403531378:4.7598865468906615] [-7.3993306246347395:3.690608622933504] [-5.3943546147994796:5.7574230419916868] [-2.8172821512097124:6.5833397142164012] [-3.055307319902373:3.087346319959948] [-2.7274023531549312:6.8564741760468229] [-7.6499946728986021:6.8927945650856035] [-3.537246604418224:3.7245607762627726] [0:1] [0:1] [0:1] [0:1] [0:1] [0:1] [0:1]
tree_sizes=2670 2615 2658 2656 2652 2663 2652 2673 2678 2666 2675 2664 2669 2684 2651 2671 2651 2669 2670 2654 2659 2655 2670 2668 2648 2671 2667 2674 2657 2669 2668 2663 2673 2649 2657 2671 2663 2670 2642 2668 2653 2680 2682 2654 2679 2621 2636 2670 2630 2650 2665 2637 2647 2660 2659 2642 2652 2657 2644 2616 2683 2637 2659 2639 2624 2654 2660 2658 2647 2635 2670 2644 2636 2666 2647 2651 2629 2646 2661 2655 2658 2659 2660 2628 2649 2656 2660 2672 2640 2649 2646 2621 2647 2636 2632 2637 2662 2669 2670 2650

Tree=0
num_leaves=24
num_cat=0
split_feature=8 5 11 10 10 4 5 3 14 4 7 0 10 7 5 11 7 4 5 0 0 5 0
split_gain=3219.83 229.883 186.266 57.8056 51.1685 30.7057 13.5894 12.6989 11.0867 10.8628 12.0689 9.57667 8.11758 7.50448 6.54641 6.18331 5.36697 4.80781 4.83743 4.8272 4.64147 4.62484 4.59293
threshold=1.0000000180025095e-35 -0.28957741198081283 1.0000000180025095e-35 1.0000000180025095e-35 1.0000000180025095e-35 1.6471196190882742 -1.1276924155819268 -0.28354449542184784 1.0000000180025095e-35 0.77951317278003718 1.3635486991822796 -0.69887863938522909 1.0000000180025095e-35 2.0169880729956797 0.67822517601735588 1.0000000180025095e-35 -2.5077713645423945 0.38619825045363593 -0.58260303301103444 -1.2435853181657726 -1.0845602139580299 -0.075678796772639459 -1.6720391621461734
decision_type=2 2 2 2 2 2 2 2 2 2 2 2 2 2 2 2 2 2 2 2 2 2 2
left_child=2 3 7 6 5 9 22 12 -7 14 15 13 16 -10 20 -11 -1 18 -8 -20 21 -3 -2
right_child=1 4 -4 -5 -6 8 17 -9 11 10 -12 -13 -14 -15 -16 -17 -18 -19 19 -21 -22 -23 -24
leaf_value=-0.49659556018986872 -0.31140603134066563 -0.34043141315925374 -0.26834910224990927 -0.60126750643437776 -0.63508908237967865 -0.28584454816189708 -0.27607639337323003 -0.58405501997379994 -0.40961190941100567 -0.38828090636717966 -0.33365239093893584 -0.44520988740140716 -0.63508908237967865 -0.27736087526591857 -0.43996460577217317 -0.28278099961612707 -0.56060437189655254 -0.30799040225129393 -0.23153618757779246 -0.33688545518338675 -0.32489828316463099 -0.46213784175029876 -0.25290527419777786
leaf_weight=13.719053208827971 15.138265609741209 7.8056682050228119 19.632438212633133 5.9133850038051596 8.0422036051750165 5.4403142035007468 131.75021788477898 1020.8867870569229 14.192124009132387 259.71586936712265 52.747394233942032 95.323766261339188 14.192124009132383 6.1499204039573661 6.1499204039573661 5.6768496036529532 289.99240058660507 187.09950152039528 5.2037788033485439 26.491964817047119 83.496996253728867 5.2037788033485395 118.26770007610321
leaf_count=58 64 33 83 25 34 23 557 4316 60 1098 223 403 60 26 26 24 1226 791 22 112 353 22 500
internal_value=-0.472761 -0.340324 -0.574136 -0.290504 -0.3847 -0.380984 -0.286707 -0.57862 -0.425356 -0.368214 -0.377341 -0.431918 -0.561167 -0.369629 -0.33993 -0.386024 -0.557713 -0.297044 -0.284514 -0.319589 -0.333555 -0.389114 -0.259544
internal_weight=0 1039.81 1358.42 489.865 549.945 541.903 483.951 1338.79 121.106 420.796 318.14 115.666 317.904 20.342 102.656 265.393 303.711 350.545 163.446 31.6957 96.5064 13.0094 133.406
internal_count=10139 4396 5743 2071 2325 2291 2046 5660 512 1779 1345 489 1344 86 434 1122 1284 1482 691 134 408 55 564
is_linear=0
shrinkage=1


Tree=1
num_leaves=24
num_cat=0
split_feature=8 5 11 4 14 3 5 0 11 7 1 7 7 4 1 4 5 1 1 7 4 7 7
split_gain=2599.09 172.307 151.598 24.4748 15.0984 11.2147 10.0382 9.77136 9.04902 8.37542 8.80038 8.14188 10.139 7.66603 6.82157 5.8552 7.12027 4.8722 4.89783 4.57598 4.47207 5.8076 4.3766
threshold=1.0000000180025095e-35 -0.28957741198081283 1.0000000180025095e-35 1.6471196190882742 1.0000000180025095e-35 -0.28354449542184784 -1.1276924155819268 -1.2435853181657726 1.0000000180025095e-35 1.9306847594731549 -0.84765292352282129 0.35256702648984845 1.3635486991822796 2.2949324323317581 -1.5044357333302603 0.15483653143810591 0.11295950567058113 0.51974735263365168 -1.3967664202470733 -2.5077713645423945 0.66383231327227221 -0.27621425774568797 1.6224586397498528
decision_type=2 2 2 2 2 2 2 2 2 2 2 2 2 2 2 2 2 2 2 2 2 2 2
left_child=2 4 5 11 7 19 17 -2 9 -5 13 14 -13 -11 20 -16 -17 18 -6 -1 21 -3 -14
right_child=1 3 -4 8 6 -7 -8 -9 -10 10 -12 12 22 -15 15 16 -18 -19 -20 -21 -22 -23 -24
leaf_value=-0.025801118441321682 -0.02993667172047278 0.10118320201926545 0.17680821570943056 0.011175422353599793 0.13999755012040607 -0.10324162667833502 0.15231673686096098 0.13564101966652836 0.17185458532616549 0.169328535034387 0.033705242667112605 0.07447582013113177 0.13404786631543042 0.027754163001295979 0.052700808360228751 0.17058742888041889 0.10172343962904169 0.086525538921368744 0.19565338455203926 -0.08411821022214061 0.13633217821036914 -0.024664762600102572 0.056834203446733844
leaf_weight=14.094336271286009 6.7971047461032867 7.0106745660305032 20.380879357457161 70.696906208992004 18.381029516458511 991.9722489118576 356.05242821574211 7.4932559281587583 4.8992410302162162 11.545355439186098 31.719618409872055 290.24267540872097 45.47266611456871 5.7194785624742499 8.4902639687061292 35.302047729492188 26.126607954502106 4.9208933115005484 113.12429696321487 296.75678578019142 6.2517326474189749 7.68835473060608 8.7540961503982526
leaf_count=60 29 29 83 297 75 4316 1456 31 20 48 133 1205 187 24 35 145 108 20 460 1284 26 32 36
internal_value=0 0.115967 -0.0938144 0.0777312 0.158214 -0.0980479 0.161154 0.0568852 0.0386484 0.0331955 0.064976 0.0889154 0.0818915 0.122428 0.115542 0.13054 0.141298 0.184219 0.187874 -0.081474 0.0654889 0.0353582 0.121583
internal_weight=0 1066.69 1323.2 559.92 506.769 1302.82 492.479 14.2904 124.581 119.681 48.9845 435.339 344.469 17.2648 90.8697 69.9189 61.4287 136.426 131.505 310.851 20.9508 14.699 54.2268
internal_count=10139 4396 5743 2325 2071 5660 2011 60 522 502 205 1803 1428 72 375 288 253 555 535 1344 87 61 223
is_linear=0
shrinkage=0.1


Tree=2
num_leaves=24
num_cat=0
split_feature=8 2 11 10 2 2 3 14 11 2 3 10 5 11 7 7 7 7 1 2 7 5 5
split_gain=2118.03 200.771 124.827 37.9317 28.1356 14.1165 10.055 9.88785 9.0043 7.68196 8.72187 7.493 7.36355 6.71014 6.14925 7.19335 6.45188 5.7232 5.10564 4.589 6.19283 6.54266 6.00424
threshold=1.0000000180025095e-35 -0.64573818120507109 1.0000000180025095e-35 1.0000000180025095e-35 0.78285555783484306 -1.0794184234136155 -0.28354449542184784 1.0000000180025095e-35 1.0000000180025095e-35 -0.41978713064263568 -0.4959536402184353 1.0000000180025095e-35 -0.11908778027461074 1.0000000180025095e-35 0.91970308678072488 0.64846410142421829 -0.054291451544910448 0.91970308678072488 -0.52464498427325934 1.2930676074919554 0.7470964597356754 1.858747764393226 1.2382869622397568
decision_type=2 2 2 2 2 2 2 2 2 2 2 2 2 2 2 2 2 2 2 2 2 2 2
left_child=2 5 6 4 8 7 11 -2 9 18 -11 -1 17 19 15 16 -14 -12 -3 20 -6 22 -22
right_child=1 3 -4 -5 13 -7 -8 -9 -10 10 12 -13 14 -15 -16 -17 -18 -19 -20 -21 21 -23 -24
leaf_value=-0.071845257176447089 0.039821277181524978 0.080518757330101165 0.15646296623721645 -0.1452742873382917 0.12309042310419471 0.12642442705481879 -0.096077673277237458 0.16278327785646393 0.17173672378528293 0.036871220318803057 0.17106299426426794 -0.14881318156430653 -0.028981395862074724 0.13436839454953484 0.082526608708838947 0.015673876062398926 0.086938006513304245 0.074220568010793381 0.12894442820902094 -0.005026982814693862 0.033414811774501778 0.086577945431237452 -0.049356725968184793
leaf_weight=290.28685557842255 6.6775659322738639 54.933157816529274 20.706590920686722 8.7636541128158552 7.0786910504102698 199.52950090169907 960.97607856988907 316.83021353185177 9.6329479664564115 74.850723579525948 13.597290158271791 13.224634140729902 5.3990445882081977 4.9746012091636649 147.64398135244846 37.081818774342537 43.380614414811134 11.071338742971419 36.066518530249596 54.612943068146706 23.331712126731873 12.234238356351851 14.036136642098425
leaf_count=1284 28 223 83 38 29 807 4316 1273 39 304 55 60 22 20 606 152 177 45 146 227 96 51 58
internal_value=0 0.102818 -0.0870781 0.0611332 0.0644225 0.147343 -0.0910662 0.160245 0.0761346 0.0739627 0.0669268 -0.0751989 0.0756406 0.0207389 0.0701514 0.0488714 0.0741078 0.1276 0.0997116 0.0156599 0.035592 0.0231051 0.00232411
internal_weight=0 1081.73 1285.19 558.689 549.926 523.037 1264.49 323.508 433.657 424.024 333.025 303.511 258.174 116.268 233.505 85.8615 48.7797 24.6686 90.9997 111.294 56.6808 49.6021 37.3678
internal_count=10139 4396 5743 2288 2250 2108 5660 1301 1769 1730 1361 1344 1057 481 957 351 199 100 369 461 234 205 154
is_linear=0
shrinkage=0.1


Tree=3
num_leaves=24
num_cat=0
split_feature=8 2 11 10 2 14 3 2 14 2 10 5 3 5 4 3 3 1 5 5 11 5 4
split_gain=1737.4 163.15 103.545 34.158 24.4994 10.7423 9.10061 8.75486 8.48401 7.89976 6.87969 6.52789 6.44174 5.41653 5.87316 7.18127 5.40542 5.73218 5.60641 5.9858 5.40323 5.24043 5.20006
threshold=1.0000000180025095e-35 -0.67489315547119166 1.0000000180025095e-35 1.0000000180025095e-35 0.78285555783484306 1.0000000180025095e-35 -0.28354449542184784 -1.1923939486948341 1.0000000180025095e-35 -0.41978713064263568 1.0000000180025095e-35 0.36543278592353529 -0.4959536402184353 -0.11908778027461074 1.276940868663426 -0.46560947667606567 -0.28354449542184784 -0.77228440436459023 0.61685729874259432 0.80378760850775766 1.0000000180025095e-35 0.52203873445722448 1.3232132124665317
decision_type=2 2 2 2 2 2 2 2 2 2 2 2 2 2 2 2 2 2 2 2 2 2 2
left_child=2 5 6 4 8 -2 10 -7 -3 -10 -1 -9 -11 -14 15 -15 17 -17 21 -20 -6 -18 -16
right_child=1 3 -4 -5 20 7 -8 11 9 12 -12 -13 13 14 22 16 18 -19 19 -21 -22 -23 -24
leaf_value=-0.06627276677359327 0.040591191094124408 0.14808590620567039 0.14064611778797725 -0.13832833304009143 0.014045108348224283 0.14947803083314545 -0.089606155188405007 0.12559486055132515 0.089280772190852523 0.033730833334104593 -0.14206409595008837 0.030340196382449686 0.11188457093632052 0.16309377042767154 0.15839250694990573 -0.0295614989213429 0.059165651041557292 0.089794774642751971 -0.056372100941305119 0.047116563040024914 0.1203244211410949 0.15880453419409116 0.071979706375600028
leaf_weight=283.58458888530731 11.890998259186743 13.458208248019217 20.728150755167007 8.8472740650176984 111.53071922063828 255.66002349555492 929.02967756986618 218.3611960709095 122.14836710691452 74.899356424808502 12.504606872797011 7.4396082311868659 24.388464525341988 4.9395813047885886 7.3990307450294486 17.991826757788662 49.03882060945034 5.1828410178422919 8.3382330089807528 16.951306790113449 4.9979794174432746 5.9151830673217765 118.41525663435459
leaf_count=1284 49 54 83 40 461 1024 4316 875 491 303 60 30 98 20 30 73 199 21 34 69 20 24 481
internal_value=0 0.0919757 -0.0809905 0.0566945 0.0596409 0.134486 -0.0847405 0.136805 0.0698357 0.0675243 -0.0694736 0.122456 0.0595547 0.0670353 0.0623644 0.0452995 0.0396733 -0.00286836 0.0519595 0.0129952 0.0186035 0.0698907 0.0770616
internal_weight=0 1087.79 1245.85 594.442 585.595 493.352 1225.12 481.461 469.066 455.608 296.089 225.801 333.46 258.561 234.172 108.358 103.418 23.1747 80.2435 25.2895 116.529 54.954 125.814
internal_count=10139 4396 5743 2418 2378 1978 5660 1929 1897 1843 1344 905 1352 1049 951 440 420 94 326 103 481 223 511
is_linear=0
shrinkage=0.1


Tree=4
num_leaves=24
num_cat=0
split_feature=8 2 11 10 2 14 3 6 5 2 2 10 14 6 5 5 3 0 4 7 5 6 11
split_gain=1432.19 135.204 86.3049 28.3115 19.683 8.92998 8.28258 8.05528 8.61001 8.1198 7.72979 6.40039 5.73349 5.72808 5.33168 5.20732 4.83081 4.80477 6.57597 4.62726 4.55004 8.19262 4.40099
threshold=1.0000000180025095e-35 -0.67489315547119166 1.0000000180025095e-35 1.0000000180025095e-35 0.78285555783484306 1.0000000180025095e-35 -0.28354449542184784 0.34853940799271083 -0.30501926391225498 -0.10637115728183844 -1.1923939486948341 1.0000000180025095e-35 1.0000000180025095e-35 0.14225870958158729 0.36543278592353529 0.05520737897743809 -0.32602632438116552 -0.093486518539202243 1.7628004785960394 1.6717748189055814 -0.80962622353480651 -0.2703026872406597 1.0000000180025095e-35
decision_type=2 2 2 2 2 2 2 2 2 2 2 2 2 2 2 2 2 2 2 2 2 2 2
left_child=2 5 6 4 7 -2 11 8 16 19 -7 -1 -10 -14 20 -15 -3 -11 -19 -9 21 -12 -6
right_child=1 3 -4 -5 22 10 -8 9 12 17 14 -13 13 15 -16 -17 -18 18 -20 -21 -22 -23 -24
leaf_value=-0.061146276222344934 0.036340157940767413 0.068063114286861667 0.12784438202602846 -0.1313407787789104 0.012608721316666772 0.13584422831500309 -0.083686204439781697 0.11252680448309005 0.13044127696754701 0.055935526942656057 0.10319274622014069 -0.13649361100701787 0.020187362045948388 0.01847491130076442 0.027239571389984257 0.088551895994073926 0.15195381067058769 0.13584097596539244 0.0045533238925659211 0.022054637281777579 0.12214936632553289 -0.012086151431288937 0.10867960154800212
leaf_weight=276.97877803444862 11.950393944978712 82.881146401166916 20.532320126891136 8.4088274538516981 111.79771061241627 253.29165090620518 896.97278612852097 64.150458067655563 6.2342553734779349 127.77650253474712 53.164471819996834 11.752147555351256 108.92640225589275 16.889188006520271 7.4568090438842765 28.493366047739983 7.4840673357248297 17.089269831776623 4.9116801023483267 6.1995230913162223 157.849290817976 6.973497509956359 4.9807737022638312
leaf_count=1284 49 332 83 40 461 1024 4316 258 25 516 214 60 439 68 30 115 30 69 20 25 633 28 20
internal_value=0 0.0828471 -0.0754244 0.0508511 0.0534574 0.121725 -0.0789443 0.0625687 0.0503199 0.0765303 0.123856 -0.0642131 0.036422 0.0326235 0.110388 0.0624726 0.075011 0.0633676 0.106531 0.104554 0.113232 0.0898252 0.0167063
internal_weight=0 1086.91 1206.24 596.223 587.814 490.686 1185.7 471.036 250.908 220.127 478.736 288.731 160.543 154.309 225.444 45.3826 90.3652 149.777 22.0009 70.35 217.987 60.138 116.778
internal_count=10139 4396 5743 2418 2378 1978 5660 1897 1009 888 1929 1344 647 622 905 183 362 605 89 283 875 242 481
is_linear=0
shrinkage=0.1


Tree=5
num_leaves=24
num_cat=0
split_feature=8 2 11 10 2 2 14 3 2 10 11 4 4 4 3 0 2 3 0 2 2 4 1
split_gain=1184.44 114.133 72.1573 23.5864 16.7062 8.31511 7.57334 7.55879 7.02586 6.00866 5.76998 5.46198 5.78862 4.74162 4.37127 4.36836 4.94717 4.77169 4.34672 4.6621 5.63143 4.365 4.93589
threshold=1.0000000180025095e-35 -0.67489315547119166 1.0000000180025095e-35 1.0000000180025095e-35 1.2930676074919554 -0.41978713064263568 1.0000000180025095e-35 -0.28354449542184784 -1.1923939486948341 1.0000000180025095e-35 1.0000000180025095e-35 0.49031102401062465 0.84892168848469585 0.39776633640441178 0.062378968961166549 -0.97452215334531622 -0.55827325840670827 -0.77511994480823598 -0.093486518539202243 0.83752113458381949 0.89947545489932601 1.9363217678576867 -0.84765292352282129
decision_type=2 2 2 2 2 2 2 2 2 2 2 2 2 2 2 2 2 2 2 2 2 2 2
left_child=2 6 7 4 5 15 -2 9 -8 -1 11 13 -13 -7 -4 16 17 -3 19 21 -21 -14 -23
right_child=1 3 14 -5 -6 10 8 -9 -10 -11 -12 12 18 -15 -16 -17 -18 -19 -20 20 -22 22 -24
leaf_value=-0.056408053160023557 0.032575238163471368 0.057895564789536481 0.17164745290363373 -0.12534918583977112 -0.0034049009564949663 0.029928680124111803 0.124597570209252 -0.078215111995402764 0.10017350073253711 -0.13183764891003119 0.11767709048519215 0.076811923605105525 0.039183430013442218 -0.059475464500406229 0.077409589560687192 0.092378802855416567 0.09127626244337872 -0.022932151064564005 0.073411077296363356 -0.08188395394131498 0.02417741755290068 0.16051406116905248 0.034265909377423409
leaf_weight=270.56528028845787 11.995815202593802 20.918837875127792 8.5112642496824282 7.9532710909843436 57.053151175379753 18.645791515707973 248.76607137918472 865.41953301429749 223.67733734846115 10.989684134721754 11.109461754560469 57.972501650452614 230.83950088918209 8.7000505924224836 11.67259097099304 71.054430022835732 21.933104038238525 11.222048401832579 39.422322571277618 6.5716825276613262 21.014582291245461 6.4676991403102875 5.9418455213308317
leaf_count=1284 49 84 35 40 236 75 1024 4316 905 60 45 233 929 35 48 285 88 45 160 27 86 26 24
internal_value=0 0.0749803 -0.0702863 0.0457093 0.0480196 0.0535364 0.111042 -0.0735847 0.113034 -0.0593522 0.0466005 0.0446044 0.0478066 0.00148485 0.117148 0.0760791 0.0546609 0.0296744 0.0423868 0.037871 -0.00108884 0.0422893 0.100065
internal_weight=0 1081.26 1167.16 596.82 588.867 531.814 484.439 1146.97 472.443 281.555 406.685 395.576 368.23 27.3458 20.1839 125.128 54.074 32.1409 310.258 270.835 27.5863 243.249 12.4095
internal_count=10139 4396 5743 2418 2378 2142 1978 5660 1929 1344 1640 1595 1485 110 83 502 217 129 1252 1092 113 979 50
is_linear=0
shrinkage=0.1


Tree=6
num_leaves=24
num_cat=0
split_feature=8 2 14 2 6 2 3 1 3 1 6 3 2 7 2 4 14 4 6 7 4 7 1
split_gain=981.698 97.7841 24.1048 12.0899 8.92388 8.78895 7.60687 7.24963 6.82911 6.04675 7.43442 7.39785 5.51966 5.48581 8.50514 5.36318 5.19872 5.03503 4.98018 4.82739 4.56397 6.35257 6.06489
threshold=1.0000000180025095e-35 -0.64573818120507109 1.0000000180025095e-35 0.51681641765649189 0.34853940799271083 -1.0794184234136155 -0.28354449542184784 0.30979219212143699 -0.21678733562863417 -0.52464498427325934 -0.92008688723569831 -0.083273016042208478 1.4643530813054146 1.030664489881113 0.068558688314886165 0.84892168848469585 1.0000000180025095e-35 1.0687153215494496 1.7873472794102976 -2.3474937822862771 1.6471196190882742 1.3635486991822796 -1.1921947253890177
decision_type=2 2 2 2 2 2 2 2 2 2 2 2 2 2 2 2 2 2 2 2 2 2 2
left_child=2 5 7 4 9 16 19 -1 -5 10 -3 15 -10 -13 -15 -11 -2 -17 -8 -4 21 -6 -22
right_child=1 3 6 8 20 -7 18 -9 12 11 -12 13 -14 14 -16 17 -18 -19 -20 -21 22 -23 -24
leaf_value=-0.034018085817900438 0.024156037843365012 -0.05867242073193514 -0.0019202017992643009 -0.089214872091407924 0.062568237106761196 0.083465741983034955 -0.074889755804070854 0.044640577873164618 0.031419644966187515 0.10684479710610169 0.029451038341346925 -0.03363721056497071 -0.011946522582317546 0.1583393781647755 -0.024101043892564237 -0.0068141373696035679 0.11238065093429153 0.086212716564231587 -0.035167199576195046 -0.057288220663102532 0.098302450408491074 0.11578498636881927 0.0036688590077362249
leaf_weight=23.808009341359138 6.8295635730028144 10.294277325272558 16.824071913957596 5.94247281551361 123.32163977622986 197.99764700233936 786.64741383492947 23.072200700640678 112.08153836429119 29.593003496527672 136.7013905197382 12.616782844066622 39.762511163949966 4.9898506850004178 5.2372708767652512 10.917840585112573 303.13668112456799 12.456021443009375 32.881745845079422 245.94287601113319 9.5405612736940366 27.418390706181526 23.339366033673286
leaf_count=121 28 42 79 24 496 807 4067 109 458 120 554 51 165 20 21 44 1273 50 170 1197 39 110 94
internal_value=0 0.0680961 -0.065508 0.0394414 0.0485622 0.0999238 -0.0685488 0.00469395 0.015948 0.0351103 0.0232797 0.0580498 0.0200636 0.010483 0.0649123 0.0785648 0.110437 0.0427602 -0.073296 -0.0537432 0.0648848 0.0722479 0.0311281
internal_weight=0 1072.18 1129.18 564.213 406.426 507.964 1082.3 46.8802 157.787 222.806 146.996 75.8108 151.844 22.8439 10.2271 52.9669 309.966 23.3739 819.529 262.767 183.62 150.74 32.8799
internal_count=10139 4396 5743 2288 1641 2108 5513 230 647 902 596 306 623 92 41 214 1301 94 4237 1276 739 606 133
is_linear=0
shrinkage=0.1


Tree=7
num_leaves=24
num_cat=0
split_feature=8 2 11 10 2 10 14 3 14 11 6 2 6 3 6 5 5 5 6 3 5 1 5
split_gain=814.016 85.124 56.4592 19.7646 12.3934 7.5363 21.3604 6.94968 6.93491 6.29676 6.12507 6.78391 6.32686 5.37845 5.14335 6.32277 4.96373 9.62976 4.64606 5.04503 5.90367 4.63875 4.60251
threshold=1.0000000180025095e-35 -0.73684747578669829 1.0000000180025095e-35 1.0000000180025095e-35 0.51681641765649189 1.0000000180025095e-35 1.0000000180025095e-35 -0.28354449542184784 1.0000000180025095e-35 1.0000000180025095e-35 0.34853940799271083 -0.41978713064263568 -0.92008688723569831 -0.21678733562863417 2.6124700730547921 2.272421593366456 0.020298405820652423 0.074075204526270269 0.26087011116798386 -0.52022897105233046 -0.2647266179281425 -0.96608916791432631 0.61685729874259432
decision_type=2 2 2 2 2 2 2 2 2 2 2 2 2 2 2 2 2 2 2 2 2 2 2
left_child=2 8 5 4 10 6 -1 -8 -2 13 11 -3 -13 -6 -15 -16 18 -18 19 20 -14 -22 -12
right_child=1 3 -4 -5 9 -7 7 -9 -10 -11 22 12 16 14 15 -17 17 -19 -20 -21 21 -23 -24
leaf_value=0.13286946932566079 0.017652158725510073 0.056410377984668261 0.10698919383121337 -0.12171697506146069 -0.086190750297653496 -0.12255375100844138 -0.049575484451977056 -0.068512552860031675 0.097875627103133189 0.11178999760123437 0.076084184109794784 -0.076507989587071473 0.06227592834969136 0.02559401379439907 -0.10950261540777978 0.0020126194568639154 -0.10041271523502436 0.02201960189935695 -0.023588739062873811 0.091560218740490348 0.024209083029241962 -0.091684564030786037 0.044982378784445332
leaf_weight=5.5477610975503913 11.055533498525618 120.30795194208622 19.656409591436386 7.6255410760641089 5.4068201333284369 21.564035400748253 256.7186596095562 790.63038849830627 425.43062742054462 6.564854383468627 106.11572681367397 5.9574601650238028 27.426125183701512 111.72527034580708 6.3035416305065146 26.288531988859177 7.1987715512514105 59.711356073617935 8.4575154632329923 24.203704178333282 10.189801201224325 5.2244032919406918 86.254372671246529
leaf_count=28 45 489 83 40 22 119 1276 4237 1813 27 427 24 110 454 26 109 29 240 34 98 41 21 347
internal_value=0 0.0619578 -0.0609602 0.0382913 0.0402678 -0.0640328 -0.0628342 -0.0638708 0.0958437 0.0159321 0.0485172 0.0387643 0.0244556 0.0117291 0.0153977 -0.0195552 0.0286791 0.00884727 0.0462543 0.0550649 0.034446 -0.0150713 0.0621388
internal_weight=0 1061.45 1094.12 624.962 617.336 1074.46 1052.9 1047.35 436.486 156.289 461.047 268.677 148.369 149.724 144.317 32.5921 142.412 66.9101 75.5015 67.044 42.8403 15.4142 192.37
internal_count=10139 4396 5743 2538 2498 5660 5541 5513 1858 638 1860 1086 597 611 589 135 573 269 304 270 172 62 774
is_linear=0
shrinkage=0.1


Tree=8
num_leaves=24
num_cat=0
split_feature=9 2 11 10 10 2 10 0 11 2 6 4 5 6 6 2 5 6 1 6 2 2 3
split_gain=676.15 73.6849 47.3218 26.1828 16.6444 10.287 7.07506 7.11689 6.88384 6.44706 8.14991 6.14541 13.3946 5.43807 5.06048 4.78167 5.81005 6.0854 6.22562 4.27493 4.1942 7.63097 10.8547
threshold=1.0000000180025095e-35 -0.73684747578669829 1.0000000180025095e-35 1.0000000180025095e-35 1.0000000180025095e-35 1.2930676074919554 1.0000000180025095e-35 0.5703975946590979 1.0000000180025095e-35 -0.41978713064263568 -0.78600443326846836 -1.9158508537508874 -1.0107298760494625 1.7873472794102976 0.26087011116798386 -1.1923939486948341 -0.80962622353480651 -0.2703026872406597 -0.8261190609061837 -0.048550936448701391 1.6210610679858133 0.89947545489932601 0.63891807626618935
decision_type=2 2 2 2 2 2 2 2 2 2 2 2 2 2 2 2 2 2 2 2 2 2 2
left_child=1 3 6 15 5 8 7 11 9 14 -11 12 -2 20 -3 -1 17 18 -17 -4 21 -9 -23
right_child=2 4 19 -5 -6 -7 -8 13 -10 10 -12 -13 -14 -15 -16 16 -18 -19 -20 -21 -22 22 -24
leaf_value=0.10076166137895921 -0.034826950266527927 0.045484153486657179 0.13779067288946514 -0.14888509708139891 -0.11690406215547409 -0.0041159316103540101 -0.11826971216186329 -0.074811851513580205 0.11266711822583481 -0.061295721938822913 0.034286369118563746 -0.052802180696414458 0.15533447739546283 -0.02653384458483915 0.087258270271555485 0.020366131349152758 0.090417516671713383 -0.041276183464497525 0.093908697945686181 0.0413597750011198 -0.096923220509412239 0.06678740056961488 -0.053102868102515667
leaf_weight=232.39387787878513 22.895085617899898 110.69753862917423 11.45040735602379 4.593509152531623 7.1691848933696738 57.003381431102753 20.182069957256317 302.70114281773567 12.905035674571989 9.1314469426870328 386.55982366204262 488.60863664746284 4.4190744906663886 31.26075354218483 39.291502937674522 19.519267335534096 134.88099683821201 6.2425455749034873 28.055518537759781 7.6811272054910651 50.210548013448715 8.0984754860401136 111.87570139765739
leaf_count=1037 113 453 50 19 40 236 119 1678 54 37 1558 2613 22 170 160 84 571 26 121 33 279 45 621
internal_value=0 0.0565041 -0.0567724 0.0885691 0.0345861 0.0363503 -0.0596386 -0.0584786 0.0404799 0.0387727 0.0320806 -0.0502217 -0.00406131 -0.0669284 0.0564274 0.0911594 0.0793336 0.0515544 0.0637352 0.0990746 -0.0695987 -0.0663528 -0.0450101
internal_weight=0 1048.44 1059.38 425.686 622.758 615.589 1040.25 1020.07 558.585 545.68 395.691 515.923 27.3142 504.147 149.989 421.092 188.698 53.8173 47.5748 19.1315 472.886 422.675 119.974
internal_count=10139 4396 5743 1858 2538 2498 5660 5541 2262 2208 1595 2748 135 2793 613 1839 802 231 205 83 2623 2344 666
is_linear=0
shrinkage=0.1


Tree=9
num_leaves=24
num_cat=0
split_feature=9 2 11 2 1 13 0 7 1 4 6 2 2 6 7 0 7 11 2 5 0 6 6
split_gain=561.924 64.2618 39.7098 8.83302 6.34782 5.85488 6.36181 5.75648 5.39156 6.59804 7.7347 6.19416 5.39067 5.53276 5.09526 8.36414 5.45263 4.93714 4.61191 7.03876 4.86459 4.5738 4.50134
threshold=1.0000000180025095e-35 -0.73684747578669829 1.0000000180025095e-35 0.51681641765649189 -2.2150531996792924 1.0000000180025095e-35 0.5952566914088141 -2.5077713645423945 -0.78843480132706734 1.6471196190882742 0.41558063497632652 0.14144612398018791 0.38197466167568345 -0.17747637295565355 0.54983174311276251 -0.60748490133480237 0.47585747437916925 1.0000000180025095e-35 -1.9322014206976466 -1.6757383234902752 -1.3569135533483017 1.7873472794102976 0.19898590164464666
decision_type=2 2 2 2 2 2 2 2 2 2 2 2 2 2 2 2 2 2 2 2 2 2 2
left_child=1 4 5 8 -1 6 7 -2 22 10 14 -11 -8 -14 16 -16 -10 -5 -6 20 -20 -15 -3
right_child=2 3 -4 17 18 -7 12 -9 9 11 -12 -13 13 21 15 -17 -18 -19 19 -21 -22 -23 -24
leaf_value=0.0046303973922173346 0.023756567205158924 0.015902842409727828 0.092138877172713948 0.0071969932750857854 0.12341244797784388 0.067372400638889177 -0.080204164911809567 -0.049953028905505979 0.05145321110813722 -0.1021273113665733 0.080147204575492792 0.03168215309352599 -0.012755807688772935 -0.065211314740550516 0.044477617735185389 -0.026874885742148392 0.14724503045626305 0.097491098965976311 0.063771384686011665 0.083536682063440587 -0.071159898563273372 -0.024633424475871142 0.043501073829765202
leaf_weight=10.309464156627653 10.815852731466292 136.61089441180229 18.552371010184288 151.45333263278008 27.779810696840286 3.8629669994115821 148.21480011940002 519.32133184373379 46.330679848790169 5.2275891304016104 73.687136366963387 10.228131324052809 25.791915103793144 269.02543579041958 56.606827020645142 23.146319821476936 6.8164933621883383 6.3077951222658148 5.7835523784160614 365.05617582798004 4.9662190079689008 30.976205661892891 104.15878982841969
leaf_count=46 52 561 83 620 129 19 855 2864 192 21 300 41 148 1551 231 94 28 27 27 1633 23 171 423
internal_value=0 0.0515963 -0.0528347 0.0312416 0.0821153 -0.055503 -0.0559757 -0.0484492 0.0382071 0.0494464 0.0541614 -0.0135762 -0.0643934 -0.0572005 0.0397534 0.0237694 0.0637392 0.0108072 0.0840946 0.0811882 0.00143533 -0.0610215 0.027842
internal_weight=0 1034.47 1026.56 620.574 413.895 1008.01 1004.15 530.137 462.813 222.043 206.587 15.4557 474.008 325.794 132.9 79.7531 53.1472 157.761 403.586 375.806 10.7498 300.002 240.77
internal_count=10139 4396 5743 2538 1858 5660 5641 2916 1891 907 845 62 2725 1870 545 325 220 647 1812 1683 50 1722 984
is_linear=0
shrinkage=0.1


Tree=10
num_leaves=24
num_cat=0
split_feature=8 2 11 10 10 2 10 14 0 2 2 11 4 0 2 0 3 4 4 4 4 4 2
split_gain=466.66 55.8996 33.2857 21.9267 13.795 7.76632 6.98262 16.3543 6.0489 5.24173 5.2132 5.23228 5.04364 7.78462 4.86916 5.01417 4.10199 3.99712 4.91811 3.97017 3.85878 3.54401 5.64695
threshold=1.0000000180025095e-35 -0.73684747578669829 1.0000000180025095e-35 1.0000000180025095e-35 1.0000000180025095e-35 -0.41978713064263568 1.0000000180025095e-35 1.0000000180025095e-35 0.5703975946590979 0.38197466167568345 1.4643530813054146 1.0000000180025095e-35 -1.9158508537508874 0.2859802818461698 -1.1923939486948341 -1.4271039441710294 0.062378968961166549 0.49031102401062465 0.84892168848469585 0.39776633640441178 0.1317003595365526 2.2949324323317581 1.9782095027457915
decision_type=2 2 2 2 2 2 2 2 2 2 2 2 2 2 2 2 2 2 2 2 2 2 2
left_child=2 3 6 14 5 -3 7 -1 12 -10 11 17 13 -9 -2 20 -4 19 -19 -7 -16 22 -12
right_child=1 4 16 -5 -6 10 -8 8 9 -11 21 -13 -14 -15 15 -17 -18 18 -20 -21 -22 -23 -24
leaf_value=0.11697335559095275 0.088655446281904859 0.049572499235657271 0.14310236561402209 -0.1428469598114461 -0.1133890502239944 0.013830287712612702 -0.11284316461120024 -0.033246941541713919 -0.075034467480075875 -0.05230875408621069 -0.00097887331422012898 0.094003757686811809 -0.046118916552108841 0.089673235343130764 -0.062827232296544924 0.071751187001803135 0.045956209714650038 0.054448138800871265 0.022670804409020424 -0.068277998242005283 0.044269546559662594 0.033397068200192163 -0.099445453862527095
leaf_weight=5.8007824420928946 217.60995717346668 149.90089793503284 7.3594349175691631 4.5227782428264609 6.8035317212343207 18.503101706504825 18.264552414417267 20.023883238434795 149.34718245267868 316.75636115670204 18.835428997874264 11.218709915876387 460.64102607965469 6.9371131062507621 4.6816539764404324 163.85350960493088 10.617010548710821 57.234052702784538 326.78278975188732 8.6381392031908018 11.95645162463188 12.211059704422949 8.4312676638364774
leaf_count=28 1037 622 35 19 40 75 119 101 901 1877 78 49 2600 34 21 728 48 233 1320 35 53 51 35
internal_value=0 0.0470963 -0.0491135 0.076096 0.0282202 0.0297951 -0.0515926 -0.0504267 -0.0514449 -0.0595904 0.0233761 0.0266242 -0.0436584 -0.00161936 0.0785834 0.06644 0.0857272 0.0247857 0.0274069 -0.012302 0.0141345 -0.0113754 -0.0314262
internal_weight=0 1021.18 995.747 402.624 618.559 611.755 977.771 959.506 953.706 466.104 461.855 422.377 487.602 26.961 398.102 180.492 17.9764 411.158 384.017 27.1412 16.6381 39.4778 27.2667
internal_count=10139 4396 5743 1858 2538 2498 5660 5541 5513 2778 1876 1712 2735 135 1839 802 83 1663 1553 110 74 164 113
is_linear=0
shrinkage=0.1


Tree=11
num_leaves=24
num_cat=0
split_feature=8 2 11 10 10 10 14 2 6 0 2 6 7 5 2 5 6 1 4 1 4 7 0
split_gain=387.666 48.7978 27.9301 18.3964 11.7126 6.5683 13.2265 6.45407 5.64706 5.48111 4.93756 4.8682 4.73606 5.2262 4.54196 4.93424 5.44572 5.21837 4.21423 4.0145 4.04766 6.20164 8.51633
threshold=1.0000000180025095e-35 -0.73684747578669829 1.0000000180025095e-35 1.0000000180025095e-35 1.0000000180025095e-35 1.0000000180025095e-35 1.0000000180025095e-35 -0.41978713064263568 -0.78600443326846836 0.5952566914088141 1.2930676074919554 1.7873472794102976 -2.3474937822862771 -1.1934551278177716 -1.1923939486948341 -0.80962622353480651 -0.2703026872406597 -0.8261190609061837 -2.4942551512897122 -1.789759413000706 0.82578551658314259 0.72243837015781087 -1.0505617434032712
decision_type=2 2 2 2 2 2 2 2 2 2 2 2 2 2 2 2 2 2 2 2 2 2 2
left_child=2 3 5 14 7 6 -1 -3 -9 12 -10 -11 13 18 -2 16 17 -16 -8 -17 -21 22 -22
right_child=1 4 -4 -5 -6 -7 9 8 10 11 -12 -13 -14 -15 15 19 -18 -19 -20 20 21 -23 -24
leaf_value=0.10034069232359233 0.08294802566933912 0.045050971569716651 0.080041105982333854 -0.1334344988402337 -0.10938763712385369 -0.10950506181738853 0.056901556870317373 -0.053963483793579806 0.026688810122699122 -0.058716212026948933 -0.0048162652669740021 -0.016572963973363285 -0.042199761276294274 0.10808280417776697 0.0067039799421841281 0.020284832058480411 -0.05390446655104042 0.076005001857939097 -0.074701533942352669 0.090745194076700994 -0.12042485659481775 0.074955629395165604 0.071780334308561275
leaf_weight=6.0701796710491172 209.74170143902302 148.52529354393482 17.37147131562233 4.3657122254371634 6.3696585148572913 17.004321992397308 3.9975718408823004 9.8137890547513944 394.24728746712208 408.08616852760315 56.928274244070053 29.383858293294907 474.28646111488342 4.3120359480381003 18.711869969964027 13.509579807519911 6.0842992812395087 25.912669599056244 6.2180792838335028 77.388448446989059 4.436117485165596 25.786557957530022 4.7992527186870557
leaf_count=28 1037 622 83 19 40 119 19 40 1600 2531 236 169 2743 20 84 60 26 121 31 355 20 115 21
internal_value=0 0.0430495 -0.0456141 0.0706919 0.0255124 -0.0479134 -0.0467901 0.0269221 0.0210812 -0.0477542 0.0227136 -0.0558855 -0.040477 0.0157647 0.0729984 0.0611834 0.0348453 0.0469458 -0.0232028 0.07179 0.0779799 0.0497723 -0.0205435
internal_weight=0 1006.62 966.73 390.736 615.884 949.359 932.354 609.515 460.989 926.284 451.176 437.47 488.814 14.5277 386.37 176.629 50.7088 44.6245 10.2157 125.92 112.41 35.0219 9.23537
internal_count=10139 4396 5743 1858 2538 5660 5541 2498 1876 5513 1836 2700 2813 70 1839 802 231 205 50 571 511 156 41
is_linear=0
shrinkage=0.1


Tree=12
num_leaves=24
num_cat=0
split_feature=8 2 11 10 2 10 14 3 6 1 6 2 11 7 2 6 4 3 0 1 7 3 6
split_gain=321.9 42.7309 23.388 13.5762 7.23472 6.17851 10.7654 4.97132 4.58432 4.40019 4.24798 6.93657 4.39479 4.62167 4.19695 5.90426 4.09494 3.96343 3.96245 4.68212 4.08809 6.61586 5.97268
threshold=1.0000000180025095e-35 -0.86440048820097626 1.0000000180025095e-35 1.0000000180025095e-35 -0.41978713064263568 1.0000000180025095e-35 1.0000000180025095e-35 -0.28354449542184784 -0.78600443326846836 -2.2150531996792924 2.8187507714659152 1.9162551824302849 1.0000000180025095e-35 2.0169880729956797 -1.9322014206976466 -1.6162842443732399 0.38619825045363593 0.062378968961166549 -1.2158016217984429 -0.77228440436459023 0.71010932536887872 -1.0603550821065104 -0.78600443326846836
decision_type=2 2 2 2 2 2 2 2 2 2 2 2 2 2 2 2 2 2 2 2 2 2 2
left_child=2 9 5 4 -3 6 -1 -8 -6 -2 11 12 13 -10 -11 -16 -17 -4 19 20 21 22 -18
right_child=1 3 17 -5 8 -7 7 -9 10 14 -12 -13 -14 -15 15 16 18 -19 -20 -21 -22 -23 -24
leaf_value=0.087096360403419545 -0.0012382428513762057 0.042869454770464971 0.13448828196507329 -0.11352288133884046 -0.048702969282381749 -0.1064201777847293 -0.031580056508213446 -0.048620705059276507 0.020182620466680463 0.10919676319515709 -0.017733475722964152 -0.091360834386620141 0.09003172129323786 0.066478267172880301 0.0099909385341571417 0.079500220443549985 -0.034940170321897557 0.035218856718452672 0.068785921497514238 0.097323725622222246 0.077093442973726611 -0.10000592280558628 0.071694638215938203
leaf_weight=6.2815495431423178 9.0712872296571714 175.42366130650043 6.6662507355213192 7.0936216861009589 9.787737235426901 15.809279806911944 229.85200616717339 670.89096514880657 385.13443617522717 24.506070151925087 27.333468601107597 5.2434126734733573 9.9524518549442273 22.84239199757576 17.621439814567566 173.45675438642502 9.8530853390693665 10.139524474740027 81.296692296862602 8.6360926032066327 8.1487513184547407 5.64139296114445 11.249600857496262
leaf_count=28 43 752 35 45 40 119 1276 4237 1562 129 114 22 45 93 89 869 47 48 385 43 38 26 54
internal_value=0 0.039355 -0.0423137 0.024054 0.0255891 -0.0444427 -0.0433625 -0.0442723 0.0190034 0.0674987 0.0204744 0.0229423 0.0243763 0.0227747 0.0693304 0.0662378 0.0695607 0.0745955 0.0557488 0.0314 0.0150836 -0.00381038 0.0219056
internal_weight=0 992.292 939.64 642.811 635.718 922.834 907.025 900.743 460.294 349.481 450.506 423.173 417.929 407.977 340.41 315.904 298.282 16.8058 124.826 43.5289 34.8928 26.7441 21.1027
internal_count=10139 4396 5743 2673 2628 5660 5541 5513 1876 1723 1836 1722 1700 1655 1680 1551 1462 83 593 208 165 127 101
is_linear=0
shrinkage=0.1


Tree=13
num_leaves=24
num_cat=0
split_feature=9 2 11 10 10 10 3 11 2 6 5 3 3 0 2 5 6 1 6 4 5 4 1
split_gain=266.979 37.2395 19.5999 14.9356 8.41924 5.80817 5.7936 5.54938 5.84139 4.88192 9.97212 4.84417 4.77487 4.28061 4.13078 4.53023 4.58544 4.41293 3.78627 3.77496 3.91778 3.50545 3.43203
threshold=1.0000000180025095e-35 -0.73684747578669829 1.0000000180025095e-35 1.0000000180025095e-35 1.0000000180025095e-35 1.0000000180025095e-35 -0.72656928314044389 1.0000000180025095e-35 0.51681641765649189 -0.048550936448701391 0.029637430112954073 -0.7629822793912876 -0.21678733562863417 -0.839990570935088 -1.1923939486948341 -0.80962622353480651 -0.2703026872406597 -0.8261190609061837 -0.048550936448701391 0.59442379756761266 0.17544606820816411 -1.5225359314244866 -1.2244955193139735
decision_type=2 2 2 2 2 2 2 2 2 2 2 2 2 2 2 2 2 2 2 2 2 2 2
left_child=1 3 5 14 7 6 11 8 9 10 22 -2 -10 -14 21 16 17 -16 -4 -12 -21 -1 -3
right_child=2 4 18 -5 -6 -7 -8 -9 12 -11 19 -13 13 -15 15 -17 -18 -19 -20 20 -22 -23 -24
leaf_value=-0.0039600976775628453 -0.022549312417846759 -0.003547033434213673 0.11161745929229248 -0.12622378105931639 -0.10200874263030751 -0.10353296417491893 -0.042751955227299021 0.084690424374514794 -0.088690283809086903 0.033895891895682033 0.045091278411810598 0.062982126091714205 0.096009052662001826 0.0035666424810012285 0.00053235791653603274 0.062232002305163348 -0.055284123501132647 0.06549153180998328 0.013992875069490341 -0.10323881968358989 -0.024479508156963588 0.075479041122859358 0.035466166822874214
leaf_weight=5.7226524353027335 77.270490288734436 30.335612282156944 9.2653324604034442 4.2086355984210959 5.5307274907827368 14.683336421847342 799.17144261300564 13.769899740815161 5.4230052679777137 289.2003102004528 4.8897016346454611 7.2422991245985022 5.1957069486379615 139.49662062525749 18.306543961167336 119.97831097245216 6.0643748044967642 24.392741501331329 6.9548507183790198 9.3295682370662707 19.55253441631794 189.47390873730183 87.848531454801559
leaf_count=30 431 126 50 19 40 119 5069 63 22 1189 20 41 21 568 84 571 26 121 33 38 79 1007 372
internal_value=0 0.0359579 -0.0391883 0.0610786 0.0208113 -0.0411553 -0.0401189 0.021934 0.0204725 0.0262706 0.0117582 -0.0152197 0.00343337 0.00688613 0.0632446 0.0517861 0.026085 0.0376415 0.0697582 -0.0361641 -0.0499205 0.0731501 0.0254522
internal_weight=0 978.719 914.588 368.147 610.572 898.368 883.684 605.041 591.272 441.156 151.956 84.5128 150.115 144.692 363.939 168.742 48.7637 42.6993 16.2202 33.7718 28.8821 195.197 118.184
internal_count=10139 4396 5743 1858 2538 5660 5541 2498 2435 1824 635 472 611 589 1839 802 231 205 83 137 117 1037 498
is_linear=0
shrinkage=0.1


Tree=14
num_leaves=24
num_cat=0
split_feature=8 2 11 1 2 1 0 2 6 2 5 0 6 7 6 1 5 4 5 0 6 2 4
split_gain=221.243 32.4164 16.4052 6.35658 5.74559 5.20459 3.91507 4.27131 5.08345 3.85621 6.12395 3.85478 3.85021 3.82084 3.79943 3.70874 4.50542 4.2011 3.9347 6.49342 5.75609 4.30192 3.65962
threshold=1.0000000180025095e-35 -0.86440048820097626 1.0000000180025095e-35 0.98810886454551528 -0.41978713064263568 -0.44927646511502983 0.5952566914088141 0.38197466167568345 -0.17747637295565355 -1.9322014206976466 -1.6757383234902752 -1.3569135533483017 0.69921659529162128 -2.6927070363763757 -0.95102899199736657 -1.6336389090300847 -1.1276924155819268 -0.51611245370693137 -0.17105670368941964 -1.525078031361087 -1.5131438951676783 -1.1923939486948341 0.28208547689664676
decision_type=2 2 2 2 2 2 2 2 2 2 2 2 2 2 2 2 2 2 2 2 2 2 2
left_child=2 9 6 4 5 -3 13 14 -9 -2 11 -11 22 -1 -8 18 -17 -18 19 20 -12 -22 -7
right_child=1 3 -4 -5 -6 12 7 8 -10 10 15 -13 -14 -15 -16 16 17 -19 -20 -21 21 -23 -24
leaf_value=0.040963263880941979 0.097120565289925381 0.024727641310859839 0.065234362947836605 -0.096300864336528083 0.014700457485281121 0.11845878997082733 0.038983355245567758 0.0066636652099695687 -0.042417709778556231 0.033049286319153146 -0.081136420367884904 -0.092692033008381566 0.1360592376710148 -0.032947073634884687 -0.06370445476202212 0.085038798287688303 -0.026386609174888477 0.057179139577044562 -0.040548818066628536 0.09848969417424018 0.09440135510260933 -0.033563438086253353 0.040309415190394889
leaf_weight=7.1016353070735923 23.799663633108139 120.6051359474659 15.65577459335327 4.6903400868177405 459.04826703667641 7.1001757234334937 3.7137804627418509 22.980008870363235 258.22234231233597 5.5672697871923447 5.469200104475024 4.3376179337501508 6.2756800949573508 463.10022966563702 120.94115194678307 64.304593652486801 6.21381752192974 188.95372585952282 6.8289132863283148 12.41160908341408 6.7146431803703326 4.3156329542398417 38.398790523409843
leaf_count=35 136 526 83 20 1896 33 25 149 1728 30 28 22 28 2887 836 357 33 967 31 63 36 20 170
internal_value=0 0.0328634 -0.0362284 0.0196844 0.0205459 0.0361124 -0.0380416 -0.045237 -0.0384068 0.0583515 0.0553275 -0.0220162 0.0626325 -0.0318308 -0.0606451 0.0579225 0.0620823 0.0545185 0.027722 0.0438478 0.00274388 0.0443347 0.0525047
internal_weight=0 965.035 891.715 636.118 631.428 172.38 876.059 405.857 281.202 328.917 305.117 9.90489 51.7746 470.202 124.655 295.212 259.472 195.168 35.74 28.9111 16.4995 11.0303 45.499
internal_count=10139 4396 5743 2673 2653 757 5660 2738 1877 1723 1587 52 231 2922 861 1535 1357 1000 178 147 84 56 203
is_linear=0
shrinkage=0.1


Tree=15
num_leaves=24
num_cat=0
split_feature=0 4 2 10 11 4 10 1 4 2 2 4 5 5 6 2 5 6 4 4 4 0 4
split_gain=133.849 25.9544 25.6117 14.9332 12.6591 11.3092 10.0792 7.53199 6.81431 6.51755 5.62276 5.34295 5.27816 6.74544 5.29419 5.1382 4.6823 6.22268 7.81191 7.76128 7.48833 4.52121 4.49761
threshold=-0.28906911796711549 0.61755996946916591 -0.73684747578669829 1.0000000180025095e-35 1.0000000180025095e-35 -1.3374465562120628 1.0000000180025095e-35 -0.66461509128140339 0.32835782069975344 1.4643530813054146 -1.9322014206976466 -0.65492948511624938 -0.75728773445281572 -1.1276924155819268 -0.56940969993678858 -1.2944363586262564 -0.093188218788045882 0.044275377836304038 0.53658336781373006 0.77951317278003718 0.54815145376450725 -1.6720391621461734 2.2949324323317581
decision_type=2 2 2 2 2 2 2 2 2 2 2 2 2 2 2 2 2 2 2 2 2 2 2
left_child=2 4 3 5 7 10 8 11 12 -3 -1 -2 13 -4 -14 21 -10 20 -19 -20 -18 -7 -11
right_child=1 9 6 -5 -6 15 -8 -9 16 22 -12 -13 14 -15 -16 -17 17 18 19 -21 -22 -23 -24
leaf_value=0.099696101070341547 0.14091835394772559 0.023582205510944171 -0.040687360341772137 -0.11963407321067177 0.063174056167151285 0.0028262656900717156 -0.10296936889731421 -0.038498552751520365 0.035045262878714095 -0.029731546860274495 -0.034150994660210092 -0.00036924850895648522 -0.068270660331334512 0.049997214157678327 -0.0028358619060783793 0.042861402606704652 0.088592682460541472 -0.11401513373612182 0.08972668815850153 0.017435810003842901 -0.026681071877350748 0.071820034524678653 0.03877876691692704
leaf_weight=3.6622073948383358 3.5587519481778136 104.22542006522417 12.711020633578299 5.3190913498401633 12.819139406085013 10.16043710708618 7.4274144098162642 718.33039117604494 132.95949865877628 51.776169486343861 21.950463771820068 10.796795457601545 22.601708546280861 23.125119015574455 27.299091711640358 191.26439996063709 6.2515694200992575 4.2827239334583274 15.910164818167685 223.16522854566574 57.175038233399391 145.69193185865879 11.758447170257567
leaf_count=22 20 451 71 31 70 57 63 4788 572 287 123 71 123 127 135 974 27 18 69 919 236 835 50
internal_value=0 -0.0273446 0.0268304 0.0467382 -0.0353416 0.0491124 0.0127077 -0.0370652 0.0143428 0.008193 -0.015013 0.0346561 -0.0114471 0.0178315 -0.0324734 0.0538441 0.019371 0.0125778 0.0198487 0.0222467 -0.0153192 0.0673221 -0.0170522
internal_weight=0 913.265 910.957 378.049 745.505 372.729 532.909 732.686 525.481 167.76 25.6127 14.3555 85.7369 35.8361 49.9008 347.117 439.744 306.785 243.358 239.075 63.4266 155.852 63.5346
internal_count=10139 5737 4402 2042 4949 2011 2360 4879 2297 788 145 91 456 198 258 1866 1841 1269 1006 988 263 892 337
is_linear=0
shrinkage=0.1


Tree=16
num_leaves=24
num_cat=0
split_feature=8 2 11 1 11 2 1 4 6 2 2 7 7 3 4 2 6 4 7 2 3 2 6
split_gain=152.868 24.3949 11.6373 5.0607 4.81697 4.45456 5.63479 5.47261 4.37752 5.91458 4.73637 4.09535 6.01092 3.92631 3.92184 5.87665 5.72745 4.7226 5.45243 5.30021 3.8858 3.65876 4.97336
threshold=1.0000000180025095e-35 -0.86440048820097626 1.0000000180025095e-35 0.98810886454551528 1.0000000180025095e-35 0.51681641765649189 -0.49772765600246421 0.28208547689664676 0.19898590164464666 0.18882295716263395 0.090424919014476482 1.3388906096044153 0.62380601184635465 0.062378968961166549 1.5777111033836151 0.14144612398018791 0.41558063497632652 0.7679450868292601 0.9690192659364526 1.0000000180025095e-35 -0.21678733562863417 -1.9322014206976466 -1.6162842443732399
decision_type=2 2 2 2 2 2 2 2 2 2 2 2 2 2 2 2 2 2 2 2 2 2 2
left_child=2 21 -1 4 5 6 8 -8 -3 10 -10 12 -11 -4 16 -16 17 -9 -19 -20 -7 -2 -23
right_child=1 3 13 -5 -6 20 7 14 9 11 -12 -13 -14 -15 15 -17 -18 18 19 -21 -22 22 -24
leaf_value=-0.032508196138844189 0.089980632743077521 0.0031851309898208585 0.12424201577289214 -0.08689504936767789 0.076732695080924215 -0.082752228387052471 0.11265916191582909 0.053734514574314288 0.032969081666308894 0.0680990563674682 0.10287436262732619 0.035728270745450923 -0.046959450271712562 0.017458286881708526 -0.089755349785813232 0.038993331694330419 0.06859797106016341 -0.035705311228346311 0.062744256407380947 -0.03941875894157431 0.0038306206231813358 -0.0025518378516603745 0.050895652872010734
leaf_weight=837.60006911307573 21.753252416849136 183.89128155261278 5.4747238755226126 4.7255413532257071 13.207084923982618 5.3757167458534232 9.0410368442535383 28.63465328514576 82.629311800003052 5.606592848896983 10.980237886309622 17.737860113382339 23.878475964069366 9.2796983420848829 6.2701095640659323 8.1577726751565915 40.534810364246368 20.895162686705589 17.785762280225757 7.1074481904506674 144.90182786434889 18.608319535851479 270.3186469078064
leaf_count=5660 136 787 35 20 63 22 43 129 350 23 45 73 97 48 26 33 174 89 76 29 594 100 1487
internal_value=0 0.0274909 -0.0309574 0.0162025 0.01698 0.0156935 0.0205476 0.0374413 0.0133459 0.0266134 0.0411688 -0.00223987 -0.025081 0.0570811 0.0321853 -0.0169586 0.0383531 0.0218802 0.00195944 0.0335749 0.000733386 0.0504311 0.0474534
internal_weight=0 942.041 852.354 631.361 626.635 613.428 463.151 138.427 324.724 140.832 93.6095 47.2229 29.4851 14.7544 129.386 14.4279 114.958 74.423 45.7884 24.8932 150.278 310.68 288.927
internal_count=10139 4396 5743 2673 2653 2590 1974 599 1375 588 395 193 120 83 556 59 497 323 194 105 616 1723 1587
is_linear=0
shrinkage=0.1


Tree=17
num_leaves=24
num_cat=0
split_feature=9 5 11 10 10 14 1 3 6 3 3 11 5 1 5 7 14 6 6 5 4 5 3
split_gain=126.206 19.707 9.71088 7.78134 5.82519 9.26273 5.49729 5.3676 5.86307 4.81136 4.5249 4.86154 3.97508 5.94516 4.0848 4.65162 3.92495 3.92751 4.66886 7.51208 5.24514 4.93728 4.68512
threshold=1.0000000180025095e-35 -0.28957741198081283 1.0000000180025095e-35 1.0000000180025095e-35 1.0000000180025095e-35 1.0000000180025095e-35 0.75123637576250391 -0.36850815334048231 0.26087011116798386 -0.58091729813706972 -1.2060070671098846 1.0000000180025095e-35 -1.1276924155819268 -1.3967664202470733 -1.551314552785245 -1.4104863783274395 1.0000000180025095e-35 2.8187507714659152 0.19898590164464666 0.61685729874259432 0.80264934468158933 0.58605350096991138 -0.60519262897096537
decision_type=2 2 2 2 2 2 2 2 2 2 2 2 2 2 2 2 2 2 2 2 2 2 2
left_child=1 3 4 6 5 -2 7 8 12 -10 -3 16 13 14 -1 -16 -12 18 -18 20 -20 22 -22
right_child=2 10 -4 -5 -6 -7 -8 -9 9 -11 11 -13 -14 -15 15 -17 17 -19 19 -21 21 -23 -24
leaf_value=-0.089516512577594187 0.093047864865917707 -0.11111286636602763 0.053315858837492874 -0.090081059986879833 -0.097763381464670784 -0.029796759022927572 -0.046322384049481156 0.10795213526775467 0.03058892623653077 -0.113287686904451 -0.055844042107419757 0.078462478046796721 0.039042927437983405 0.073944821806340405 0.12922333767877955 -0.01678528075212906 0.0020078479403249881 -0.024655815852791522 0.082833072216529552 0.0095050585112479297 0.10863942119586606 0.1280350678274837 0.021117041786082043
leaf_weight=3.6062287539243689 6.1853487789630881 2.9288626760244361 14.266119614243506 4.3837914466857901 12.457406431436537 801.81615191698074 6.6336832642555228 13.279476091265677 5.1112946569919586 4.2626291811466199 8.3589800894260389 11.286500141024588 261.14104464650154 77.232043400406837 3.3994019925594321 6.0925781726837149 174.19034321606159 26.0107711404562 23.974326506257057 189.43774792551994 6.5220691263675681 5.0250049382448188 98.286445900797844
leaf_count=20 28 13 83 25 119 5513 32 64 25 21 50 56 1352 477 20 35 749 108 109 774 28 21 417
internal_value=0 0.0250668 -0.0284803 0.0423886 -0.0299026 -0.0288564 0.0439137 0.0455137 0.0432159 -0.0348365 0.0128488 0.0135173 0.0452976 0.0633798 0.00108407 0.0355054 0.012139 0.0132246 0.0152053 0.0223172 0.0404559 0.0312059 0.0265634
internal_weight=0 931.163 834.725 385.142 820.459 808.002 380.758 374.125 360.845 9.37392 546.021 543.092 351.471 90.3303 13.0982 9.49198 531.806 523.447 497.436 323.246 133.808 109.834 104.809
internal_count=10139 4396 5743 2071 5660 5541 2046 2014 1950 46 2325 2312 1904 552 75 55 2256 2206 2098 1349 575 466 445
is_linear=0
shrinkage=0.1


Tree=18
num_leaves=24
num_cat=0
split_feature=8 2 10 11 2 10 14 5 0 6 2 7 2 3 7 5 2 4 6 2 4 7 0
split_gain=104.153 19.9189 8.17379 8.06901 5.44077 5.38154 7.44407 4.57927 4.14251 4.87997 4.74913 10.4753 5.30601 13.9953 4.1306 8.68942 3.96748 5.3868 5.8675 4.48954 4.99998 3.88643 3.91181
threshold=1.0000000180025095e-35 -1.0794184234136155 1.0000000180025095e-35 1.0000000180025095e-35 -0.41978713064263568 1.0000000180025095e-35 1.0000000180025095e-35 -0.72040108556354265 0.5952566914088141 1.7873472794102976 1.6210610679858133 1.1662839825593665 0.89947545489932601 0.63891807626618935 -2.0146095729851115 -1.0107298760494625 0.78285555783484306 -0.14593370328208344 0.69921659529162128 0.38197466167568345 0.050723757881116945 1.5978005501719894 2.7254619378881615
decision_type=2 2 2 2 2 2 2 2 2 2 2 2 2 2 2 2 2 2 2 2 2 2 2
left_child=3 -2 4 5 -3 6 -1 -6 14 10 11 12 16 -14 15 -8 17 -10 19 -19 -21 22 -11
right_child=1 2 -4 -5 7 -7 8 -9 9 21 -12 -13 13 -15 -16 -17 -18 18 -20 20 -22 -23 -24
leaf_value=0.081162270051401378 0.049535356645432495 0.027672281221488449 -0.10279491473426464 0.049484852694623271 -0.085716304013284228 -0.09523063506491275 -0.013129706073225712 0.010287985118214403 -0.044996937385679586 0.053864964689916521 -0.072322833129908767 0.15439866743561556 0.13413369805748424 -0.026075300428923583 -0.023121015500643771 0.1276191899737405 -0.081035906679086681 -0.060228535795906681 -0.1188896802450379 0.12640772243384557 -0.0099609186724353288 -0.067823492475491118 -0.04658010115983674
leaf_weight=6.371198132634162 214.5492048561573 246.92669551074505 5.8673006221652022 13.855614140629767 5.024046152830123 11.556473478674887 19.360909521579746 448.41325221955776 167.25689449906349 14.733822748065 36.743638142943382 2.9152665734291068 5.8442240357398978 81.383788451552391 398.29058685898781 5.6711620390415183 26.258232027292252 3.4706756025552776 2.8061370700597754 6.5107353776693326 4.5800793021917343 5.4507282227277747 5.2618948668241492
leaf_count=28 1301 1173 46 83 21 119 108 1855 1271 98 278 21 39 597 2675 30 195 27 21 48 34 36 35
internal_value=0 0.0228505 0.0147438 -0.0261791 0.0157285 -0.0274823 -0.0264949 0.00922427 -0.0273669 -0.0352017 -0.0383832 -0.0342404 -0.0360852 -0.0153414 -0.0206446 0.0187578 -0.0446655 -0.0394927 0.0135154 0.0390312 0.0700927 0.00702848 0.0274327
internal_weight=0 920.78 706.231 818.322 700.364 804.466 792.91 453.437 786.539 363.216 337.77 301.026 298.111 87.228 423.323 25.0321 210.883 184.625 17.3676 14.5615 11.0908 25.4464 19.9957
internal_count=10139 4396 3095 5743 3049 5660 5541 1876 5513 2700 2531 2253 2232 636 2813 138 1596 1401 130 109 82 169 133
is_linear=0
shrinkage=0.1


Tree=19
num_leaves=24
num_cat=0
split_feature=9 2 11 2 3 3 5 5 7 7 0 7 7 2 7 1 5 3 3 0 7 7 7
split_gain=85.9453 17.088 6.70451 4.34746 3.93298 3.86225 3.60253 3.67168 8.23671 4.66088 3.89009 3.72731 4.63407 5.46102 4.33968 3.42653 5.311 5.20483 5.10201 4.43643 3.92708 3.13379 5.1714
threshold=1.0000000180025095e-35 -1.0794184234136155 1.0000000180025095e-35 -0.41978713064263568 0.062378968961166549 0.76029473043566786 -0.72040108556354265 -0.38913041211062221 0.19228944423373165 0.46352842959023699 -1.0936995877630726 0.38955416085664435 0.83339977325819958 -0.23027979791285108 1.4745101022826688 -0.013215747128123546 -0.80962622353480651 -1.0239420858556667 -0.78725761022518315 -0.43895484836981541 -2.6927070363763757 1.5978005501719894 1.3142325200265506
decision_type=2 2 2 2 2 2 2 2 2 2 2 2 2 2 2 2 2 2 2 2 2 2 2
left_child=1 -1 15 21 -4 -6 -5 8 -8 -10 11 -9 -13 -14 -15 16 17 -2 -18 -19 -17 22 -3
right_child=2 3 4 6 5 -7 7 10 9 -11 -12 12 13 14 -16 20 18 19 -20 -21 -22 -23 -24
leaf_value=0.045926126679521923 0.0023456266166703142 0.022804882650729229 0.11932702810747103 -0.076113973428525425 -0.064665141517290151 0.068523311767639691 -0.026745674081329437 -0.1172046266121054 0.17047347007494021 0.053576839164706208 0.0089045285050064968 0.057878445134727341 0.053776162537464672 -0.10814841911544615 0.0074394805512092189 0.044760247357418306 -0.093272357837402495 0.19104314043608081 -0.014767936042992168 0.030526359153611821 -0.029343156016084945 -0.047773069826270928 0.097300081522243967
leaf_weight=208.59052695333958 19.109725423157219 230.61628548800945 4.7299199849367133 5.0883054435253134 4.0959882587194425 4.647817388176918 9.9328212216496485 4.0853153169155147 4.8920766934752491 11.265229813754557 395.50231711566448 6.6053374931216267 4.7690767049789509 9.7107741534709842 4.8806271702051172 7.2336543202400199 8.9031223356723768 3.1544441133737564 118.00413864850998 3.7913093939423552 629.26053948700428 5.9298102855682364 9.7110234349966031
leaf_count=1301 119 1114 35 21 23 25 42 17 22 49 1647 28 20 42 21 40 57 20 828 24 4572 27 45
internal_value=0 0.0207913 -0.0240775 0.0133333 0.0458688 0.0061319 0.0075589 0.00850158 0.044916 0.0889706 0.00626905 -0.0284164 -0.0144469 -0.0391226 -0.0694858 -0.0252713 -0.0118323 0.0292911 -0.0202754 0.103426 -0.028501 0.0240431 0.025815
internal_weight=0 911.58 802.931 702.989 13.4737 8.74381 456.732 451.644 26.0901 16.1573 425.553 30.0511 25.9658 19.3605 14.5914 789.457 152.963 26.0555 126.907 6.94575 636.494 246.257 240.327
internal_count=10139 4396 5743 3095 83 48 1909 1888 113 71 1775 128 111 83 63 5660 1048 163 885 44 4612 1186 1159
is_linear=0
shrinkage=0.1


Tree=20
num_leaves=24
num_cat=0
split_feature=8 2 10 11 10 14 14 1 2 6 7 7 3 7 3 2 5 1 1 6 7 2 7
split_gain=70.7265 14.6065 7.01376 5.59283 5.10011 6.12662 4.15653 3.92317 3.88816 3.72256 3.68031 5.99884 5.45642 4.82711 4.0271 3.7511 4.50207 3.3649 6.30912 3.36269 5.74271 5.00752 5.87422
threshold=1.0000000180025095e-35 -1.0794184234136155 1.0000000180025095e-35 1.0000000180025095e-35 1.0000000180025095e-35 1.0000000180025095e-35 1.0000000180025095e-35 -1.3536986950137981 0.44392898199119007 -0.048550936448701391 2.0169880729956797 1.6841038636945131 0.11092963062895737 1.4005358335490756 0.47505959313739304 0.28357662352752605 0.41477479662296929 1.8871476287901248 1.7633279187444593 1.7873472794102976 1.5978005501719894 1.6210610679858133 1.1662839825593665
decision_type=2 2 2 2 2 2 2 2 2 2 2 2 2 2 2 2 2 2 2 2 2 2 2
left_child=3 -2 6 4 5 -1 7 -3 10 -5 11 13 -13 -8 -14 16 -15 18 19 21 -21 22 -7
right_child=1 2 -4 9 -6 17 8 -9 -10 -11 -12 12 14 15 -16 -17 -18 -19 -20 20 -22 -23 -24
leaf_value=0.074708490885694798 0.042518094113554894 -0.01095629771717011 -0.10022101829475749 0.09280069218920349 -0.092211688549841755 -0.02323172906267083 0.01416278348080828 0.088211386890041543 -0.0017098230848466474 -0.0141278232299498 0.090366428396673554 -0.1101425413835454 0.071340520779893501 0.071176165358173366 -0.04986362041013688 0.11113698536248583 -0.0055191026936838652 -0.056324893866041927 0.053128647222948272 0.040224839532665702 -0.080728075360638918 -0.062218636354150959 0.065864373310273019
leaf_weight=6.4671023935079566 203.07699252665043 5.6643501818180111 5.5197894796729079 6.9601090028882027 10.551791124045847 655.1987956687808 447.04946604371071 13.490244016051291 164.78204227983952 6.1173237413167936 6.5614996403455725 7.0592578053474453 4.8006939888000471 16.173364102840427 6.3903425335884094 8.1666804999113065 14.529696673154829 29.199181154370308 11.094701051712034 18.406002402305607 4.9894992113113394 32.860120803117752 7.4845458269119254
leaf_count=28 1301 27 46 50 119 4725 2013 66 671 33 28 30 20 72 26 34 62 228 86 122 35 265 52
internal_value=0 0.0189056 0.0120572 -0.0220705 -0.0231631 -0.0222116 0.0129493 0.0588858 0.0116468 0.042782 0.0159562 0.0149877 -0.0412972 0.0171017 0.00213013 0.050903 0.0348814 -0.0230371 -0.0217057 -0.0228606 0.0144295 -0.0241149 -0.0222255
internal_weight=0 903.264 700.187 789.329 776.252 765.7 694.668 19.1546 675.513 13.0774 510.731 504.17 18.2503 485.919 11.191 38.8697 30.7031 759.233 730.034 718.939 23.3955 695.543 662.683
internal_count=10139 4396 3095 5743 5660 5541 3049 93 2956 83 2285 2257 76 2181 46 168 134 5513 5285 5199 157 5042 4777
is_linear=0
shrinkage=0.1


Tree=21
num_leaves=24
num_cat=0
split_feature=8 2 11 3 3 1 1 1 5 5 5 5 5 5 6 2 1 5 5 4 6 5 2
split_gain=58.1912 12.6736 4.65079 4.05719 7.09468 6.60696 3.9559 3.95941 7.16335 7.18644 5.84593 7.01805 4.92757 4.16735 3.94127 6.34707 5.28655 5.01544 4.22668 5.74052 3.57128 5.72232 6.57111
threshold=1.0000000180025095e-35 -0.64573818120507109 1.0000000180025095e-35 0.074516634378113719 -0.2714068300048994 0.024468512450992765 -1.3536986950137981 0.089070100300904259 -1.551314552785245 -0.94276974633307653 -0.80962622353480651 -0.66642452163242083 -1.1776337219578721 -0.068607107789805416 -1.5131438951676783 -1.8046484082833685 -1.789759413000706 -0.38199879356013722 0.11295950567058113 0.83735360253391966 -0.46626935073122683 -0.52126512052009832 -0.49996330987446774
decision_type=2 2 2 2 2 2 2 2 2 2 2 2 2 2 2 2 2 2 2 2 2 2 2
left_child=2 3 -1 4 6 -6 14 12 -9 -10 -11 -12 -8 -14 15 -2 -17 -16 19 -19 21 -3 -23
right_child=1 20 -4 -5 5 -7 7 8 9 10 11 -13 13 -15 17 16 -18 18 -20 -21 -22 22 -24
leaf_value=-0.021217879832138509 0.042308207802127788 0.028743617380804581 0.039783111438084787 0.11294790037210301 -0.085973883944707244 0.065846768051360291 0.072540749246079714 -0.13687334743745949 0.073329080020979584 -0.12905774078054574 0.1278939515433539 -0.061520593968835136 0.031901505696930198 0.090812414937809907 0.047656434887238114 -0.0097233716068608565 -0.1597332038778207 0.0043060281735499443 0.053660256771245966 -0.10856328271424494 0.0099268636483180964 -0.14392121680218703 -0.022758193141133493
leaf_weight=763.97116896510124 7.1124544888734844 15.560146301984785 12.706229992210863 6.0589409321546546 9.5312591493129712 4.0992159843444815 48.19157600402832 3.1746105700731304 13.287019908428196 4.1678041219711313 3.3350922465324393 4.7307919114828065 158.80240832269192 12.990213975310324 41.651668205857277 4.8167142719030389 4.5860241204500172 14.948627367615705 8.4930821210145933 6.4505164176225653 495.01342234015465 5.5867909193038932 22.514514438807968
leaf_count=5660 46 70 83 29 46 21 341 20 86 23 20 28 928 66 252 26 27 78 40 31 2099 24 95
internal_value=0 0.0171878 -0.0202199 0.0318161 0.030413 -0.0403155 0.033276 0.0397257 0.00478876 0.0224106 -0.032892 0.0167988 0.044283 0.0363561 0.0150618 -0.0289709 -0.0828881 0.0252263 -0.00602762 -0.0297171 0.00750868 -0.0199075 -0.0468465
internal_weight=0 895.103 776.677 356.428 350.369 13.6305 336.739 248.68 28.6953 25.5207 12.2337 8.06588 219.984 171.793 88.0591 16.5152 9.40274 71.5439 29.8922 21.3991 538.675 43.6615 28.1013
internal_count=10139 4396 5743 2108 2079 67 2012 1512 177 157 71 48 1335 994 500 99 53 401 149 109 2288 189 119
is_linear=0
shrinkage=0.1


Tree=22
num_leaves=24
num_cat=0
split_feature=8 10 2 10 14 3 14 0 2 6 7 3 0 0 7 6 3 7 6 2 7 7 0
split_gain=47.825 11.4074 12.0603 4.87573 8.27783 4.22851 3.55936 3.54886 4.71143 4.78517 6.2491 4.38416 4.77042 5.52815 5.32953 3.89932 3.5174 5.90831 3.43669 4.09449 3.43334 3.28009 7.19914
threshold=1.0000000180025095e-35 1.0000000180025095e-35 -1.0794184234136155 1.0000000180025095e-35 1.0000000180025095e-35 0.062378968961166549 1.0000000180025095e-35 0.5952566914088141 0.38197466167568345 -0.36828601898594288 -0.27621425774568797 0.41437126605265379 0.87016905546449774 0.78462451664929833 -0.066620496333842483 -0.95102899199736657 0.76029473043566786 0.48818651916810196 1.7873472794102976 1.6210610679858133 1.067651624247909 -2.0146095729851115 0.26477693461847079
decision_type=2 2 2 2 2 2 2 2 2 2 2 2 2 2 2 2 2 2 2 2 2 2 2
left_child=3 2 -2 4 5 -1 -4 21 15 10 -10 -11 13 -13 -15 -9 -16 -18 19 20 -14 22 -6
right_child=1 -3 6 -5 7 -7 -8 8 9 11 -12 12 18 14 16 -17 17 -19 -20 -21 -22 -23 -24
leaf_value=0.11626438644244981 0.038963060043854081 -0.10321476750108688 0.053664313959014692 -0.089196108739748647 -0.013146110820134877 0.015159899303283365 0.009354903189739602 0.06178070885608053 0.18394487277356153 -0.082351412786138584 -0.015799493552403308 -0.017202350423502388 -0.025081579675337126 -0.05451871849384099 0.18597194428116695 -0.048490137870019392 -0.036634103236005938 0.12820927678212768 0.0099411837735535885 -0.063303551272759481 0.08494479388553075 -0.015200137099966286 0.10479135604144736
leaf_weight=6.0958237275481251 190.76366315037012 8.0037999078631383 18.632874429225922 9.6261910200119001 17.102001279592518 12.870642840862272 670.73156467080116 3.3154810816049567 2.6442612409591675 11.247113510966299 3.8420227691531172 22.726366490125656 122.42018196731806 3.1644588708877572 2.9604616761207554 97.799406930804253 3.6986557543277723 5.2756968289613724 24.221058189868927 30.657519906759262 2.9033734649419776 375.59765280038118 7.4220122992992392
leaf_count=44 1288 59 93 119 99 67 2956 25 20 88 28 175 973 25 23 825 29 41 164 264 20 2675 39
internal_value=0 0.0156296 0.0167104 -0.0184757 -0.0175751 0.0476549 0.0105525 -0.0192538 -0.0268164 -0.0190716 0.0656302 -0.0214678 -0.0183271 0.0139585 0.0608597 -0.0448744 0.0914517 0.0602713 -0.0251041 -0.030546 -0.0225326 -0.0128866 0.0225468
internal_weight=0 888.132 880.128 765.59 755.964 18.9665 689.364 736.998 336.876 235.761 6.48628 229.275 218.028 37.8256 15.0993 101.115 11.9348 8.97435 180.202 155.981 125.324 400.122 24.524
internal_count=10139 4396 4337 5743 5624 111 3049 5513 2700 1850 48 1802 1714 293 118 850 93 70 1421 1257 993 2813 138
is_linear=0
shrinkage=0.1


Tree=23
num_leaves=24
num_cat=0
split_feature=8 2 10 4 10 14 2 0 0 0 4 2 6 0 4 0 4 4 6 1 0 1 6
split_gain=39.3252 9.84786 8.42027 4.58315 4.41423 6.84034 4.16861 4.26365 4.11408 3.8419 3.54101 3.38269 3.30168 3.64952 4.51763 9.6384 4.76471 4.05786 9.04232 5.18288 4.60049 3.18269 3.42539
threshold=1.0000000180025095e-35 -0.41978713064263568 1.0000000180025095e-35 -1.5225359314244866 1.0000000180025095e-35 1.0000000180025095e-35 -1.2944363586262564 -0.2218033267620014 -1.6720391621461734 -1.5038746841333881 -0.74747417272246142 0.59334822510505847 -1.5131438951676783 -1.3415594053558302 0.46717485210907089 -1.2158016217984429 0.2126769611919884 -0.076525187577424492 -0.56940969993678858 -0.77228440436459023 -0.98037135258054364 1.0000000180025095e-35 1.7873472794102976
decision_type=2 2 2 2 2 2 2 2 2 2 2 2 2 2 2 2 2 2 2 2 2 2 2
left_child=4 2 3 -2 5 11 8 -8 -5 -3 -10 -1 -12 -14 16 -16 17 20 19 -19 -15 -7 -23
right_child=1 9 -4 6 -6 21 7 -9 10 -11 12 -13 13 14 15 -17 -18 18 -20 -21 -22 22 -24
leaf_value=0.075196624986677785 -0.062477657271400644 -0.1206569665903595 -0.11268295916001539 -0.022487136201915173 -0.086759210348805682 -0.0040472933168033583 0.019769352137407131 0.12052694552855009 0.093053163160911764 0.0045940399896624269 -0.0096384756344511536 -0.01397871888680938 0.079912091607447097 0.087827037749581116 -0.17441702122310646 0.030132390184541932 0.10386255547720238 0.024832081937665576 0.10066963843034971 -0.11873042816303817 -0.0098314507648965387 -0.022321304600597253 0.018546609610820729
leaf_weight=12.061705484986307 5.7119949907064429 2.4623468220233908 4.3922409638762465 8.8764253556728345 8.9423966407775861 139.69931346178055 289.86812609434128 4.2615177184343329 15.247212402522562 450.92557869106531 11.281294383108614 6.5711943805217734 25.280923806130879 15.905649527907363 3.0158000141382209 9.7546856403350812 11.851831838488577 4.1937375962734214 5.1416136175394191 6.2810717299580565 6.9234260842204121 566.04541282355785 21.280041798949242
leaf_count=76 35 10 26 59 119 983 1511 21 116 1899 77 35 189 120 20 66 84 30 37 46 50 4387 143
internal_value=0 0.0141838 0.0250633 0.0264916 -0.016918 -0.0160804 0.0277077 0.0212292 0.0431055 0.0039138 0.0481738 0.0437475 0.0413055 0.0478106 0.0349426 -0.0181728 0.0484286 0.0313396 -0.00794104 -0.0612532 0.0582099 -0.0176137 -0.0208406
internal_weight=0 881.375 427.988 423.595 754.6 745.658 417.883 294.13 123.754 453.388 114.877 18.6329 99.63 88.3487 63.0678 12.7705 50.2973 38.4455 15.6164 10.4748 22.8291 727.025 587.325
internal_count=10139 4396 2487 2461 5743 5624 2426 1532 894 1909 835 111 719 642 453 86 367 283 113 76 170 5513 4530
is_linear=0
shrinkage=0.1


Tree=24
num_leaves=24
num_cat=0
split_feature=9 2 6 2 5 5 6 7 7 1 7 3 3 5 7 7 6 2 5 5 2 7 7
split_gain=32.3001 8.34859 4.315 3.58301 5.97701 4.01189 6.15189 3.71212 3.34959 3.05354 7.10653 2.98351 5.07892 5.88386 4.56644 4.10628 3.91508 3.57429 3.67227 4.24052 3.40973 3.20589 2.84585
threshold=1.0000000180025095e-35 -0.67489315547119166 0.76625782227523642 -1.9322014206976466 -1.6757383234902752 -1.4798385550999924 -1.5131438951676783 -1.1269183481820013 -1.6200801397392846 -1.8059098099631832 -0.63375655662471819 -0.72656928314044389 -0.78725761022518315 -0.75728773445281572 -1.1269183481820013 -1.3241830648049149 -0.95102899199736657 -0.99195350061525445 -1.1148175467982082 -1.3635152642891406 -0.49996330987446774 -0.4858080191575333 -0.10360763070063882
decision_type=2 2 2 2 2 2 2 2 2 2 2 2 2 2 2 2 2 2 2 2 2 2 2
left_child=1 2 3 8 7 -6 9 -5 -1 -7 -11 12 13 14 15 -2 -14 -16 19 -19 -18 -20 -13
right_child=11 -3 -4 4 5 6 -8 -9 -10 10 -12 22 16 -15 17 -17 20 18 21 -21 -22 -23 -24
leaf_value=0.0080665521548722325 -0.0068003155929394739 0.0056379522762130419 -0.067718428977592754 -0.005337210297609152 0.085283997410208812 0.033098190490268478 0.028422205239537413 -0.14105562853213885 0.10326793530803342 -0.16330171226345314 0.0094220851868903922 -0.023386454481442491 -0.0061495709627744383 -0.10096774921143753 0.11028457453739937 -0.10366410445461403 0.18627243825372322 0.058086901232477117 0.014560092509033075 -0.082564029213374468 0.048252295748050893 0.13775436233659391 -0.010239409078483031
leaf_weight=5.4734677672386196 30.328167662024494 563.73410078883171 4.8317950814962378 5.2268902063369751 11.490285500884054 3.9579782932996741 255.86391695588827 3.2799710109829885 11.379122421145437 4.4737416282296172 5.0948300138115874 373.3594565577805 4.9608903080224991 6.1552343294024459 5.0938989557325867 5.1145345158875015 3.2014438807964325 3.4500913396477726 5.6371983215212822 5.6603431366384038 4.0597171485424024 3.3782396353781188 294.5343916900456
leaf_count=42 195 2418 25 32 87 22 1595 21 94 28 32 2922 31 45 32 34 20 24 36 40 26 22 2316
internal_value=0 0.0128947 0.0260457 0.0275251 0.0249148 0.0274159 0.0249476 -0.0576659 0.072348 -0.0407764 -0.0713341 -0.0154394 0.00319442 -0.00795503 0.00180445 -0.0207782 0.0623238 0.0362746 0.0154757 -0.0293 0.109105 0.0607231 -0.0175887
internal_weight=0 874.806 311.072 306.24 289.388 280.881 269.39 8.50686 16.8526 13.5265 9.56857 744.934 77.0398 64.8177 58.6625 35.4427 12.2221 23.2198 18.1259 9.11043 7.26116 9.01544 667.894
internal_count=10139 4396 1978 1953 1817 1764 1677 53 136 82 60 5743 505 428 383 229 77 154 122 64 46 58 5238
is_linear=0
shrinkage=0.1


Tree=25
num_leaves=24
num_cat=0
split_feature=8 10 2 10 14 5 1 0 2 1 1 1 5 3 14 1 5 1 0 2 0 1 0
split_gain=26.4857 8.65609 8.01349 4.05338 5.5469 5.03915 3.36847 2.98658 3.90317 3.24006 7.09801 4.56395 3.66713 4.21496 2.97679 3.37626 2.93193 2.75969 2.97723 3.75094 2.74328 5.33462 8.46113
threshold=1.0000000180025095e-35 1.0000000180025095e-35 -1.0794184234136155 1.0000000180025095e-35 1.0000000180025095e-35 -0.50370575719831601 0.98810886454551528 0.5952566914088141 -0.018906234483476149 1.6179743460821576 1.8871476287901248 0.95042460496639902 2.5056774589259465 1.7737897927508135 1.0000000180025095e-35 -1.3536986950137981 0.78626819823107563 0.55743161221276794 -0.029145326951701796 -0.49996330987446774 0.48485305584389843 0.20750634469241069 0.50934657764141289
decision_type=2 2 2 2 2 2 2 2 2 2 2 2 2 2 2 2 2 2 2 2 2 2 2
left_child=3 2 -2 4 5 -1 14 20 -9 11 -11 -10 13 -13 15 -4 -7 -16 19 -19 -6 -22 -23
right_child=1 -3 6 -5 7 16 -8 8 9 10 -12 12 -14 -15 17 -17 -18 18 -20 -21 21 22 -24
leaf_value=0.14695048549381717 0.031469050167272528 -0.096543540002323722 -0.016796958410699708 -0.08391811415138288 -0.011831133760138113 -0.010103476395975509 -0.076852179581355831 -0.051361774089945245 -0.011505393250000592 0.039873801452590063 -0.039215559196833796 -0.03531750201071545 0.064768118451719356 -0.099872565975580557 0.0061607577609376525 0.076957603798110119 0.093209243933594255 0.10421510530745087 0.11391603736741063 -0.020571680902542872 0.083666867761083494 0.086167181239745552 -0.02896541842878117
leaf_weight=3.6007679700851467 178.73194115608931 7.3260034695267668 5.5331357270479229 8.2153911590576154 343.11483784765005 11.251986831426619 4.6809589117765418 39.240120008587837 145.89835644513369 26.830983087420464 19.663855656981468 75.696782015264034 3.217237412929534 11.67406491935253 644.84523324668407 12.560396641492842 3.6341104656457892 3.5574585348367682 4.8247904032468787 7.4603084772825232 8.9197152033448202 8.2727055698633176 27.945319198071957
leaf_count=25 1288 59 27 119 2463 66 20 348 1195 222 171 645 22 97 2864 66 20 20 20 32 69 63 218
internal_value=0 0.011697 0.0126167 -0.014069 -0.0132818 0.0407956 0.00768669 -0.0146889 -0.0218058 -0.0177074 0.00642489 -0.022452 -0.0400822 -0.043943 0.00826968 0.0482868 0.015118 0.00717378 0.048407 0.01972 -0.00878234 0.0143931 -0.00266752
internal_weight=0 869.52 862.194 737.176 728.961 18.4869 683.462 710.474 322.221 282.981 46.4948 236.486 90.5881 87.3708 678.781 18.0935 14.8861 660.688 15.8426 11.0178 388.253 45.1377 36.218
internal_count=10139 4396 4337 5743 5624 111 3049 5513 2700 2352 393 1959 764 742 3029 93 86 2936 72 52 2813 350 281
is_linear=0
shrinkage=0.1


Tree=26
num_leaves=24
num_cat=0
split_feature=8 10 2 4 7 4 1 10 14 5 14 0 2 0 2 5 2 1 1 0 0 0 2
split_gain=21.7171 7.41743 7.01966 3.67892 4.91761 7.88368 4.44294 3.63863 4.57364 4.35592 3.54833 3.31524 2.71563 5.30265 2.66634 2.88996 7.01543 2.57672 5.00929 3.73041 5.72863 2.98629 4.04477
threshold=1.0000000180025095e-35 1.0000000180025095e-35 -0.41978713064263568 -1.5225359314244866 -1.200892616915594 -0.63179331321469634 -1.2514128475847719 1.0000000180025095e-35 1.0000000180025095e-35 -0.50370575719831601 1.0000000180025095e-35 -0.2218033267620014 -1.7463384597511273 -1.5557863273460304 -1.567764242371138 -1.3635152642891406 -1.4402112299568599 1.8871476287901248 1.7633279187444593 1.6137485082427701 0.91915609905952655 0.5952566914088141 0.89947545489932601
decision_type=2 2 2 2 2 2 2 2 2 2 2 2 2 2 2 2 2 2 2 2 2 2 2
left_child=7 2 3 -2 6 -6 12 8 9 -1 -7 14 13 -5 -12 16 -16 18 21 20 -20 -10 -23
right_child=1 -3 -4 4 5 10 -8 -9 17 -11 11 -13 -14 -15 15 -17 -18 -19 19 -21 -22 22 -24
leaf_value=0.13866589628064011 -0.058126740746145246 -0.09279332424305281 0.0028089290594530006 -0.11397560356215719 -0.12982582480888874 0.092520892469724295 0.0959583290474912 -0.081447701212685672 -0.0075539913195594296 0.013759155716817812 0.043466081616123739 0.11211383519842065 0.067366255313593706 0.077348446727487724 -0.15542343337458722 0.016676297679244119 0.044291829059915203 -0.044572166670242455 -0.010841328699055333 -0.020981138997926405 0.17462298996956513 -0.031500371168626189 -0.007401612120554308
leaf_weight=3.4426355734467533 5.8027343153953543 6.8830148056149474 449.2501926869154 3.3903088122606277 3.5221720784902564 6.7155174911022177 16.394648052752018 7.6476493813097468 382.83592438697815 14.771658077836035 37.396031156182289 3.7973106056451789 5.0938388630747813 2.5293768122792244 3.2681185305118561 316.20905593037605 3.8086100816726676 25.534061968326569 2.7990187481045705 4.0899084880948067 4.1123111769556999 161.22045578807592 122.61862053722143
leaf_count=25 35 59 1876 24 26 35 129 119 2789 86 296 20 34 21 25 1789 27 228 22 31 33 1418 992
internal_value=0 0.0106019 0.0114322 0.0209289 0.0220697 0.0190789 0.0629588 -0.0128334 -0.012106 0.0373674 0.0204918 0.0191647 0.0138361 -0.0322262 0.0181861 0.0152619 -0.0479391 -0.0133874 -0.0122124 0.0547164 0.0995118 -0.0133169 -0.0210897
internal_weight=0 864.061 857.178 407.928 402.125 374.717 27.4082 729.072 721.425 18.2143 371.195 364.479 11.0135 5.91969 360.682 323.286 7.07673 703.21 677.676 11.0012 6.91133 666.675 283.839
internal_count=10139 4396 4337 2461 2426 2218 208 5743 5624 111 2192 2157 79 45 2137 1841 52 5513 5285 86 55 5199 2410
is_linear=0
shrinkage=0.1


Tree=27
num_leaves=24
num_cat=0
split_feature=8 10 2 10 3 3 7 7 7 3 2 1 0 5 5 0 7 1 1 0 1 5 5
split_gain=17.8061 6.36001 6.15118 3.25673 2.91664 4.2299 7.06273 3.89941 4.73761 10.9294 4.36922 4.57966 11.4984 3.68037 3.67708 3.57501 3.46298 3.45346 6.06085 3.23626 9.81579 4.82342 4.7704
threshold=1.0000000180025095e-35 1.0000000180025095e-35 -1.0794184234136155 1.0000000180025095e-35 -0.28354449542184784 -0.33209515708963866 -0.2145690338010276 -1.7556996324175378 -1.2748668856491865 0.35368293896791447 0.18882295716263395 0.75123637576250391 0.610245264449084 -0.11030809861371978 -0.20826297693949911 0.38102976941861361 0.31557989212305254 -1.0899088779599917 -0.78843480132706734 -0.010866579341616443 0.089070100300904259 -0.78882067529858757 -0.41564924579624951
decision_type=2 2 2 2 2 2 2 2 2 2 2 2 2 2 2 2 2 2 2 2 2 2 2
left_child=3 2 -2 4 5 13 15 -6 9 10 11 12 -9 14 16 -7 19 -10 -19 21 22 -1 -21
right_child=1 -3 -4 -5 7 6 -8 8 17 -11 -12 -13 -14 -15 -16 -17 -18 18 -20 20 -22 -23 -24
leaf_value=-0.0013117639616392911 0.027234421384552072 -0.089162643087079801 0.0060909283117136052 -0.078947940839086558 -0.077469081277496299 -0.015572627284058203 0.18814661791028336 -0.040798292300940224 -0.13130922870568282 0.18025817576740188 -0.11622301688462025 -0.023327684870784616 0.27215581753131018 0.07768312833101236 -0.11171993211527205 0.10986150929050523 0.096814972467892627 0.090481601708802983 -0.016235567226997719 0.16687833128432297 -0.0060301820695031465 -0.043778501535449821 0.010738192469500649
leaf_weight=75.091493375599384 172.5055785253644 6.4686277806758872 679.92346447706223 7.1278921365737906 9.7787416577339155 8.9566899687051755 2.9845873937010756 2.6198170259594979 2.568902611732482 4.068027712404727 2.822328843176364 8.4399978592991811 2.1273426786065102 5.2479175478219977 3.3091619908809653 3.0445647165179244 3.2582375183701506 5.3812003359198561 482.76872984319925 5.5188803374767303 41.984537675976753 41.542388826608658 3.0315294563770276
leaf_count=492 1288 59 3049 119 92 64 21 21 19 37 24 77 20 36 23 22 22 41 3988 36 280 288 21
internal_value=0 0.00962012 0.0103697 -0.0116883 -0.0110173 -0.000550821 0.0504837 -0.0149172 -0.0137197 0.0338924 -0.00329933 0.0208687 0.0994457 -0.0048238 -0.00731603 0.0162484 -0.00528883 -0.0156677 -0.0150592 -0.0072789 0.0138589 -0.0164375 0.111519
internal_weight=0 858.898 852.429 721.673 714.545 193.97 14.9858 520.575 510.796 20.0775 16.0095 13.1872 4.74716 178.984 173.736 12.0013 170.427 490.719 488.15 167.169 50.5349 116.634 8.55041
internal_count=10139 4396 4337 5743 5624 1305 107 4319 4227 179 142 118 41 1198 1162 86 1139 4048 4029 1117 337 780 57
is_linear=0
shrinkage=0.1


Tree=28
num_leaves=24
num_cat=0
split_feature=8 5 6 5 0 3 1 6 0 7 3 5 3 0 0 6 3 0 0 6 1 1 3
split_gain=14.6057 5.48032 4.50694 5.30084 5.85076 4.4876 6.29776 5.17951 4.16154 4.08156 3.85452 3.44238 5.12599 3.95231 7.27209 7.87568 3.34401 4.96224 5.52947 5.17978 4.63103 3.99959 3.56877
threshold=1.0000000180025095e-35 -0.28957741198081283 0.19898590164464666 0.61685729874259432 -0.099335717774429552 -0.31388865896421747 0.75123637576250391 0.19898590164464666 -1.1273324833656297 0.38955416085664435 -0.58091729813706972 0.80378760850775766 0.47505959313739304 -0.73251153498778609 -0.60748490133480237 1.1788192190974833 -1.2060070671098846 -1.3934710485684725 -1.0629912917781292 -0.2703026872406597 -1.3536986950137981 -1.1921947253890177 -0.54450430188622601
decision_type=2 2 2 2 2 2 2 2 2 2 2 2 2 2 2 2 2 2 2 2 2 2 2
left_child=-1 5 16 4 8 6 7 -2 -4 -10 -9 12 -5 -13 15 -15 -3 -18 19 -19 22 -21 -20
right_child=1 2 3 11 -6 -7 -8 10 9 -11 -12 13 -14 14 -16 -17 17 18 20 21 -22 -23 -24
leaf_value=-0.010658042993162517 0.020733634072792724 -0.1182383346677342 0.091855786389102398 -0.013072143316090606 0.12172207286180639 0.083882992824167973 -0.10768892025493032 0.012426538940298 0.062859688312831716 0.0082703659906900456 -0.11392987846501577 0.050903103293789158 -0.12137237857442176 -0.1448260465013608 0.0063123820041616711 0.0038199332426291179 0.09017796757784631 -0.0078903053883923394 0.0012317878120008516 -0.10871651821027895 -0.010544972835469702 -0.0025118208756314789 0.081065058197917428
leaf_weight=715.83709605038166 300.71712844073772 2.8382614254951468 7.6370191574096671 26.612779155373577 5.9643055200576773 10.301187932491301 4.011400766670703 4.6204051747918129 15.842630729079245 101.10860805213451 5.0560743212699872 16.851135961711407 5.2291088700294486 6.9151640906929952 158.93049877882004 7.3558921217918396 4.9209475070238105 18.450291484594345 11.74040210992098 14.256675206124784 109.71591464430094 4.7198326885700217 10.705386236310003
leaf_count=5743 1945 13 35 112 28 53 22 25 78 448 26 73 22 30 664 31 22 86 57 68 489 22 47
internal_value=0 0.0087059 0.00243633 0.00897897 0.0249674 0.0189354 0.0168075 0.0184164 0.0203356 0.0156652 -0.0535962 -0.000427893 -0.0308573 0.00467033 0.000172245 -0.0682078 -0.010566 -0.0088148 -0.0116873 -0.0456189 -0.00207819 -0.0823013 0.0393078
internal_weight=0 854.501 529.795 352.447 130.553 324.706 314.405 310.394 124.588 116.951 9.67648 221.895 31.8419 190.053 173.202 14.2711 177.348 174.509 169.589 37.4268 132.162 18.9765 22.4458
internal_count=10139 4396 2325 1521 589 2071 2018 1996 561 526 51 932 134 798 725 61 804 791 769 176 593 90 104
is_linear=0
shrinkage=0.1


Tree=29
num_leaves=24
num_cat=0
split_feature=8 10 2 2 4 7 4 6 7 6 10 14 5 6 4 7 2 6 2 6 4 4 4
split_gain=11.9322 5.40121 4.91331 3.6628 6.37038 3.82379 5.95915 4.16323 2.98023 2.97414 2.93269 3.82246 3.71333 2.84305 3.89471 4.66586 4.58425 3.80135 3.74517 3.07619 4.90353 8.39279 6.262
threshold=1.0000000180025095e-35 1.0000000180025095e-35 -0.41978713064263568 -1.9322014206976466 -1.4878316735721571 -1.200892616915594 -0.6086571413131433 -1.6162842443732399 -0.63375655662471819 -0.78600443326846836 1.0000000180025095e-35 1.0000000180025095e-35 -0.50370575719831601 0.26087011116798386 0.52501528186295354 0.13064422028907127 -0.55827325840670827 0.76625782227523642 -1.0794184234136155 -0.56940969993678858 0.2126769611919884 0.43247059425674211 0.16640461738888176
decision_type=2 2 2 2 2 2 2 2 2 2 2 2 2 2 2 2 2 2 2 2 2 2 2
left_child=10 2 3 -2 -5 -6 -7 8 -8 -4 11 12 -1 14 16 -16 18 -15 19 20 22 -22 -9
right_child=1 -3 9 4 5 6 7 13 -10 -11 -12 -13 -14 17 15 -17 -18 -19 -20 -21 21 -23 -24
leaf_value=0.13212512714905103 0.066306137592217915 -0.085941910920375245 -0.053456527798297397 -0.11042570697398831 0.059254642890193547 -0.11185789211675078 -0.11567402013784545 0.012174510537873402 0.0043125592226684883 0.0026021240037168505 -0.076061680660824027 -0.010240630160813904 0.014905068462442994 0.054839103402566182 -0.089896976467627232 0.0044656972184553114 0.087823096928078867 -0.010210461577529572 -0.00032158924133571416 0.062202930899820479 0.098254911722396393 -0.05713562909180863 -0.14592552706262479
leaf_weight=3.3060769811272648 14.332929596304892 6.0906951352953902 9.6728653907775861 4.018695428967475 19.514014698565006 3.73473897576332 4.0901522487401962 44.313601069152355 4.191352464258669 438.33438219130039 6.5906492061913005 686.02693012356758 14.801840424537657 37.162133537232876 5.4583199471235266 131.0088269636035 10.412997931241987 11.847593218088148 59.408714577555656 24.552210971713066 15.184351526200773 4.5076607242226592 2.655358023941516
leaf_count=25 133 59 40 21 152 25 25 352 28 1836 119 5513 86 196 26 705 50 59 327 188 120 33 21
internal_value=0 0.00789015 0.00856696 0.0166764 0.0148146 0.0161459 0.0137996 0.0151223 -0.0549476 0.00139177 -0.00966506 -0.00904359 0.0363067 0.016797 0.0131205 0.000691443 0.0236534 0.039114 0.0192171 0.031943 0.0207978 0.0626848 0.00323643
internal_weight=0 850.492 844.401 396.394 382.061 378.042 358.528 354.793 8.2815 448.007 710.725 704.135 18.1079 346.512 297.502 136.467 161.035 49.0097 150.622 91.2132 66.661 19.692 46.969
internal_count=10139 4396 4337 2461 2328 2307 2155 2130 53 1876 5743 5624 111 2077 1822 731 1091 255 1041 714 526 153 373
is_linear=0
shrinkage=0.1


Tree=30
num_leaves=24
num_cat=0
split_feature=8 2 4 7 7 5 3 5 3 3 3 0 7 4 5 2 3 7 0 0 4 4 2
split_gain=9.76927 4.43499 4.20188 5.35216 3.45461 3.73144 4.34406 5.37068 4.19627 4.63266 3.42991 3.39768 3.30478 3.52456 3.24973 4.09241 3.29003 3.11425 2.816 3.82343 3.04863 9.27708 5.23276
threshold=1.0000000180025095e-35 -1.9322014206976466 -1.4878316735721571 -1.200892616915594 -1.1022602586041372 -0.093188218788045882 -0.8479459373099224 0.084812585397098308 -0.41705881500827441 -0.44740297855064404 0.013828307293374436 -0.56727165659261447 1.1909420721372299 1.1265557513033324 -0.060336827453948992 -0.842534257501385 -0.22892500104558264 -1.6200801397392846 -0.95295323116541553 -1.0754208401529872 0.50187910996140095 0.37463016450285963 -0.87897797533403588
decision_type=2 2 2 2 2 2 2 2 2 2 2 2 2 2 2 2 2 2 2 2 2 2 2
left_child=-1 17 -3 -4 -5 8 7 -7 9 12 11 -10 13 18 16 -16 -8 -2 19 -6 21 -20 -23
right_child=1 2 3 4 5 6 14 -9 10 -11 -12 -13 -14 -15 15 -17 -18 -19 20 -21 -22 22 -24
leaf_value=-0.0087713815469032431 -0.0014720062047315484 -0.083601241779592647 0.057313637691917996 -0.072868241340267731 0.009133251245870614 -0.10404138483759658 -0.009984812777659207 0.020748727885906634 0.033416164942717048 -0.10102265793371822 -0.039718012179787543 0.098142984729551866 0.074327681029888418 -0.055949096011498445 0.056943501164718184 0.0015037819656757263 -0.11906512352014408 0.096905527025280033 0.0033966678148400105 0.04008723060431453 0.025603227991367297 -0.21030588069091283 -0.056444264919909885
leaf_weight=705.17863630130887 4.9382255226373664 5.1755902469158164 20.443728871643543 5.5856264680623999 169.60719189420342 8.60721956938505 7.6211156249046326 5.7546151131391516 27.793318837881088 3.7337198704481116 4.5166831389069548 11.451239980757235 8.0344099253416044 8.0463560372591001 13.757710658013819 413.65210395306349 4.3395322859287244 9.2363558411598188 32.420684687793255 52.181344047188759 18.926261030137539 3.2753095328807831 6.7984461784362775
leaf_count=5743 42 25 159 38 1081 39 34 27 136 20 21 61 42 39 81 1766 20 94 208 306 101 22 34
internal_value=0 0.00716681 0.00622155 0.00678399 0.0055025 0.00604933 8.05901e-05 -0.0540395 0.0138588 0.00967851 0.0428053 0.0523029 0.0110595 0.00931426 0.00184963 0.00328831 -0.0495611 0.0626322 0.0111685 0.016416 -0.00778002 -0.0226483 -0.10647
internal_weight=0 845.897 831.722 826.547 806.103 800.517 453.732 14.3618 346.785 303.024 43.7612 39.2446 299.29 291.256 439.37 427.41 11.9606 14.1746 283.209 221.789 61.4207 42.4944 10.0738
internal_count=10139 4396 4260 4235 4076 4038 1967 66 2071 1853 218 197 1833 1791 1901 1847 54 136 1752 1387 365 264 56
is_linear=0
shrinkage=0.1


Tree=31
num_leaves=24
num_cat=0
split_feature=8 10 2 6 5 0 6 5 1 7 5 0 2 2 2 11 0 5 6 2 1 10 1
split_gain=7.98581 4.62387 3.86661 3.84935 4.64259 5.51097 5.55821 5.45001 5.00065 5.17821 7.84685 3.51144 3.38393 5.32307 3.26537 3.10245 2.73065 2.82203 5.78736 3.89965 2.64797 2.62478 2.60393
threshold=1.0000000180025095e-35 1.0000000180025095e-35 -1.1923939486948341 -0.048550936448701391 -0.73649217447787241 -0.98037135258054364 -0.56940969993678858 -0.90949884802542158 -0.44927646511502983 0.22927657860052755 -0.47806589050490561 -1.6720391621461734 -1.7463384597511273 -2.0050888563629483 -1.567764242371138 1.0000000180025095e-35 -1.3415594053558302 -1.2698253735278671 -1.4203175808826727 -1.6406516780364397 0.98810886454551528 1.0000000180025095e-35 -1.3536986950137981
decision_type=2 2 2 2 2 2 2 2 2 2 2 2 2 2 2 2 2 2 2 2 2 2 2
left_child=21 2 3 4 5 6 11 14 9 -6 -11 12 13 -2 -7 20 17 -13 -19 -20 -4 -1 -17
right_child=1 -3 15 -5 8 7 -8 -9 -10 10 -12 16 -14 -15 -16 22 -18 18 19 -21 -22 -23 -24
leaf_value=-0.0073698832369813311 0.015367609093638282 -0.082859233868940133 0.0038910053491993074 0.10214484546527834 -0.0069665459804519689 -0.059002705143640713 0.11553897367445105 -0.13795409673254672 0.088637190742873601 -0.243669569071327 -0.010663900877086787 0.0900800602496801 0.045770065638316496 -0.18080291384088346 0.053575157806385457 -0.0044284708016271339 0.018620661463487526 -0.060408842307188085 -0.0066541562739629665 0.11603102234584042 -0.070900331702007366 -0.073177463793342376 0.089653970986161499
leaf_weight=694.88980682939291 2.9297618344426155 5.7506938874721518 694.01384332031012 5.901820980012416 12.623305499553686 4.4312929064035407 8.4173412770032865 3.4701230376958838 3.4283448085188857 2.7483940497040749 3.0483867153525344 15.299727916717531 3.7444883808493596 2.6204054057598114 6.1554106920957556 4.7597963958978653 34.620514780282981 4.9066585525870314 4.1422498449683181 6.9175374284386555 4.766325667500495 6.1142827346920958 7.7020593732595426
leaf_count=5624 24 59 3209 46 98 37 74 26 27 20 22 139 25 18 49 24 298 36 39 59 21 119 46
internal_value=0 0.00650321 0.00711744 0.0233073 0.0194139 0.0287367 0.0384779 -0.0291957 -0.0222565 -0.042896 -0.121138 0.0298501 -0.0276899 -0.0772506 0.00645327 0.00426285 0.0379673 0.0593894 0.0299804 0.0700814 0.00338086 -0.00794387 0.0537193
internal_weight=0 842.398 836.648 125.406 119.504 97.6555 83.5987 14.0568 21.8484 18.4201 5.79678 75.1813 9.29466 5.55017 10.5867 711.242 65.8867 31.2662 15.9664 11.0598 698.78 701.004 12.4619
internal_count=10139 4396 4337 1037 991 824 712 112 167 140 42 638 67 42 86 3300 571 273 134 98 3230 5743 70
is_linear=0
shrinkage=0.1


Tree=32
num_leaves=24
num_cat=0
split_feature=0 2 10 14 3 1 4 13 2 5 2 0 2 5 1 2 4 4 3 1 4 4 1
split_gain=7.08032 6.79473 5.61908 4.85031 5.45056 5.11792 5.01341 4.48695 4.41536 4.13779 3.4834 4.03387 3.38292 6.42935 3.666 3.25395 3.50663 5.94295 5.04906 3.34224 3.08388 8.10128 3.87057
threshold=0.582827143033956 2.1312731176429254 1.0000000180025095e-35 1.0000000180025095e-35 1.5553118152457521 -0.52464498427325934 2.2949324323317581 1.0000000180025095e-35 -1.9322014206976466 -1.9830970994503929 2.9512567688775704 2.985751303855777 -0.41978713064263568 -0.94276974633307653 0.20750634469241069 -0.018906234483476149 -1.1176529231473091 -1.5572401892768162 0.36582060438486291 0.089070100300904259 1.3000770405649797 0.97617063394323667 0.20750634469241069
decision_type=2 2 2 2 2 2 2 2 2 2 2 2 2 2 2 2 2 2 2 2 2 2 2
left_child=1 2 3 7 6 -6 8 -1 -5 -10 11 15 -11 14 -14 -2 17 -17 19 -18 21 -20 -23
right_child=10 -3 -4 4 5 -7 -8 -9 9 12 -12 -13 13 -15 -16 16 18 -19 20 -21 -22 22 -24
leaf_value=0.070536096083622365 -0.040265660216210163 -0.10515059892849817 -0.07094000694561052 0.062142651910728042 0.14574885108868785 0.015876996165607567 -0.1018319033922523 -0.02880857524599939 -0.10286591162891093 0.0094171852626758271 0.049160217803624597 -0.12017612457045575 0.032406698620815695 -1.8036510792168506e-05 -0.086731512851857914 -0.082096187056582837 0.041335922748740178 0.060294877414203474 -0.0084621621922435844 -0.075840166277079457 -0.050357742622007165 0.028657580141076607 0.19853060588826812
leaf_weight=19.77611214667559 39.447454735636711 5.7217412889003745 9.9002271555364114 12.678421705961226 5.1590401530265808 7.3677301555871946 4.5402930080890647 5.9034972786903372 3.6939032673835746 487.32005320489407 8.8238090574741346 3.5734971091151229 3.2109084129333523 620.62227285653353 13.203222349286078 3.6462814956903484 2.8166905716061619 14.944953739643095 223.99149945378304 17.926587425172329 16.464421167969704 2.6135241352021685 2.7554303519427776
leaf_count=125 376 25 155 132 21 30 19 28 23 3124 56 29 19 3439 95 33 23 136 1962 168 79 20 22
internal_value=0 0.00356289 0.00408412 0.00471173 0.00375831 0.0693636 0.00304073 0.0476977 0.00345814 0.00279857 -0.0128427 -0.0145098 0.00314572 -0.00165183 -0.0634259 -0.0133465 -0.00962267 0.0323679 -0.0125512 -0.059929 -0.00855336 -0.00555247 0.115839
internal_weight=0 1199.1 1193.38 1183.48 1157.8 12.5268 1145.27 25.6796 1140.73 1128.05 337.004 328.18 1124.36 637.036 16.4141 324.607 285.159 18.5912 266.568 20.7433 245.825 229.36 5.36895
internal_count=10139 7235 7210 7055 6902 51 6851 153 6832 6700 2904 2848 6677 3553 114 2819 2443 169 2274 191 2083 2004 42
is_linear=0
shrinkage=0.1


Tree=33
num_leaves=24
num_cat=0
split_feature=1 2 7 2 7 4 5 5 7 5 4 5 5 0 1 5 2 7 4 0 0 5 0
split_gain=5.90695 4.38809 3.40269 3.33492 3.51128 10.0819 6.00145 7.45365 5.01296 6.89048 4.91006 5.14655 4.70665 4.5249 5.16048 4.22179 12.1109 3.99756 13.2421 6.46886 4.11901 3.8109 5.52363
threshold=0.95042460496639902 -1.9322014206976466 -1.6200801397392846 -0.41978713064263568 -0.10360763070063882 -0.36572733634683691 0.11295950567058113 0.39171190133855788 -0.89266649719229207 -0.65563719945521648 -0.26161456278984835 -0.37081194093192565 -0.58260303301103444 0.83361156024432714 0.60588280310020237 0.64327624981546949 0.89947545489932601 -0.41183375042394083 -0.65492948511624938 0.35617067266889751 0.91915609905952655 -0.39813982378084306 0.30718362907386881
decision_type=2 2 2 2 2 2 2 2 2 2 2 2 2 2 2 2 2 2 2 2 2 2 2
left_child=1 2 -1 -3 8 6 21 -8 9 -5 11 -7 -11 -13 -15 16 17 -10 19 -19 -20 -6 -23
right_child=-2 3 -4 4 5 10 7 -9 15 12 -12 13 -14 14 -16 -17 -18 18 20 -21 -22 22 -24
leaf_value=-0.0077615160161756142 -0.015475178367019766 0.0084866744619269737 0.099276212502062783 -0.057071715206998386 0.1052935403369558 0.073851970662557276 0.25303263520454106 0.050292422848586385 -0.03974984930704073 0.13767783596194993 0.0013493103182622833 -0.092542840030125084 0.022882774996447301 0.10376891869305536 -0.095276832120138891 -0.086934625854785702 0.15149849029653908 0.18711905237906556 -0.029265233356474407 -0.0086681561452653308 0.073284216572515978 -0.12123714503033611 0.075050539873589894
leaf_weight=4.6520480662584296 213.45418877154589 482.10286263376474 8.2137173041701299 10.29350985214114 3.6635435372591028 3.122242663055661 3.454266592860221 3.8173967823386192 70.773402772843838 4.0212095379829398 585.91010555624962 14.781844768673183 31.945513263344765 2.9317719228565684 2.3438300639390945 9.5494940094649774 4.0821779146790496 4.90640053898096 53.09945010766387 2.5723071843385696 4.2286744639277449 2.9320331625640401 2.8053094558417797
leaf_count=42 1863 3119 95 77 28 26 28 32 586 29 3130 120 259 25 21 74 33 38 408 21 38 23 24
internal_value=0 0.00245831 0.0605731 0.00188464 -0.00199106 0.00166351 0.078383 0.1466 -0.0136904 0.0150705 -0.000436523 -0.0455768 0.0357173 -0.0641677 0.0153374 -0.0226072 -0.0182087 -0.0233185 -0.00537426 0.119778 -0.0217009 0.0256163 -0.0252611
internal_weight=0 1316.2 12.8658 1303.34 821.234 625.762 16.6725 7.27166 195.472 46.2602 609.09 23.1797 35.9667 20.0574 5.2756 149.212 139.662 135.58 64.8068 7.47871 57.3281 9.40089 5.73734
internal_count=10139 8276 137 8139 5020 3457 135 60 1563 365 3322 192 288 166 46 1198 1124 1091 505 59 446 75 47
is_linear=0
shrinkage=0.1


Tree=34
num_leaves=24
num_cat=0
split_feature=0 2 11 3 6 1 2 7 7 6 3 1 2 0 5 7 6 2 0 7 0 3 6
split_gain=5.21527 5.60207 3.97689 4.83522 4.2536 4.23073 3.7793 3.38747 6.2258 4.42928 5.82166 5.48572 7.95317 4.56425 3.89816 3.97743 2.94156 3.85839 5.56965 4.22594 3.52875 7.61855 9.71187
threshold=0.582827143033956 2.1312731176429254 1.0000000180025095e-35 1.5553118152457521 2.7156104222603532 -0.52464498427325934 -2.1107756380776359 -1.7556996324175378 -1.657067274106081 -0.40438514120788965 0.41437126605265379 0.72431904749170728 0.38197466167568345 0.72320792467941153 -0.40824794419133426 -0.81869222845869938 -1.6162842443732399 -1.520387409188692 -0.380828430969744 -2.5077713645423945 0.48485305584389843 0.25658161563233156 0.044275377836304038
decision_type=2 2 2 2 2 2 2 2 2 2 2 2 2 2 2 2 2 2 2 2 2 2 2
left_child=1 2 3 4 6 -5 -1 -2 -9 11 -11 13 -13 -10 -12 -16 -8 18 -18 -19 -21 22 -22
right_child=7 -3 -4 5 -6 -7 16 8 9 10 14 12 -14 -15 15 -17 17 19 -20 20 21 -23 -24
leaf_value=0.077338404325462767 -0.065609348923423516 -0.096695123587770132 0.054443735884610801 0.1299589992855488 -0.072616763211600918 0.014192190285467192 -0.030136473212641714 0.15820677486797791 0.15112935339116515 -0.048985235636309001 0.072876073707955985 -0.0339640396414383 0.15782158168877178 0.013138995357906731 -0.068303120539332504 -0.0074241955421765794 0.037414502805942856 0.071492912248201201 -0.1218187380331153 2.0706109805033909e-05 0.043207853029933567 -0.015945619634218467 0.23379428444382322
leaf_weight=6.7358231060206881 11.03641603887081 5.6068752631545058 15.127052500844 5.5186033993959427 7.5571372658014289 7.3761917650699598 27.434277638792992 2.2045752927660933 5.2967007011175173 40.881885748356581 5.7798203602433196 14.58016472309828 2.5387652292847624 4.3785229027271271 11.245900698006151 234.71569462120533 47.873814955353737 8.6136815547943097 2.3022847399115554 1017.7660776227713 17.977469559758905 18.818218603730202 3.1408724114298812
leaf_count=73 108 25 106 23 31 30 187 21 46 397 53 144 20 38 100 1977 429 44 14 5958 144 145 26
internal_value=0 0.00302665 0.00349799 0.00283994 0.00216195 0.0637371 0.00265307 -0.0111343 -0.00926503 -0.0104209 -0.0139842 0.0284945 -0.00552192 0.0886818 -0.00830016 -0.0102077 0.0022133 0.00300819 0.0301082 0.00173298 0.00116488 0.0303235 0.0715532
internal_weight=0 1191.85 1186.24 1171.11 1158.22 12.8948 1150.66 332.658 321.622 319.417 292.623 26.7942 17.1189 9.67522 251.741 245.962 1143.93 1116.49 50.1761 1066.32 1057.7 39.9366 21.1183
internal_count=10139 7235 7210 7104 7051 53 7020 2904 2796 2775 2527 248 164 84 2130 2077 6947 6760 443 6317 6273 315 170
is_linear=0
shrinkage=0.1


Tree=35
num_leaves=24
num_cat=0
split_feature=10 12 0 0 5 0 5 0 5 0 4 4 4 6 7 7 7 7 0 4 4 5 0
split_gain=5.63344 4.91627 4.66146 7.9013 7.29959 4.70796 6.00179 4.69297 5.3789 4.49401 3.88566 7.367 6.01193 6.53637 5.00011 4.78785 8.55748 3.4961 3.37763 3.43632 7.38345 4.12833 3.13198
threshold=1.0000000180025095e-35 1.0000000180025095e-35 -0.96209260497045823 -0.97452215334531622 -0.38913041211062221 -0.98037135258054364 -0.37081194093192565 -1.0417879445504303 -0.44765163492195481 -0.98987630133778792 0.43247059425674211 0.40933442235518841 0.68696848517382436 -0.14653426819398532 0.7470964597356754 1.1539549377704341 0.62380601184635465 1.1169678034036381 -1.0505617434032712 -0.89785929008255583 -1.6729210487845811 -1.6757383234902752 -1.0629912917781292
decision_type=2 2 2 2 2 2 2 2 2 2 2 2 2 2 2 2 2 2 2 2 2 2 2
left_child=1 2 3 4 7 6 -6 8 18 -9 11 -4 15 14 -14 16 -12 -16 19 20 -1 -21 -8
right_child=-2 -3 10 -5 5 -7 22 9 -10 -11 12 -13 13 -15 17 -17 -18 -19 -20 21 -22 -23 -24
leaf_value=-0.077337447666133166 -0.07267898011858713 0.10673927159304092 -0.0066027750949741284 0.10301629064271441 -0.14844018314778026 -0.11688554471367313 -0.016128091538373107 0.091097600955468261 0.085112255761627356 -0.016689343985178469 0.049355886576026714 -0.11167687223205838 -0.0010115118274833797 0.0030329261559816703 -0.12196899988985321 0.13031757420140555 -0.030466879245327635 -0.028195880267337194 -0.08054606508842968 -0.078009776597909461 0.10320068993363421 0.011174648510183384 0.021921404024990612
leaf_weight=2.9366241171956053 10.611513579264281 4.3382012844085684 682.53488095849752 9.0228811725974065 2.9836692661046973 4.1773327514529219 71.13212937861681 15.573853947222235 10.098479487001894 5.1463491022586814 43.223165921866894 6.7385435700416556 13.829060189425947 394.71130532771349 9.4990094751119631 4.5937030017375937 19.484957657754421 6.8377930372953406 4.0202391222119322 5.372563559561967 9.9088560715317708 153.03134773671627 31.087897174060345
leaf_count=20 178 21 5514 48 15 20 333 106 54 36 230 44 65 1791 43 35 160 35 24 44 91 1085 147
internal_value=0 0.000438035 0.000131811 0.0107478 0.00810884 -0.012771 -0.00863688 0.0191908 0.0141456 0.0643262 -0.00278394 -0.00763001 0.00400275 -0.000395974 -0.0452621 0.031772 0.024553 -0.0827201 0.0100567 0.0121837 0.0619276 0.00814979 -0.0045562
internal_weight=0 1510.28 1505.94 324.492 315.469 109.381 105.204 206.088 185.368 20.7202 1181.45 689.273 492.179 424.877 30.1659 67.3018 62.7081 16.3368 175.27 171.249 12.8455 158.404 102.22
internal_count=10139 9961 9940 2023 1975 515 495 1460 1318 142 7917 5558 2359 1934 143 425 390 78 1264 1240 111 1129 480
is_linear=0
shrinkage=0.1


Tree=36
num_leaves=24
num_cat=0
split_feature=10 14 1 5 1 1 6 6 5 5 5 4 6 6 2 6 3 4 4 5 6 2 5
split_gain=4.87701 4.1917 4.40516 3.35559 4.90855 4.97505 7.65439 4.44117 4.92876 5.63604 4.95718 4.30953 4.05953 3.09796 7.74854 5.49684 8.26922 4.42524 5.07132 4.41812 4.21331 3.84074 3.06733
threshold=1.0000000180025095e-35 1.0000000180025095e-35 1.0000000180025095e-35 -0.80056687055820974 -1.5744207868343323 -1.789759413000706 -1.250136004693496 -0.68286408406290666 -0.40824794419133426 -0.46259407378963763 -0.11030809861371978 -0.51611245370693137 -0.95102899199736657 1.7873472794102976 1.6210610679858133 2.406189374643668 2.2835717402626234 1.5777111033836151 1.1959642670079911 2.3776179611167474 1.1788192190974833 1.6684379011682593 0.55611868192816949
decision_type=2 2 2 2 2 2 2 2 2 2 2 2 2 2 2 2 2 2 2 2 2 2 2
left_child=1 -1 3 4 5 -3 -7 8 9 11 -10 -5 -12 14 17 16 21 18 -4 -17 -19 -15 -20
right_child=-2 2 13 7 -6 6 -8 -9 10 -11 12 -13 -14 15 -16 19 -18 20 22 -21 -22 -23 -24
leaf_value=0.033968895330762271 -0.069688778186934058 0.018446773138039146 -0.0063165439321035705 -0.068226896133503578 0.026014005531604847 -0.16073637282643136 0.039469040430135938 0.0044597133971048114 -0.079173174517921552 0.095578056497258188 0.074669555033858984 0.0060840460424460077 -0.041431089907401908 0.06235229930623596 -0.061535717371361404 -0.092086147415577232 -0.04127456223707212 -0.12613248032132984 0.022835174906584311 0.019657050989303738 -0.0052255377076965747 0.18113004545759515 0.11792260568019158
leaf_weight=36.308781579136848 9.9926771447062475 9.6765505969524401 546.90749592334032 10.290569342672823 118.91630868986249 5.2090369835495949 3.0149906799197179 615.55005422979593 21.161555014550686 5.5136389210820189 4.6032268553972235 32.298859238624573 8.7105476483702642 6.4325561672449165 26.177029229700565 5.373049095273017 5.0827870294451705 5.9147845059633237 12.165650658309461 10.361955434083937 5.6214006096124649 4.7198778167366982 4.7042748779058448
leaf_count=219 178 68 4492 73 932 38 20 3101 123 35 28 206 46 32 257 29 37 26 62 64 23 29 21
internal_value=0 0.000403998 -0.00042595 0.00434482 0.0186652 -0.0301544 -0.0873396 0.00153837 -0.0202377 0.000444816 -0.0490958 -0.0118712 -0.00128939 -0.00671416 -0.00832642 0.0236191 0.0644405 -0.00590537 -0.00465081 -0.0185 -0.0672164 0.112621 0.0493508
internal_weight=0 1504.71 1468.41 834.945 136.817 17.9006 8.22403 698.128 82.5784 48.1031 34.4753 42.5894 13.3138 633.461 601.491 31.9702 16.2352 575.314 563.777 15.735 11.5362 11.1524 16.8699
internal_count=10139 9961 9742 4670 1058 126 58 3612 511 314 197 279 74 5072 4881 191 98 4624 4575 93 49 61 83
is_linear=0
shrinkage=0.1


Tree=37
num_leaves=24
num_cat=0
split_feature=10 2 14 6 7 7 2 4 7 7 4 3 0 7 4 2 1 0 0 2 6 3 3
split_gain=4.21234 3.86404 4.08615 3.44379 4.19166 4.91623 3.32896 4.85402 4.41938 5.5687 8.20765 5.09154 6.10017 4.27635 9.90245 7.42036 8.11616 7.96066 5.51326 4.22436 5.97671 4.1338 5.77856
